{"learner":{"attributes":{"best_iteration":"42","best_ntree_limit":"43","best_score":"0.4384488063332226"},"feature_names":["bl_cysc","bl_crea","bl_plt","age","bmi2015","bl_wbc","FTSST","Complications","fall","PA","smoke","gender","ADL","Walking speed"],"feature_types":["float","float","float","int","float","float","int","int","int","int","int","int","int","int"],"gradient_booster":{"model":{"gbtree_model_param":{"num_parallel_tree":"1","num_trees":"53","size_leaf_vector":"0"},"tree_info":[0,0,0,0,0,0,0,0,0,0,0,0,0,0,0,0,0,0,0,0,0,0,0,0,0,0,0,0,0,0,0,0,0,0,0,0,0,0,0,0,0,0,0,0,0,0,0,0,0,0,0,0,0],"trees":[{"base_weights":[-3.8610037E-2,-8.989547E-1,1.012766E0,-1.2380953E0,1.3846154E0,6.259542E-1,1.4444444E0,-1.5531915E0,-2.9411766E-1,1.5294118E0,2.2222222E-1,1.4736842E0,2.6804122E-1,1.1384616E0,1.7446809E0,-1.1807228E0,-1.7798165E0,-5.4545456E-1,5.882353E-1,-0E0,1.6470588E0,-4.888889E-1,8.5714287E-1,1.4782609E0,2.6086956E-1,-2.857143E-1,-1.3939394E0,-1.5384616E-1,-1.2E0,-6.666667E-1,1.3333334E0,1E0,-7.3170733E-1,-5E-1,1E0,5.882353E-1,1.7575758E0,-4.6153846E-1,8.5714287E-1,-9.0909094E-1,2.857143E-1,-2.857143E-1,-1.5714285E0,-5.4545456E-1,1.2E0,-4E-1,-1.4285715E0,-1.2E0,-0E0,1.0833334E0,-0E0,-2.2222222E-1,1E0,2.2222222E-1,-1E0,1.1111112E0,2.2222222E-1],"categories":[],"categories_nodes":[],"categories_segments":[],"categories_sizes":[],"default_left":[1,1,1,1,1,1,1,1,1,0,0,1,1,1,0,1,0,1,1,0,0,1,1,1,1,1,1,1,1,0,0,0,1,0,1,1,0,1,1,0,0,0,0,0,0,0,0,0,0,0,0,0,0,0,0,0,0],"id":0,"left_children":[1,3,5,7,9,11,13,15,17,-1,-1,19,21,23,-1,25,-1,27,29,-1,-1,31,33,35,37,39,41,43,45,-1,-1,-1,47,-1,49,51,-1,53,55,-1,-1,-1,-1,-1,-1,-1,-1,-1,-1,-1,-1,-1,-1,-1,-1,-1,-1],"loss_changes":[1.1804911E2,5.7281155E1,8.905815E0,1.8282143E1,1.3011551E0,9.541785E0,4.941635E-1,1.8658295E0,4.090909E0,0E0,0E0,2.4272442E0,1.1232334E1,4.4601994E0,0E0,3.5614662E0,0E0,3.33986E0,4.8627453E0,0E0,0E0,4.798916E0,3.2142859E0,1.8250027E0,2.872432E0,2.1298702E0,2.7965355E0,5.8237762E0,3.4285736E-1,0E0,0E0,0E0,3.512195E0,0E0,1.083333E0,1.640523E0,0E0,1.4188035E0,3.174603E-1,0E0,0E0,0E0,0E0,0E0,0E0,0E0,0E0,0E0,0E0,0E0,0E0,0E0,0E0,0E0,0E0,0E0,0E0],"parents":[2147483647,0,0,1,1,2,2,3,3,4,4,5,5,6,6,7,7,8,8,11,11,12,12,13,13,15,15,17,17,18,18,21,21,22,22,23,23,24,24,25,25,26,26,27,27,28,28,32,32,34,34,35,35,37,37,38,38],"right_children":[2,4,6,8,10,12,14,16,18,-1,-1,20,22,24,-1,26,-1,28,30,-1,-1,32,34,36,38,40,42,44,46,-1,-1,-1,48,-1,50,52,-1,54,56,-1,-1,-1,-1,-1,-1,-1,-1,-1,-1,-1,-1,-1,-1,-1,-1,-1,-1],"split_conditions":[5E-1,2.6072206E1,1.5E0,1.5E0,7.45E1,5E-1,2.5323286E1,5E-1,7.35E1,1.5294118E-1,2.2222223E-2,5.571269E-1,2.3239044E1,2.363596E1,1.7446809E-1,7.030545E-1,-1.7798166E-1,2.1298401E2,2.0688004E1,-0E0,1.6470589E-1,5E-1,5.7918566E-1,5E-1,2.4834162E1,6.45E1,1.8653194E1,2.02887E2,6.487558E-1,-6.666667E-2,1.3333334E-1,1E-1,6.75E1,-5E-2,2.745E2,5E-1,1.7575757E-1,7.05E1,2.5012371E1,-9.090909E-2,2.857143E-2,-2.857143E-2,-1.5714286E-1,-5.454546E-2,1.20000005E-1,-4.0000003E-2,-1.4285715E-1,-1.20000005E-1,-0E0,1.0833334E-1,-0E0,-2.2222223E-2,1E-1,2.2222223E-2,-1E-1,1.1111112E-1,2.2222223E-2],"split_indices":[6,4,7,7,3,13,4,13,3,0,0,1,4,4,0,1,0,2,4,0,0,7,1,9,4,3,4,2,1,0,0,0,3,0,2,8,0,3,4,0,0,0,0,0,0,0,0,0,0,0,0,0,0,0,0,0,0],"split_type":[0,0,0,0,0,0,0,0,0,0,0,0,0,0,0,0,0,0,0,0,0,0,0,0,0,0,0,0,0,0,0,0,0,0,0,0,0,0,0,0,0,0,0,0,0,0,0,0,0,0,0,0,0,0,0,0,0],"sum_hessian":[1.285E2,7.075E1,5.775E1,6.2E1,8.75E0,3.175E1,2.6E1,4.6E1,1.6E1,7.5E0,1.25E0,8.5E0,2.325E1,1.525E1,1.075E1,1.975E1,2.625E1,1.275E1,3.25E0,1E0,7.5E0,1.025E1,1.3E1,1.05E1,4.75E0,4.25E0,1.55E1,8.75E0,4E0,1.25E0,2E0,1E0,9.25E0,1E0,1.2E1,3.25E0,7.25E0,2.25E0,2.5E0,1.75E0,2.5E0,2.5E0,1.3E1,7.25E0,1.5E0,1.5E0,2.5E0,5.25E0,4E0,1.1E1,1E0,1.25E0,2E0,1.25E0,1E0,1.25E0,1.25E0],"tree_param":{"num_deleted":"0","num_feature":"14","num_nodes":"57","size_leaf_vector":"0"}},{"base_weights":[-6.546268E-2,-8.5714096E-1,9.260918E-1,-1.1513122E0,1.3292933E0,6.5223527E-1,1.4577322E0,-1.9893554E-1,-1.255711E0,1.5537207E0,3.765679E-1,6.8817985E-1,1.6693957E0,-9.297848E-1,4.9471864E-1,-1.3797882E0,-5.488574E-1,5.728551E-2,7.524547E-1,1.006876E0,-2.530082E-1,-3.64436E-1,-1.1232098E0,1.0348287E0,-3.5307986E-1,-1.4185557E0,-4.0739214E-1,-9.993133E-1,-2.1414353E-2,-3.4196943E-1,4.6085992E-1,1.0116404E0,-4.782853E-2,-1.4438916E0,-5.7279044E-1,-1.196304E0,-1.8381886E-1,1.0152164E0,-8.457106E-1,7.3795485E-1,-9.312119E-1,1.237551E0,-5.755894E-1,5.4939955E-1,1.5035982E0,-7.976567E-1,1.0581272E0],"categories":[],"categories_nodes":[],"categories_segments":[],"categories_sizes":[],"default_left":[1,1,1,1,0,1,1,1,1,0,1,1,0,1,1,1,1,1,1,0,0,0,0,0,0,1,0,1,1,1,1,1,1,0,0,0,0,0,0,0,0,0,0,0,0,0,0],"id":1,"left_children":[1,3,5,7,-1,9,11,13,15,-1,17,19,-1,21,23,25,27,29,31,-1,-1,-1,-1,-1,-1,33,-1,35,37,39,41,43,45,-1,-1,-1,-1,-1,-1,-1,-1,-1,-1,-1,-1,-1,-1],"loss_changes":[1.0118978E2,4.7604465E1,7.38591E0,6.0812073E0,0E0,9.256502E0,1.8902626E0,4.251354E0,4.2590637E0,0E0,3.7551122E0,1.972321E0,0E0,2.6869535E-2,2.4212272E0,1.2313766E0,2.4023156E0,3.0893333E0,3.0462904E0,0E0,0E0,0E0,0E0,0E0,0E0,1.533432E-1,0E0,6.604767E-1,5.747094E0,6.8726835E0,8.339284E0,1.6668348E0,4.568007E0,0E0,0E0,0E0,0E0,0E0,0E0,0E0,0E0,0E0,0E0,0E0,0E0,0E0,0E0],"parents":[2147483647,0,0,1,1,2,2,3,3,5,5,6,6,7,7,8,8,10,10,11,11,13,13,14,14,15,15,16,16,17,17,18,18,25,25,27,27,28,28,29,29,30,30,31,31,32,32],"right_children":[2,4,6,8,-1,10,12,14,16,-1,18,20,-1,22,24,26,28,30,32,-1,-1,-1,-1,-1,-1,34,-1,36,38,40,42,44,46,-1,-1,-1,-1,-1,-1,-1,-1,-1,-1,-1,-1,-1,-1],"split_conditions":[5E-1,2.6104738E1,2.6362907E1,6.1990964E-1,1.3292933E-1,5E-1,8.35E-1,7.25E-1,7.35E1,1.5537207E-1,6.85E1,1.5E0,1.6693957E-1,2.2769667E1,2.025E2,9.385E0,2.0987225E1,2.3103817E1,1.02115E0,1.006876E-1,-2.530082E-2,-3.6443602E-2,-1.1232098E-1,1.03482865E-1,-3.5307985E-2,1.3054302E0,-4.0739216E-2,5.95E0,2.1991238E1,2.0514252E1,6.3942E0,2.05429E2,1.13265E0,-1.4438917E-1,-5.7279047E-2,-1.196304E-1,-1.8381886E-2,1.0152163E-1,-8.4571056E-2,7.379549E-2,-9.312119E-2,1.237551E-1,-5.7558943E-2,5.4939955E-2,1.5035982E-1,-7.976567E-2,1.0581272E-1],"split_indices":[6,4,4,1,0,13,0,0,3,0,3,8,0,4,2,5,4,4,0,0,0,0,0,0,0,1,0,5,4,4,5,2,0,0,0,0,0,0,0,0,0,0,0,0,0,0,0],"split_type":[0,0,0,0,0,0,0,0,0,0,0,0,0,0,0,0,0,0,0,0,0,0,0,0,0,0,0,0,0,0,0,0,0,0,0,0,0,0,0,0,0,0,0,0,0,0,0],"sum_hessian":[1.2689426E2,7.063406E1,5.626019E1,6.2674965E1,7.959101E0,3.860234E1,1.765785E1,6.4786916E0,5.619627E1,7.9542365E0,3.0648104E1,4.726143E0,1.2931707E1,2.9890003E0,3.4896915E0,4.6995014E1,9.201258E0,1.7194937E1,1.3453167E1,3.4784956E0,1.2476475E0,1.4971638E0,1.4918364E0,1.9969075E0,1.4927839E0,4.475201E1,2.2430022E0,4.4802885E0,4.720969E0,8.720461E0,8.474477E0,9.962525E0,3.4906416E0,4.2763767E1,1.988244E0,3.232483E0,1.2478058E0,1.9885558E0,2.7324135E0,2.9893675E0,5.731093E0,4.73337E0,3.7411067E0,6.227737E0,3.734788E0,2.246379E0,1.2442627E0],"tree_param":{"num_deleted":"0","num_feature":"14","num_nodes":"47","size_leaf_vector":"0"}},{"base_weights":[-6.361668E-2,-7.2349906E-1,7.470174E-1,-1.178374E0,3.4624895E-1,3.4981927E-1,1.1981107E0,-1.2987401E0,5.7598776E-1,-8.406708E-2,1.4864446E0,-3.2552242E-1,7.9259926E-1,9.354466E-1,1.4854885E0,-6.3531977E-1,-1.3597748E0,1.0422404E0,-1.1949252E-1,2.7120814E-1,-7.5451416E-1,1.0253773E0,-5.4283154E-1,-6.609228E-1,9.2451406E-1,1.2894533E0,2.8402337E-1,-8.227887E-2,-1.1588106E0,9.980903E-1,-1.8172683E-1,-1.4241354E0,8.108042E-1,-1.0151618E0,-2.372221E-2,4.929376E-1,1.3512268E0,5.849699E-1,1.5502635E0,-4.3944985E-1,8.243862E-1,-7.613114E-1,7.8397864E-1,-7.163052E-1,3.088665E-1,1.5003477E-2,-1.4768872E0,8.500858E-1,-7.8713745E-1,9.416553E-1,-1.7429624E-1,1.5157458E0,5.879026E-1,-2.6209667E-1,9.9125147E-1,-8.259059E-1,1.874031E-1,2.847706E-1,1.1403333E0],"categories":[],"categories_nodes":[],"categories_segments":[],"categories_sizes":[],"default_left":[1,1,1,1,1,1,1,1,1,1,0,1,1,1,0,1,0,0,0,1,1,0,1,0,1,1,1,1,0,0,1,0,0,1,1,1,1,1,0,1,1,0,0,0,0,0,0,0,0,0,0,0,0,0,0,0,0,0,0],"id":2,"left_children":[1,3,5,7,9,11,13,15,17,19,-1,21,23,25,-1,27,-1,-1,-1,29,31,-1,33,-1,35,37,39,41,-1,-1,43,-1,-1,45,47,49,51,53,-1,55,57,-1,-1,-1,-1,-1,-1,-1,-1,-1,-1,-1,-1,-1,-1,-1,-1,-1,-1],"loss_changes":[6.997487E1,3.5473843E1,1.0105503E1,1.1473106E1,1.1053078E1,1.0020757E1,6.5538025E-1,1.0730667E0,1.406603E0,4.281717E0,0E0,4.560129E0,4.4478874E0,3.520688E0,0E0,1.6148307E0,0E0,0E0,0E0,4.107011E0,7.6460705E0,0E0,3.0167177E0,0E0,2.789215E0,1.0477314E0,3.1837065E0,2.9196668E0,0E0,0E0,2.3697095E0,0E0,0E0,3.099413E0,5.2934747E0,3.4283063E0,2.2154999E-1,1.8016738E0,0E0,1.0603137E0,4.389038E-1,0E0,0E0,0E0,0E0,0E0,0E0,0E0,0E0,0E0,0E0,0E0,0E0,0E0,0E0,0E0,0E0,0E0,0E0],"parents":[2147483647,0,0,1,1,2,2,3,3,4,4,5,5,6,6,7,7,8,8,9,9,11,11,12,12,13,13,15,15,19,19,20,20,22,22,24,24,25,25,26,26,27,27,30,30,33,33,34,34,35,35,36,36,37,37,39,39,40,40],"right_children":[2,4,6,8,10,12,14,16,18,20,-1,22,24,26,-1,28,-1,-1,-1,30,32,-1,34,-1,36,38,40,42,-1,-1,44,-1,-1,46,48,50,52,54,-1,56,58,-1,-1,-1,-1,-1,-1,-1,-1,-1,-1,-1,-1,-1,-1,-1,-1,-1,-1],"split_conditions":[5E-1,1.5E0,1.5E0,2.6547318E1,2.5667494E1,2.3198036E1,2.5323286E1,5E-1,2.27087E2,2.175E2,1.4864446E-1,5E-1,5.384617E-1,2.342669E1,1.4854886E-1,8.516E-1,-1.3597749E-1,1.0422404E-1,-1.1949252E-2,7.2752285E-1,7.45665E0,1.0253773E-1,7.4377847E-1,-6.609228E-2,2.6408474E1,5E-1,6.2216997E0,2.4281792E1,-1.1588106E-1,9.9809036E-2,2.2103828E1,-1.4241354E-1,8.108042E-2,7.789E-1,4.76E0,6.3885E0,2.9789959E1,8.883E-1,1.5502636E-1,5E-1,2.4841053E1,-7.613114E-2,7.839786E-2,-7.163052E-2,3.088665E-2,1.5003477E-3,-1.4768873E-1,8.5008584E-2,-7.8713745E-2,9.416553E-2,-1.7429626E-2,1.5157458E-1,5.8790263E-2,-2.6209667E-2,9.912515E-2,-8.2590595E-2,1.874031E-2,2.8477062E-2,1.14033334E-1],"split_indices":[6,7,7,4,4,4,4,7,2,2,0,7,1,4,0,0,0,0,0,1,5,0,1,0,4,9,5,4,0,0,4,0,0,0,5,5,4,0,0,12,4,0,0,0,0,0,0,0,0,0,0,0,0,0,0,0,0,0,0],"split_type":[0,0,0,0,0,0,0,0,0,0,0,0,0,0,0,0,0,0,0,0,0,0,0,0,0,0,0,0,0,0,0,0,0,0,0,0,0,0,0,0,0,0,0,0,0,0,0,0,0,0,0,0,0,0,0,0,0,0,0],"sum_hessian":[1.2880258E2,7.106271E1,5.773986E1,4.9789734E1,2.1272984E1,3.1648296E1,2.6091566E1,4.683604E1,2.9536953E0,1.6116716E1,5.1562667E0,1.2637703E1,1.9010593E1,1.5855088E1,1.0236478E1,4.9071035E0,4.1928936E1,1.469767E0,1.4839283E0,1.0923662E1,5.1930532E0,1.2359449E0,1.1401758E1,1.2480912E0,1.77625E1,9.63801E0,6.2170787E0,2.948908E0,1.9581953E0,3.731556E0,7.1921067E0,3.7003078E0,1.4927456E0,5.469528E0,5.93223E0,9.902415E0,7.860086E0,3.480259E0,6.157751E0,2.738006E0,3.4790723E0,1.7210102E0,1.227898E0,3.2215948E0,3.970512E0,1.9921986E0,3.4773295E0,2.7131817E0,3.219048E0,5.6748033E0,4.227612E0,5.6554513E0,2.2046347E0,1.2431902E0,2.237069E0,1.497346E0,1.2406602E0,1.9869037E0,1.4921687E0],"tree_param":{"num_deleted":"0","num_feature":"14","num_nodes":"59","size_leaf_vector":"0"}},{"base_weights":[-5.303503E-3,-6.756786E-1,7.393121E-1,-9.280181E-1,1.0669987E0,2.8314096E-1,1.2256382E0,-1.1644278E0,-2.1893516E-1,3.928514E-1,1.3703072E0,-9.747671E-1,5.158197E-1,1.4777485E0,9.5366824E-1,3.1903163E-1,-1.214562E0,2.943999E-1,-5.9308344E-1,-1.353553E-1,9.268447E-1,-1.3957351E0,-1.4949657E-1,1.2047205E0,2.4244002E-1,4.9038637E-1,1.5359771E0,1.6997444E-2,1.0247165E0,-8.6246014E-1,-1.4303278E0,1.0024432E0,-2.0175526E-1,-1.0397286E0,-6.0957555E-2,1.4053046E0,3.027224E-1,-3.919298E-1,7.0325917E-1,1.2742429E0,4.6542236E-1,1.7795265E-1,-9.935358E-1,-1.4961401E0,-2.157874E-1,3.5533276E-1,-6.5735936E-1,-3.961868E-1,-1.2462344E0,-5.157597E-1,3.4524167E-1,7.202552E-1,-8.252686E-1,1.1314917E0,4.2484602E-1,4.1217875E-1,1.3999724E0,1.0567212E0,2.8791314E-2],"categories":[],"categories_nodes":[],"categories_segments":[],"categories_sizes":[],"default_left":[1,1,1,1,1,1,1,1,1,1,0,1,1,1,1,0,1,1,1,0,0,0,0,1,1,0,0,0,1,1,1,0,1,1,1,0,0,1,1,1,1,0,0,0,0,0,0,0,0,0,0,0,0,0,0,0,0,0,0],"id":3,"left_children":[1,3,5,7,9,11,13,15,17,19,-1,21,23,25,27,-1,29,31,33,-1,-1,-1,-1,35,37,-1,-1,-1,39,41,43,-1,45,47,49,-1,-1,51,53,55,57,-1,-1,-1,-1,-1,-1,-1,-1,-1,-1,-1,-1,-1,-1,-1,-1,-1,-1],"loss_changes":[6.376516E1,3.054903E1,1.3079926E1,9.677509E0,1.2952414E0,1.0024031E1,5.786629E-1,3.675045E0,3.2565546E0,1.305722E0,0E0,1.6757011E0,5.0012197E0,7.1868896E-3,1.0983982E0,0E0,2.0306778E0,2.8135352E0,2.2214282E0,0E0,0E0,0E0,0E0,9.736748E-1,6.52369E0,0E0,0E0,0E0,1.579567E0,2.7466745E0,1.6852531E0,0E0,1.5541725E0,1.925497E-1,1.1847379E0,0E0,0E0,5.238178E0,1.0379872E0,5.273876E-1,1.6163011E0,0E0,0E0,0E0,0E0,0E0,0E0,0E0,0E0,0E0,0E0,0E0,0E0,0E0,0E0,0E0,0E0,0E0,0E0],"parents":[2147483647,0,0,1,1,2,2,3,3,4,4,5,5,6,6,7,7,8,8,9,9,11,11,12,12,13,13,14,14,16,16,17,17,18,18,23,23,24,24,28,28,29,29,30,30,32,32,33,33,34,34,37,37,38,38,39,39,40,40],"right_children":[2,4,6,8,10,12,14,16,18,20,-1,22,24,26,28,-1,30,32,34,-1,-1,-1,-1,36,38,-1,-1,-1,40,42,44,-1,46,48,50,-1,-1,52,54,56,58,-1,-1,-1,-1,-1,-1,-1,-1,-1,-1,-1,-1,-1,-1,-1,-1,-1,-1],"split_conditions":[5E-1,2.6072206E1,1.5E0,1.5E0,1.5E0,6.233033E-1,7.4045265E-1,5.88801E-1,7.4194026E-1,2.7696821E1,1.3703072E-1,2.6259901E1,5E-1,4.9208158E-1,7.684504E-1,3.1903163E-2,5E-1,2.2182144E1,8.382355E-1,-1.3535529E-2,9.268447E-2,-1.3957351E-1,-1.4949657E-2,8.788294E-1,2.3137604E1,4.9038637E-2,1.5359771E-1,1.6997444E-3,7.05E1,4.375E0,1.4213805E0,1.0024432E-1,6.04E0,7.893158E-1,2.09357E1,1.4053045E-1,3.027224E-2,2.0597542E1,5.7957E0,4.715E0,2.165261E1,1.7795265E-2,-9.935358E-2,-1.4961402E-1,-2.157874E-2,3.5533275E-2,-6.5735936E-2,-3.9618682E-2,-1.2462344E-1,-5.157597E-2,3.452417E-2,7.202552E-2,-8.252686E-2,1.13149166E-1,4.2484604E-2,4.1217875E-2,1.3999724E-1,1.0567212E-1,2.8791314E-3],"split_indices":[6,4,7,7,7,1,1,1,1,4,0,4,13,1,1,0,13,4,1,0,0,0,0,1,4,0,0,0,3,5,1,0,5,1,4,0,0,4,5,5,4,0,0,0,0,0,0,0,0,0,0,0,0,0,0,0,0,0,0],"split_type":[0,0,0,0,0,0,0,0,0,0,0,0,0,0,0,0,0,0,0,0,0,0,0,0,0,0,0,0,0,0,0,0,0,0,0,0,0,0,0,0,0,0,0,0,0,0,0,0,0,0,0,0,0,0,0,0,0,0,0],"sum_hessian":[1.2574117E2,6.621794E1,5.9523228E1,5.8250725E1,7.967221E0,3.1530241E1,2.7992989E1,4.3204197E1,1.5046526E1,3.1844766E0,4.7827444E0,4.4239817E0,2.710626E1,1.222613E1,1.5766859E1,1.23704E0,4.196716E1,6.433225E0,8.6133E0,1.9762071E0,1.2082695E0,2.4718518E0,1.9521297E0,6.732923E0,2.0373337E1,1.2055631E0,1.1020566E1,1.1989988E0,1.456786E1,1.7844473E1,2.4122684E1,2.2301886E0,4.203037E0,4.164158E0,4.4491425E0,5.0515757E0,1.6813471E0,8.635325E0,1.1738011E1,9.189641E0,5.3782196E0,1.9565704E0,1.5887903E1,2.2662798E1,1.4598877E0,1.9899356E0,2.213101E0,1.7206275E0,2.4435306E0,1.9717481E0,2.4773946E0,2.2355564E0,6.3997693E0,3.4174674E0,8.320544E0,1.7142422E0,7.4753985E0,1.6812503E0,3.696969E0],"tree_param":{"num_deleted":"0","num_feature":"14","num_nodes":"59","size_leaf_vector":"0"}},{"base_weights":[-9.158837E-2,-6.772477E-1,6.0254025E-1,-9.203133E-1,9.5236236E-1,1.9413991E-1,1.1012679E0,-1.1759026E0,-1.7434101E-1,3.096135E-1,1.3004533E0,-9.740669E-2,8.5697687E-1,2.529486E-1,1.1474496E0,-1.8718046E-1,-1.2165016E0,1.5766178E-1,-1.0141504E0,-2.717692E-1,9.5691216E-1,-5.376474E-1,5.04289E-1,-6.642923E-1,1.1383505E0,7.9646224E-1,1.4554702E0,-1.3011441E0,-6.699628E-1,-1.9700743E-1,1.0048816E0,-1.2342625E0,-1.9838159E-1,6.7194283E-1,-7.2684485E-1,-2.0335759E-1,1.1308852E0,1.2953979E0,2.7230245E-1,1.0729296E0,-3.2214952E-1,-6.704645E-1,-1.3539219E0,-9.7197795E-1,2.013015E-2,5.617123E-1,-6.033682E-1,4.735922E-2,-1.0952225E0,-4.693486E-1,3.487188E-1,5.5412763E-1,1.2700323E0,-6.592849E-1,1.6123524E-1],"categories":[],"categories_nodes":[],"categories_segments":[],"categories_sizes":[],"default_left":[1,1,1,1,1,1,1,1,1,1,0,1,1,0,1,0,1,1,1,0,0,1,1,0,1,1,0,1,1,1,0,0,0,0,1,1,0,0,0,1,1,0,0,0,0,0,0,0,0,0,0,0,0,0,0],"id":4,"left_children":[1,3,5,7,9,11,13,15,17,19,-1,21,23,-1,25,-1,27,29,31,-1,-1,33,35,-1,37,39,-1,41,43,45,-1,-1,-1,-1,47,49,-1,-1,-1,51,53,-1,-1,-1,-1,-1,-1,-1,-1,-1,-1,-1,-1,-1,-1],"loss_changes":[5.2085484E1,2.837317E1,1.1742731E1,1.1409496E1,1.7232113E0,6.5549297E0,7.367573E-1,1.5865593E0,4.8215837E0,2.0101688E0,0E0,6.6698003E0,5.178752E0,0E0,1.4979668E0,0E0,1.1282349E0,4.0585284E0,6.298857E-1,0E0,0E0,3.7915192E0,4.984374E0,0E0,8.832941E-1,4.581417E0,0E0,3.029747E-1,1.6575286E0,3.3889534E0,0E0,0E0,0E0,0E0,3.7485142E0,1.0275893E0,0E0,0E0,0E0,4.4286537E-1,6.739696E-1,0E0,0E0,0E0,0E0,0E0,0E0,0E0,0E0,0E0,0E0,0E0,0E0,0E0,0E0],"parents":[2147483647,0,0,1,1,2,2,3,3,4,4,5,5,6,6,7,7,8,8,9,9,11,11,12,12,14,14,16,16,17,17,18,18,21,21,22,22,24,24,25,25,27,27,28,28,29,29,34,34,35,35,39,39,40,40],"right_children":[2,4,6,8,10,12,14,16,18,20,-1,22,24,-1,26,-1,28,30,32,-1,-1,34,36,-1,38,40,-1,42,44,46,-1,-1,-1,-1,48,50,-1,-1,-1,52,54,-1,-1,-1,-1,-1,-1,-1,-1,-1,-1,-1,-1,-1,-1],"split_conditions":[5E-1,2.6123386E1,1.5E0,1.5E0,1.5E0,2.6362907E1,6.05E1,5.88801E-1,2.25193E2,2.7696821E1,1.3004534E-1,1.5E0,5.3902733E-1,2.529486E-2,2.4840565E1,-1.8718047E-2,7.35E1,2.035E2,6.75E1,-2.717692E-2,9.569122E-2,5E-1,7.6702505E-1,-6.642923E-2,9.4287354E-1,2.3449223E1,1.4554702E-1,5E-1,5E-1,1.555E2,1.0048816E-1,-1.2342625E-1,-1.983816E-2,6.719428E-2,2.1605633E1,2.35E2,1.13088526E-1,1.2953979E-1,2.7230246E-2,1.76427E2,2.10738E2,-6.7046456E-2,-1.3539219E-1,-9.719779E-2,2.013015E-3,5.6171235E-2,-6.0336825E-2,4.735922E-3,-1.09522246E-1,-4.693486E-2,3.487188E-2,5.5412766E-2,1.2700324E-1,-6.592849E-2,1.6123524E-2],"split_indices":[6,4,7,7,7,4,3,1,2,4,0,8,1,0,4,0,3,2,3,0,0,7,1,0,1,4,0,7,8,2,0,0,0,0,4,2,0,0,0,2,2,0,0,0,0,0,0,0,0,0,0,0,0,0,0],"split_type":[0,0,0,0,0,0,0,0,0,0,0,0,0,0,0,0,0,0,0,0,0,0,0,0,0,0,0,0,0,0,0,0,0,0,0,0,0,0,0,0,0,0,0,0,0,0,0,0,0,0,0,0,0,0,0],"sum_hessian":[1.2612056E2,6.841819E1,5.7702374E1,5.991655E1,8.501638E0,3.248785E1,2.5214525E1,4.4197136E1,1.5719415E1,3.650487E0,4.8511515E0,2.3155865E1,9.331984E0,1.6361986E0,2.3578325E1,1.9645357E0,4.2232597E1,1.1847854E1,3.8715608E0,2.2287996E0,1.4216872E0,1.3433479E1,9.722385E0,1.2442043E0,8.087779E0,1.2696495E1,1.088183E1,3.5373592E1,6.8590064E0,8.892626E0,2.9552283E0,2.6449032E0,1.2266575E0,1.4718704E0,1.1961609E1,4.8831067E0,4.839279E0,6.42663E0,1.6611494E0,1.0213135E1,2.4833608E0,3.7898242E0,3.1583769E1,4.486877E0,2.3721292E0,2.9682605E0,5.924365E0,4.137479E0,7.8241305E0,3.3965118E0,1.4865947E0,3.8612208E0,6.3519135E0,1.2486209E0,1.2347399E0],"tree_param":{"num_deleted":"0","num_feature":"14","num_nodes":"55","size_leaf_vector":"0"}},{"base_weights":[-3.9575182E-2,-3.4180892E-1,1.0660135E0,-6.369304E-1,2.564292E-1,6.6420376E-1,1.3278713E0,-8.5813785E-1,7.277412E-1,3.362784E-2,9.5903856E-1,-6.142911E-1,8.5907227E-1,-1.3979062E-1,-9.507304E-1,-1.8714353E-1,1.1050489E0,-2.706827E-1,5.656539E-1,1.3288586E0,4.44005E-1,-6.3571475E-2,1.0244378E0,3.6307755E-1,-4.4583315E-1,-1.1597134E0,-6.14846E-1,3.5746187E-1,-7.0404416E-1,1.2827003E0,1.5682866E-1,-5.401517E-1,8.693952E-1,-1.0414571E-1,9.263459E-1,-9.155868E-2,9.9935997E-1,1.1765059E0,-3.3018608E-2,-1.7530903E-1,7.363637E-1,3.31148E-1,-7.5267196E-1,-1.1257878E-1,-1.2267183E0,1.793094E-1,-7.5716376E-1,-6.503834E-2,-7.7155125E-1,1.1114147E0,2.1298021E-1,-7.660989E-1,4.9838734E-1,1.3764455E0,-2.398976E-1,-5.886603E-1,4.5760775E-1,1.3406867E0,3.214123E-1],"categories":[],"categories_nodes":[],"categories_segments":[],"categories_sizes":[],"default_left":[1,1,1,1,1,1,0,1,1,1,1,0,1,1,1,1,1,1,1,0,1,0,1,1,1,1,1,0,0,0,0,1,1,1,1,1,0,1,0,0,0,0,0,0,0,0,0,0,0,0,0,0,0,0,0,0,0,0,0],"id":5,"left_children":[1,3,5,7,9,11,-1,13,15,17,19,-1,21,23,25,27,29,31,33,-1,35,-1,37,39,41,43,45,-1,-1,-1,-1,47,49,51,53,55,-1,57,-1,-1,-1,-1,-1,-1,-1,-1,-1,-1,-1,-1,-1,-1,-1,-1,-1,-1,-1,-1,-1],"loss_changes":[4.1443768E1,1.7342453E1,1.9205227E0,2.0381037E1,5.1112633E0,3.644474E0,0E0,3.6434746E0,3.5447803E0,4.3597445E0,9.0979576E-1,0E0,1.7850027E0,1.3399742E0,2.8051567E0,1.2872447E0,9.765215E-1,5.7552385E0,2.4586968E0,0E0,1.5170145E0,0E0,1.5854073E0,8.219129E-1,1.4907988E0,1.9505692E0,2.5490513E0,0E0,0E0,0E0,0E0,1.5475492E0,3.4669995E-1,2.1053748E0,3.719347E0,1.1855214E0,0E0,7.5337696E-1,0E0,0E0,0E0,0E0,0E0,0E0,0E0,0E0,0E0,0E0,0E0,0E0,0E0,0E0,0E0,0E0,0E0,0E0,0E0,0E0,0E0],"parents":[2147483647,0,0,1,1,2,2,3,3,4,4,5,5,7,7,8,8,9,9,10,10,12,12,13,13,14,14,15,15,16,16,17,17,18,18,20,20,22,22,23,23,24,24,25,25,26,26,31,31,32,32,33,33,34,34,35,35,37,37],"right_children":[2,4,6,8,10,12,-1,14,16,18,20,-1,22,24,26,28,30,32,34,-1,36,-1,38,40,42,44,46,-1,-1,-1,-1,48,50,52,54,56,-1,58,-1,-1,-1,-1,-1,-1,-1,-1,-1,-1,-1,-1,-1,-1,-1,-1,-1,-1,-1,-1,-1],"split_conditions":[2.6085915E1,1.5E0,1.5E0,1.5E0,5E-1,5.3902733E-1,1.3278714E-1,5E-1,1.85E2,5E-1,7.893158E-1,-6.142911E-2,2.6901405E1,7.137785E-1,5E-1,1.515E2,6.8576E0,7.9E0,5.4847E0,1.3288586E-1,6.29365E0,-6.357148E-3,9.4287354E-1,6.7650003E0,1.96015E2,3.8049998E0,1.13E2,3.5746187E-2,-7.040442E-2,1.2827003E-1,1.5682867E-2,5E-1,9.549999E0,1.655E2,2.160774E2,8.6651605E-1,9.9936E-2,7.18085E0,-3.3018608E-3,-1.7530903E-2,7.3636375E-2,3.3114802E-2,-7.5267196E-2,-1.12578785E-2,-1.22671835E-1,1.793094E-2,-7.571638E-2,-6.503834E-3,-7.715513E-2,1.11141466E-1,2.1298021E-2,-7.6609895E-2,4.9838733E-2,1.3764456E-1,-2.398976E-2,-5.886603E-2,4.5760777E-2,1.3406867E-1,3.214123E-2],"split_indices":[4,7,7,8,12,1,0,7,2,8,1,0,4,1,8,2,5,5,5,0,5,0,1,5,2,5,2,0,0,0,0,11,5,2,2,1,0,5,0,0,0,0,0,0,0,0,0,0,0,0,0,0,0,0,0,0,0,0,0],"split_type":[0,0,0,0,0,0,0,0,0,0,0,0,0,0,0,0,0,0,0,0,0,0,0,0,0,0,0,0,0,0,0,0,0,0,0,0,0,0,0,0,0,0,0,0,0,0,0,0,0,0,0,0,0,0,0,0,0,0,0],"sum_hessian":[1.219384E2,9.630298E1,2.563542E1,6.444596E1,3.1857018E1,1.151013E1,1.4125291E1,5.5776077E1,8.669888E0,2.498272E1,6.8742986E0,1.237671E0,1.0272458E1,6.6550326E0,4.9121044E1,2.6786873E0,5.9912004E0,1.620496E1,8.777759E0,3.0814924E0,3.7928061E0,1.6548618E0,8.617597E0,2.4473505E0,4.2076826E0,2.8768768E1,2.0352274E1,1.454588E0,1.2240993E0,4.748763E0,1.2424376E0,1.3532606E1,2.6723545E0,3.3213403E0,5.4564185E0,2.3559504E0,1.4368559E0,7.435718E0,1.1818784E0,1.2192305E0,1.22812E0,1.1688023E0,3.03888E0,1.8913556E0,2.6877413E1,3.0534756E0,1.72988E1,4.8518248E0,8.680781E0,1.4460418E0,1.2263125E0,1.4532791E0,1.8680613E0,3.8069332E0,1.6494853E0,1.1988466E0,1.1571037E0,5.761591E0,1.6741273E0],"tree_param":{"num_deleted":"0","num_feature":"14","num_nodes":"59","size_leaf_vector":"0"}},{"base_weights":[3.7536096E-2,-2.5868952E-1,1.0270705E0,-6.214496E-1,4.3793884E-1,5.373723E-2,1.110231E0,-8.169463E-1,5.6493735E-1,2.6731685E-1,1.0680218E0,8.3027494E-1,-7.0988053E-1,8.0785155E-1,1.2593453E0,2.3627594E-2,-9.293295E-1,-3.3485064E-1,1.0647919E0,4.1206497E-1,-6.802444E-1,1.350019E0,3.2860908E-1,1.1160221E0,3.4185743E-1,5.417117E-1,-5.446128E-1,-4.589571E-1,-1.1863773E0,-7.748875E-1,2.8891227E-1,1.4915603E-1,1.2934867E0,8.6875397E-1,1.6872162E-2,-1.0751846E0,1.7686266E-1,-3.83269E-1,8.9379746E-1,-5.0423217E-1,1.0891248E0,3.9322922E-1,-1.0708513E0,3.0699033E-1,-6.3063383E-1,-4.9768433E-1,-1.2638617E0,-5.529137E-2,1.0117303E0,-6.2393427E-1,3.4319076E-1,7.7931494E-1,-1.3143934E0],"categories":[],"categories_nodes":[],"categories_segments":[],"categories_sizes":[],"default_left":[1,1,1,1,1,1,1,1,1,1,1,0,0,1,0,1,1,1,1,1,1,0,0,0,1,1,1,1,1,0,0,0,0,1,1,0,0,1,0,0,0,0,0,0,0,0,0,0,0,0,0,0,0],"id":6,"left_children":[1,3,5,7,9,11,13,15,17,19,21,-1,-1,23,-1,25,27,29,31,33,35,-1,-1,-1,37,39,41,43,45,-1,-1,-1,-1,47,49,-1,-1,51,-1,-1,-1,-1,-1,-1,-1,-1,-1,-1,-1,-1,-1,-1,-1],"loss_changes":[3.6225838E1,2.4333424E1,2.244379E0,1.5078842E1,3.2826185E0,2.541152E0,1.6278076E-1,5.1719055E0,4.632525E0,4.0454707E0,9.614501E-1,0E0,0E0,1.2604089E0,0E0,2.4748385E0,5.272625E0,1.3646244E0,1.137001E0,4.3956265E0,1.5492542E0,0E0,0E0,0E0,2.741095E0,3.053819E0,2.4099665E0,2.6436436E0,9.974785E-1,0E0,0E0,0E0,0E0,1.5510206E0,3.1667235E0,0E0,0E0,4.5857763E0,0E0,0E0,0E0,0E0,0E0,0E0,0E0,0E0,0E0,0E0,0E0,0E0,0E0,0E0,0E0],"parents":[2147483647,0,0,1,1,2,2,3,3,4,4,5,5,6,6,7,7,8,8,9,9,10,10,13,13,15,15,16,16,17,17,18,18,19,19,20,20,24,24,25,25,26,26,27,27,28,28,33,33,34,34,37,37],"right_children":[2,4,6,8,10,12,14,16,18,20,22,-1,-1,24,-1,26,28,30,32,34,36,-1,-1,-1,38,40,42,44,46,-1,-1,-1,-1,48,50,-1,-1,52,-1,-1,-1,-1,-1,-1,-1,-1,-1,-1,-1,-1,-1,-1,-1],"split_conditions":[2.615392E1,1.5E0,5.492083E-1,1.5E0,7.205E0,5.17534E-1,2.7595676E1,5E-1,7.1412915E-1,2.45E2,5E-1,8.30275E-2,-7.098805E-2,6.38715E0,1.2593453E-1,7.6639163E-1,5E-1,2.3042986E1,8.501E-1,7.451359E-1,7.43111E-1,1.350019E-1,3.286091E-2,1.1160221E-1,7.687671E-1,2.065805E2,1.9566699E2,4.375E0,4.075E0,-7.748875E-2,2.8891226E-2,1.4915603E-2,1.2934868E-1,4.3500004E0,8.043724E-1,-1.0751846E-1,1.7686266E-2,7.10973E-1,8.937975E-2,-5.0423216E-2,1.0891248E-1,3.9322924E-2,-1.0708513E-1,3.0699033E-2,-6.306338E-2,-4.9768433E-2,-1.2638617E-1,-5.529137E-3,1.01173036E-1,-6.2393427E-2,3.4319077E-2,7.793149E-2,-1.3143934E-1],"split_indices":[4,7,1,8,5,1,4,7,1,2,10,0,0,5,0,1,13,4,0,1,1,0,0,0,1,2,2,5,5,0,0,0,0,5,1,0,0,1,0,0,0,0,0,0,0,0,0,0,0,0,0,0,0],"split_type":[0,0,0,0,0,0,0,0,0,0,0,0,0,0,0,0,0,0,0,0,0,0,0,0,0,0,0,0,0,0,0,0,0,0,0,0,0,0,0,0,0,0,0,0,0,0,0,0,0,0,0,0,0],"sum_hessian":[1.21678345E2,9.421335E1,2.7464998E1,6.2023396E1,3.2189953E1,2.2914474E0,2.5173552E1,5.3516216E1,8.507178E0,2.6451366E1,5.7385855E0,1.092833E0,1.1986145E0,1.0433592E1,1.4739959E1,6.404357E0,4.711186E1,3.1560602E0,5.3511186E0,2.3436388E1,3.0149784E0,3.5564342E0,2.1821513E0,5.440657E0,4.9929347E0,3.3744457E0,3.029911E0,1.763218E1,2.9479681E1,1.7085065E0,1.4475538E0,1.3996161E0,3.9515023E0,1.0316373E1,1.3120015E1,1.8897703E0,1.1252083E0,2.2899919E0,2.702943E0,1.1864238E0,2.188022E0,1.1798977E0,1.8500135E0,3.0840945E0,1.4548084E1,3.732014E0,2.5747667E1,1.4645269E0,8.851846E0,4.119105E0,9.00091E0,1.0909239E0,1.1990678E0],"tree_param":{"num_deleted":"0","num_feature":"14","num_nodes":"53","size_leaf_vector":"0"}},{"base_weights":[-2.6970048E-2,-3.163482E-1,9.61297E-1,-6.5178156E-1,3.169212E-1,6.3830346E-1,1.2177448E0,-8.443514E-1,4.9561524E-1,4.832464E-2,7.158927E-1,1.7456178E-2,9.0208447E-1,-5.380214E-1,-1.0290293E0,8.761529E-1,-3.8904655E-1,-1.556631E-1,8.8133085E-1,-1.4209646E-1,1.0291607E0,8.659313E-1,-4.360872E-1,2.4001586E-1,1.0548857E0,-1.1370846E0,-2.5879562E-1,-2.1345547E-1,-1.1481242E0,1.5683177E-1,1.2253346E0,1.619407E-1,-7.6021725E-1,-3.8503036E-1,6.3976645E-1,1.1217251E0,1.7178157E-1,9.60319E-1,-9.954965E-1,1.2868356E0,2.8586337E-1,3.9304322E-1,-8.8890195E-1,1.2122425E0,4.692742E-1,2.7566144E-1,-6.2971604E-1,3.2893E-1,-7.0656693E-1,-4.5473576E-1,-1.1961993E0,5.7831573E-1,-3.4004804E-1,-7.6429E-1,9.349214E-3,1.0759612E0,-2.834384E-1,-2.475299E-1,8.0763465E-1,-1.4429839E-1,8.4533876E-1],"categories":[],"categories_nodes":[],"categories_segments":[],"categories_sizes":[],"default_left":[1,1,1,1,1,1,0,1,1,1,1,1,1,1,1,1,1,1,1,1,1,0,1,0,1,0,1,1,1,1,0,0,0,1,1,0,0,0,0,0,1,0,0,0,1,0,0,0,0,0,0,0,0,0,0,0,0,0,0,0,0],"id":7,"left_children":[1,3,5,7,9,11,-1,13,15,17,19,21,23,25,27,29,31,33,35,37,39,-1,41,-1,43,-1,45,47,49,51,-1,-1,-1,53,55,-1,-1,-1,-1,-1,57,-1,-1,-1,59,-1,-1,-1,-1,-1,-1,-1,-1,-1,-1,-1,-1,-1,-1,-1,-1],"loss_changes":[3.3510124E1,1.944451E1,1.4215565E0,1.3572449E1,3.3981473E0,2.25249E0,0E0,2.351181E0,3.4332058E0,3.572515E0,3.5909734E0,2.3593166E0,7.28179E-1,3.2867842E0,2.7600098E0,1.4983282E0,8.297573E-1,3.364313E0,5.112567E-1,5.0075817E0,1.4535103E0,0E0,1.8589958E0,0E0,1.3027573E-1,0E0,3.3249989E0,1.6153083E0,3.4835052E-1,8.9744765E-1,0E0,0E0,0E0,2.0845847E0,1.996594E0,0E0,0E0,0E0,0E0,0E0,1.2390081E0,0E0,0E0,0E0,8.692479E-1,0E0,0E0,0E0,0E0,0E0,0E0,0E0,0E0,0E0,0E0,0E0,0E0,0E0,0E0,0E0,0E0],"parents":[2147483647,0,0,1,1,2,2,3,3,4,4,5,5,7,7,8,8,9,9,10,10,11,11,12,12,13,13,14,14,15,15,16,16,17,17,18,18,19,19,20,20,22,22,24,24,26,26,27,27,28,28,29,29,33,33,34,34,40,40,44,44],"right_children":[2,4,6,8,10,12,-1,14,16,18,20,22,24,26,28,30,32,34,36,38,40,-1,42,-1,44,-1,46,48,50,52,-1,-1,-1,54,56,-1,-1,-1,-1,-1,58,-1,-1,-1,60,-1,-1,-1,-1,-1,-1,-1,-1,-1,-1,-1,-1,-1,-1,-1,-1],"split_conditions":[2.6073868E1,1.5E0,1.5E0,1.5E0,5E-1,8.715E-1,1.2177449E-1,5.1826E0,6.8576E0,7.9E0,4.715E0,5E-1,2.7227615E1,7.7339995E-1,5E-1,2.2282284E1,2.403334E1,5E-1,9.4E0,6.55E1,2.160774E2,8.659313E-2,5.7E0,2.4001587E-2,2.56867E2,-1.1370846E-1,5E-1,2.265622E1,1.435E2,8.2949996E-1,1.2253346E-1,1.619407E-2,-7.602172E-2,2.004925E2,1.9774701E2,1.1217251E-1,1.7178157E-2,9.60319E-2,-9.954965E-2,1.2868355E-1,2.685E2,3.9304323E-2,-8.8890195E-2,1.2122425E-1,2.74142E2,2.7566144E-2,-6.297161E-2,3.2893E-2,-7.0656694E-2,-4.5473576E-2,-1.1961993E-1,5.7831574E-2,-3.4004804E-2,-7.6429E-2,9.349214E-4,1.0759612E-1,-2.8343841E-2,-2.475299E-2,8.076347E-2,-1.4429839E-2,8.453388E-2],"split_indices":[4,7,7,8,8,0,0,5,5,5,5,7,4,0,7,4,4,12,5,3,2,0,5,0,2,0,13,4,2,0,0,0,0,2,2,0,0,0,0,0,2,0,0,0,2,0,0,0,0,0,0,0,0,0,0,0,0,0,0,0,0],"split_type":[0,0,0,0,0,0,0,0,0,0,0,0,0,0,0,0,0,0,0,0,0,0,0,0,0,0,0,0,0,0,0,0,0,0,0,0,0,0,0,0,0,0,0,0,0,0,0,0,0,0,0,0,0,0,0,0,0,0,0,0,0],"sum_hessian":[1.1511191E2,8.956573E1,2.554618E1,5.8532635E1,3.1033094E1,1.2850332E1,1.26958475E1,5.0346928E1,8.185709E0,1.921694E1,1.1816154E1,4.1496644E0,8.700668E0,2.0408348E1,2.9938578E1,5.7303953E0,2.4553134E0,1.6089943E1,3.1269972E0,3.3065286E0,8.509625E0,1.1287588E0,3.0209057E0,2.1135776E0,6.5870905E0,5.5114875E0,1.489686E1,4.1705513E0,2.5768026E1,2.346239E0,3.3841562E0,1.2151611E0,1.2401524E0,1.2889205E1,3.2007387E0,1.9017793E0,1.2252179E0,1.3881027E0,1.9184259E0,5.776029E0,2.7335963E0,1.1136843E0,1.9072213E0,4.3485646E0,2.2385256E0,6.2082486E0,8.688612E0,2.1446013E0,2.02595E0,2.348886E0,2.3419142E1,1.1807553E0,1.1654838E0,6.092412E0,6.796793E0,2.0613372E0,1.1394013E0,1.6116475E0,1.1219487E0,1.0848384E0,1.1536872E0],"tree_param":{"num_deleted":"0","num_feature":"14","num_nodes":"61","size_leaf_vector":"0"}},{"base_weights":[-1.6895182E-2,-3.0729517E-1,1.0321813E0,-6.18906E-1,3.3942485E-1,7.079756E-1,1.132746E0,8.90839E-3,-7.0022523E-1,-6.299758E-2,5.551626E-1,1.0965891E0,2.3365456E-1,3.3065885E-1,1.1655016E0,3.1014127E-1,-7.2091734E-1,-3.489418E-1,-8.6135626E-1,4.1594368E-1,-6.4397997E-1,-1.2557706E-1,7.1566474E-1,-6.1380804E-1,9.4887185E-1,5.498757E-1,-8.254546E-2,2.4503186E-1,-6.394461E-1,-1.1072607E0,-4.684092E-1,7.0616776E-1,-3.170345E-1,2.619329E-1,-1.0188541E0,-5.080422E-1,5.4947865E-1,-1.7893825E-1,8.443728E-1,8.6160805E-3,7.527841E-1,2.7652398E-1,-4.1517094E-1,-6.2203735E-1,6.0467416E-1,-8.475942E-1,1.18382014E-1,-7.2133386E-1,-1.2288487E0,-6.2580705E-1,1.8114775E-1,1.0618777E0,-2.5296566E-1,-2.8110412E-1,-1.2099226E0,2.8352544E-1,-1.0594088E0,9.438346E-1,-1.4346758E-1],"categories":[],"categories_nodes":[],"categories_segments":[],"categories_sizes":[],"default_left":[1,1,1,1,1,1,1,1,1,1,1,0,1,0,0,1,0,1,1,1,1,1,1,0,0,1,1,1,1,1,1,1,0,0,1,1,0,0,1,0,0,0,0,0,0,0,0,0,0,0,0,0,0,0,0,0,0,0,0],"id":8,"left_children":[1,3,5,7,9,11,13,15,17,19,21,-1,23,-1,-1,25,-1,27,29,31,33,35,37,-1,-1,39,41,43,45,47,49,51,-1,-1,53,55,-1,-1,57,-1,-1,-1,-1,-1,-1,-1,-1,-1,-1,-1,-1,-1,-1,-1,-1,-1,-1,-1,-1],"loss_changes":[3.4916813E1,1.8290756E1,8.302689E-3,3.1154099E0,2.6237867E0,1.3198504E0,6.917381E-2,1.9760191E0,2.751974E0,3.413519E0,2.2219806E0,0E0,3.6865764E0,0E0,0E0,6.423812E-1,0E0,3.3729258E0,2.987955E0,1.6713215E0,2.1349282E0,1.4600586E0,1.9864864E0,0E0,0E0,4.403001E-1,5.057621E-1,2.5106325E0,2.1185179E0,1.2659454E-1,1.718699E0,2.0372875E0,0E0,0E0,2.3714972E-1,1.80141E0,0E0,0E0,1.5217676E0,0E0,0E0,0E0,0E0,0E0,0E0,0E0,0E0,0E0,0E0,0E0,0E0,0E0,0E0,0E0,0E0,0E0,0E0,0E0,0E0],"parents":[2147483647,0,0,1,1,2,2,3,3,4,4,5,5,6,6,7,7,8,8,9,9,10,10,12,12,15,15,17,17,18,18,19,19,20,20,21,21,22,22,25,25,26,26,27,27,28,28,29,29,30,30,31,31,34,34,35,35,38,38],"right_children":[2,4,6,8,10,12,14,16,18,20,22,-1,24,-1,-1,26,-1,28,30,32,34,36,38,-1,-1,40,42,44,46,48,50,52,-1,-1,54,56,-1,-1,58,-1,-1,-1,-1,-1,-1,-1,-1,-1,-1,-1,-1,-1,-1,-1,-1,-1,-1,-1,-1],"split_conditions":[2.6073868E1,1.5E0,5E-1,5E-1,5.3500004E0,2.1844101E2,6.95E-1,9.55E-1,5E-1,8.65E-1,7.55E-1,1.0965891E-1,2.69642E2,3.3065885E-2,1.1655016E-1,6.85E1,-7.2091736E-2,4.79E0,2.314283E1,2.128E2,5E-1,2.645E2,1.9888557E1,-6.1380804E-2,9.488719E-2,6.3827E0,2.354778E1,7.35E-1,7.15E1,4.72E0,7.35E1,2.3428497E1,-3.1703454E-2,2.6193291E-2,1.615E2,6.3E0,5.4947864E-2,-1.7893827E-2,2.87E2,8.616081E-4,7.527841E-2,2.7652398E-2,-4.1517094E-2,-6.2203735E-2,6.046742E-2,-8.475942E-2,1.1838201E-2,-7.2133385E-2,-1.2288487E-1,-6.2580705E-2,1.8114775E-2,1.06187776E-1,-2.5296567E-2,-2.8110413E-2,-1.2099226E-1,2.8352544E-2,-1.0594088E-1,9.438346E-2,-1.4346758E-2],"split_indices":[4,7,9,7,5,2,0,0,13,0,0,0,2,0,0,3,0,5,4,2,11,2,4,0,0,5,4,0,3,5,3,4,0,0,2,5,0,0,2,0,0,0,0,0,0,0,0,0,0,0,0,0,0,0,0,0,0,0,0],"split_type":[0,0,0,0,0,0,0,0,0,0,0,0,0,0,0,0,0,0,0,0,0,0,0,0,0,0,0,0,0,0,0,0,0,0,0,0,0,0,0,0,0,0,0,0,0,0,0,0,0,0,0,0,0,0,0,0,0,0,0],"sum_hessian":[1.1257107E2,8.871932E1,2.3851751E1,5.990037E1,2.8818949E1,7.550397E0,1.6301353E1,6.97113E0,5.292924E1,1.0304894E1,1.8514053E1,3.4290483E0,4.1213484E0,1.074905E0,1.5226449E1,5.341495E0,1.6296349E0,1.7639269E1,3.5289974E1,5.8041925E0,4.500702E0,3.573848E0,1.4940206E1,1.9511796E0,2.1701689E0,3.0681221E0,2.2733727E0,5.8449793E0,1.179429E1,2.0588161E1,1.4701814E1,4.184077E0,1.6201158E0,1.405494E0,3.095208E0,2.4392521E0,1.1345959E0,1.8300346E0,1.3110171E1,1.1208118E0,1.9473103E0,1.1743374E0,1.0990353E0,1.4997061E0,4.345273E0,9.159933E0,2.634356E0,6.593293E0,1.3994867E1,1.1863632E1,2.8381813E0,2.9739995E0,1.2100772E0,1.1450773E0,1.9501307E0,1.200925E0,1.2383271E0,1.1951381E1,1.1587903E0],"tree_param":{"num_deleted":"0","num_feature":"14","num_nodes":"59","size_leaf_vector":"0"}},{"base_weights":[2.1740612E-2,-5.2478814E-1,6.023637E-1,-7.199669E-1,8.483425E-1,1.029744E0,4.6315017E-1,8.0540545E-2,-8.2597905E-1,9.8780876E-1,1.2829997E-1,1.8306103E-1,1.1720722E0,2.7296644E-1,9.4132525E-1,-5.664387E-1,7.6298803E-1,-5.3817374E-1,-1.0657191E0,1.3295652E0,3.4293643E-1,9.743814E-1,1.7707384E-1,1.4847584E-1,-9.782032E-1,1.1299276E0,-4.3624233E-2,-7.025151E-1,-1.0601814E-1,-1.257417E0,-4.3606883E-1,-1.5584493E-1,5.4928446E-1,-7.793079E-1,2.0571916E-1,2.25616E-1,-3.3222786E-1,2.6084447E-1,-7.2281194E-1,-1.1212491E0,9.786977E-2,8.045947E-1,1.3320741E-1],"categories":[],"categories_nodes":[],"categories_segments":[],"categories_sizes":[],"default_left":[1,1,1,1,1,1,1,1,1,0,0,0,1,1,0,1,1,1,1,0,0,0,1,0,0,0,0,1,1,0,1,1,1,0,0,0,0,0,0,0,0,0,0],"id":9,"left_children":[1,3,5,7,9,11,13,15,17,-1,-1,-1,19,21,-1,23,25,27,29,-1,-1,-1,31,-1,-1,-1,-1,33,35,-1,37,39,41,-1,-1,-1,-1,-1,-1,-1,-1,-1,-1],"loss_changes":[3.576588E1,1.6176777E1,2.773569E0,4.4279556E0,6.452379E-1,1.3045473E0,3.6559591E0,3.4881506E0,2.5639687E0,0E0,0E0,0E0,9.291105E-1,1.9926999E0,0E0,1.3601046E0,1.1723533E0,1.536612E0,2.3228836E0,0E0,0E0,0E0,3.7463484E0,0E0,0E0,0E0,0E0,1.2941847E0,6.321674E-1,0E0,1.6039268E0,4.120133E0,1.3979788E0,0E0,0E0,0E0,0E0,0E0,0E0,0E0,0E0,0E0,0E0],"parents":[2147483647,0,0,1,1,2,2,3,3,4,4,5,5,6,6,7,7,8,8,12,12,13,13,15,15,16,16,17,17,18,18,22,22,27,27,28,28,30,30,31,31,32,32],"right_children":[2,4,6,8,10,12,14,16,18,-1,-1,-1,20,22,-1,24,26,28,30,-1,-1,-1,32,-1,-1,-1,-1,34,36,-1,38,40,42,-1,-1,-1,-1,-1,-1,-1,-1,-1,-1],"split_conditions":[5E-1,2.6072206E1,5E-1,6.182128E-1,7.45E1,7.25E-1,2.615392E1,6.65E1,8.5455E-1,9.878088E-2,1.2829997E-2,1.8306104E-2,8.788294E-1,5E-1,9.413253E-2,1.5E0,2.2107533E1,1.5E0,7.25E1,1.3295652E-1,3.4293644E-2,9.743814E-2,1.5E0,1.4847584E-2,-9.782032E-2,1.1299276E-1,-4.3624234E-3,1.3212674E0,6.6E1,-1.257417E-1,9.273E-1,6.4536214E-1,2.361131E1,-7.793079E-2,2.0571915E-2,2.25616E-2,-3.3222787E-2,2.6084447E-2,-7.22812E-2,-1.1212491E-1,9.786977E-3,8.045947E-2,1.3320741E-2],"split_indices":[6,4,13,1,3,0,4,3,0,0,0,0,1,7,0,9,4,7,3,0,0,0,7,0,0,0,0,1,3,0,0,1,4,0,0,0,0,0,0,0,0,0,0],"split_type":[0,0,0,0,0,0,0,0,0,0,0,0,0,0,0,0,0,0,0,0,0,0,0,0,0,0,0,0,0,0,0,0,0,0,0,0,0,0,0,0,0,0,0],"sum_hessian":[1.1071361E2,5.7080788E1,5.363282E1,5.0393463E1,6.687326E0,1.1605995E1,4.2026825E1,5.9213176E0,4.4472145E1,5.2906876E0,1.3966383E0,1.999219E0,9.606776E0,3.1191813E1,1.0835014E1,3.1269095E0,2.7944078E0,2.1684711E1,2.2787434E1,7.5660605E0,2.0407157E0,2.6496367E0,2.8542175E1,1.3764693E0,1.7504404E0,1.6451666E0,1.1492412E0,1.5257092E1,6.4276185E0,1.6704668E1,6.082766E0,1.5373159E1,1.3169016E1,1.4198534E1,1.0585586E0,2.60751E0,3.8201087E0,1.7995002E0,4.2832656E0,2.487749E0,1.288541E1,7.5825195E0,5.586497E0],"tree_param":{"num_deleted":"0","num_feature":"14","num_nodes":"43","size_leaf_vector":"0"}},{"base_weights":[4.3222714E-2,-4.5461085E-1,5.871676E-1,-7.759181E-1,1.857857E-1,1.1327378E0,4.006195E-1,-8.430085E-1,7.301218E-1,-9.686436E-2,9.59505E-1,1.248287E-1,1.3025584E0,2.576781E-1,1.0216608E0,-4.7520748E-1,-1.0966488E0,2.656591E-1,-6.9611305E-1,-1.8157627E-2,5.63448E-1,3.251695E-1,1.0988098E0,3.9297178E-1,-6.392737E-1,1.0938675E-2,-1.1683141E0,-1.046151E-1,9.7537535E-1,-1.2283331E0,6.1958027E-1,9.166309E-1,-2.2456999E-1,8.477023E-1,2.4451846E-1,8.98292E-3,6.0315365E-1,-1.1285497E0,6.902406E-3,-1.2366905E0,-3.6917782E-1,3.796658E-1,-6.0831094E-1,2.1546273E-2,-1.0533977E0,3.2153296E-1,1.1458682E0,-5.8222E-1,7.388857E-1],"categories":[],"categories_nodes":[],"categories_segments":[],"categories_sizes":[],"default_left":[1,1,1,1,1,1,1,1,0,1,0,0,0,1,1,1,1,1,1,1,1,0,0,1,1,0,1,1,0,0,0,0,1,1,1,0,0,0,0,0,0,0,0,0,0,0,0,0,0],"id":10,"left_children":[1,3,5,7,9,11,13,15,-1,17,-1,-1,-1,19,21,23,25,27,29,31,33,-1,-1,35,37,-1,39,41,-1,-1,-1,-1,43,45,47,-1,-1,-1,-1,-1,-1,-1,-1,-1,-1,-1,-1,-1,-1],"loss_changes":[2.9351744E1,1.1799339E1,4.8143063E0,4.44615E0,4.408061E0,2.001276E0,3.2983017E0,2.9081001E0,0E0,3.5218272E0,0E0,0E0,0E0,2.873726E0,2.7927876E-2,2.6396174E0,1.6789742E0,2.80727E0,5.008711E0,3.8368013E0,1.2552896E0,0E0,0E0,2.5965863E-1,4.5868654E0,0E0,6.2125015E-1,2.1014185E0,0E0,0E0,0E0,0E0,3.3308678E0,9.0623474E-1,4.111935E0,0E0,0E0,0E0,0E0,0E0,0E0,0E0,0E0,0E0,0E0,0E0,0E0,0E0,0E0],"parents":[2147483647,0,0,1,1,2,2,3,3,4,4,5,5,6,6,7,7,9,9,13,13,14,14,15,15,16,16,17,17,18,18,19,19,20,20,23,23,24,24,26,26,27,27,32,32,33,33,34,34],"right_children":[2,4,6,8,10,12,14,16,-1,18,-1,-1,-1,20,22,24,26,28,30,32,34,-1,-1,36,38,-1,40,42,-1,-1,-1,-1,44,46,48,-1,-1,-1,-1,-1,-1,-1,-1,-1,-1,-1,-1,-1,-1],"split_conditions":[5E-1,1.5E0,5E-1,2.7696821E1,2.549129E1,7.25E-1,2.7096737E1,5E-1,7.301218E-2,2.175E2,9.595051E-2,1.248287E-2,1.3025585E-1,1.5E0,7.8E-1,1.4154001E2,6.5999997E-1,2.03E2,7.45665E0,5E-1,2.3449223E1,3.2516953E-2,1.09880984E-1,4.3999996E0,2.15817E2,1.0938676E-3,7.55E1,1.725E2,9.753754E-2,-1.2283331E-1,6.1958026E-2,9.166309E-2,2.38E2,5.5147E0,2.4834162E1,8.98292E-4,6.0315367E-2,-1.1285497E-1,6.902406E-4,-1.2366905E-1,-3.6917783E-2,3.796658E-2,-6.0831096E-2,2.1546273E-3,-1.05339766E-1,3.2153297E-2,1.1458682E-1,-5.8222003E-2,7.388857E-2],"split_indices":[6,7,13,4,4,0,4,13,0,2,0,0,0,7,0,2,0,2,5,7,4,0,0,5,2,0,3,2,0,0,0,0,2,5,4,0,0,0,0,0,0,0,0,0,0,0,0,0,0],"split_type":[0,0,0,0,0,0,0,0,0,0,0,0,0,0,0,0,0,0,0,0,0,0,0,0,0,0,0,0,0,0,0,0,0,0,0,0,0,0,0,0,0,0,0,0,0,0,0,0,0],"sum_hessian":[1.0640565E2,5.5643448E1,5.0762203E1,3.6911938E1,1.873151E1,1.1642114E1,3.9120087E1,3.57592E1,1.1527365E0,1.4360305E1,4.3712053E0,1.9288987E0,9.713216E0,3.295089E1,6.1691995E0,1.5767897E1,1.9991304E1,9.294284E0,5.066021E0,1.781792E1,1.5132968E1,1.1352391E0,5.0339603E0,2.284412E0,1.3483484E1,1.266402E0,1.8724901E1,6.6680274E0,2.6262567E0,3.6542244E0,1.4117965E0,2.6004364E0,1.52174835E1,7.124823E0,8.008145E0,1.1769458E0,1.1074661E0,7.2485065E0,6.2349777E0,1.6744646E1,1.9802556E0,3.5250704E0,3.1429567E0,1.2484328E1,2.7331557E0,3.3288374E0,3.7959857E0,2.9302058E0,5.077939E0],"tree_param":{"num_deleted":"0","num_feature":"14","num_nodes":"49","size_leaf_vector":"0"}},{"base_weights":[1.6326504E-2,-2.8748086E-1,5.1429963E-1,3.129689E-1,-3.8357863E-1,3.7740415E-1,1.0460538E0,5.457903E-1,-5.477256E-1,-1.2321188E-2,-5.8732283E-1,7.536166E-1,9.2308424E-2,4.4155544E-1,1.1814896E0,8.7181526E-1,-6.936754E-2,-4.4335887E-1,2.624848E-1,-7.98331E-1,-6.5222383E-3,9.845925E-1,-4.9218014E-1,7.712577E-1,-8.771003E-2,1.1221428E0,3.308084E-1,-5.895843E-1,4.6687886E-1,5.534386E-1,-7.9025674E-1,-9.6582575E-3,1.0672956E0,-8.4662753E-1,-7.410216E-2,6.926715E-1,-3.130277E-1,9.9924767E-1,2.1826325E-1,-2.7907026E-1,6.4696044E-1,1.8807155E-1,-1.0697477E0,7.8142804E-1,-4.1995928E-1,1.3427368E0,2.5454503E-1,3.562732E-3,-8.852113E-1,8.7017316E-1,2.5339594E-1,-6.69553E-1,3.8863155E-1,4.917269E-2,-9.2722493E-1,4.927965E-2,8.546421E-1],"categories":[],"categories_nodes":[],"categories_segments":[],"categories_sizes":[],"default_left":[1,1,1,1,1,1,1,1,0,1,1,1,1,0,0,1,1,1,1,1,1,0,0,1,1,0,0,0,0,0,1,1,1,1,0,1,1,0,0,1,1,0,0,0,0,0,0,0,0,0,0,0,0,0,0,0,0],"id":11,"left_children":[1,3,5,7,9,11,13,15,-1,17,19,21,23,-1,-1,25,27,29,31,33,35,-1,-1,37,39,-1,-1,-1,-1,-1,41,43,45,47,-1,49,51,-1,-1,53,55,-1,-1,-1,-1,-1,-1,-1,-1,-1,-1,-1,-1,-1,-1,-1,-1],"loss_changes":[1.5496254E1,3.7928572E0,2.4296646E0,2.1690106E0,4.1771936E0,3.4077864E0,8.2455635E-2,1.6340804E0,0E0,2.5592115E0,4.3694887E0,4.46628E0,2.4612143E0,0E0,0E0,3.332839E-1,1.2918687E0,3.34233E0,2.9062414E0,8.528156E-1,2.471517E0,0E0,0E0,3.1222463E-1,2.4829648E0,0E0,0E0,0E0,0E0,0E0,2.0178971E0,3.857001E0,4.081905E-1,8.049698E-1,0E0,5.378282E-2,2.262279E0,0E0,0E0,2.9585047E0,4.1537237E-1,0E0,0E0,0E0,0E0,0E0,0E0,0E0,0E0,0E0,0E0,0E0,0E0,0E0,0E0,0E0,0E0],"parents":[2147483647,0,0,1,1,2,2,3,3,4,4,5,5,6,6,7,7,9,9,10,10,11,11,12,12,15,15,16,16,17,17,18,18,19,19,20,20,23,23,24,24,30,30,31,31,32,32,33,33,35,35,36,36,39,39,40,40],"right_children":[2,4,6,8,10,12,14,16,-1,18,20,22,24,-1,-1,26,28,30,32,34,36,-1,-1,38,40,-1,-1,-1,-1,-1,42,44,46,48,-1,50,52,-1,-1,54,56,-1,-1,-1,-1,-1,-1,-1,-1,-1,-1,-1,-1,-1,-1,-1,-1],"split_conditions":[1.5E0,5E-1,7.26165E0,8.337106E-1,5E-1,7.4119365E-1,6.329187E-1,6.85E1,-5.4772563E-2,1.9633E2,9.604E-1,2.43E2,5E-1,4.4155546E-2,1.1814896E-1,7.137785E-1,7.678735E-1,4.105E0,9.1002846E-1,1.0316744E0,9.95E-1,9.845925E-2,-4.9218014E-2,8.9225E-1,2.3007529E2,1.1221428E-1,3.3080842E-2,-5.895843E-2,4.6687886E-2,5.5343863E-2,1.325E2,7.025907E-1,2.31978E2,6.05E-1,-7.4102166E-3,6.35E0,1.1716499E0,9.9924766E-2,2.1826325E-2,2.10715E2,9.3355E-1,1.8807156E-2,-1.0697477E-1,7.814281E-2,-4.1995928E-2,1.342737E-1,2.5454504E-2,3.562732E-4,-8.852113E-2,8.701732E-2,2.5339594E-2,-6.69553E-2,3.8863156E-2,4.917269E-3,-9.27225E-2,4.927965E-3,8.546421E-2],"split_indices":[7,7,5,1,13,1,1,3,0,2,0,2,13,0,0,1,1,5,1,1,0,0,0,0,2,0,0,0,0,0,2,1,2,0,0,5,0,0,0,2,0,0,0,0,0,0,0,0,0,0,0,0,0,0,0,0,0],"split_type":[0,0,0,0,0,0,0,0,0,0,0,0,0,0,0,0,0,0,0,0,0,0,0,0,0,0,0,0,0,0,0,0,0,0,0,0,0,0,0,0,0,0,0,0,0,0,0,0,0,0,0,0,0,0,0,0,0],"sum_hessian":[1.0045163E2,6.265144E1,3.7800186E1,8.33223E0,5.4319214E1,3.1420889E1,6.3792977E0,6.8461814E0,1.4860477E0,1.9623056E1,3.4696156E1,1.2837345E1,1.8583544E1,1.9474387E0,4.431859E0,4.2019734E0,2.6442084E0,7.4010444E0,1.2222012E1,2.5175293E1,9.520864E0,1.1006384E1,1.8309612E0,3.2063391E0,1.5377205E1,2.1383634E0,2.0636098E0,1.2916771E0,1.3525312E0,1.7569948E0,5.6440496E0,9.871881E0,2.3501315E0,2.3442951E1,1.7323408E0,2.5176818E0,7.0031815E0,1.6989256E0,1.5074134E0,1.2691565E1,2.68564E0,1.3268045E0,4.3172455E0,3.0625556E0,6.8093247E0,1.2682362E0,1.0818954E0,1.0571172E0,2.2385834E1,1.0944934E0,1.4231886E0,4.6739993E0,2.3291826E0,9.038407E0,3.6531577E0,1.0116185E0,1.6740215E0],"tree_param":{"num_deleted":"0","num_feature":"14","num_nodes":"57","size_leaf_vector":"0"}},{"base_weights":[2.463278E-2,-4.2223963E-1,5.262915E-1,-5.888568E-1,7.2309E-1,2.9558352E-1,8.0698556E-1,-6.8978286E-1,7.8558885E-2,2.7915147E-1,1.0285281E0,-4.9784335E-1,4.6510798E-1,8.9477473E-1,2.1181533E-1,-7.912563E-1,-6.2109575E-2,-3.9719155E-1,5.874315E-1,8.787277E-1,-5.58306E-1,-8.319515E-1,1.4329007E-1,6.379739E-1,-1.3108305E-3,1.7414908E-1,9.566538E-1,6.978409E-1,-2.1444951E-1,-1.0029534E0,-4.4868296E-1,4.8543835E-1,-7.0771706E-1,2.7371993E-2,-7.683739E-1,7.3087233E-1,1.3807978E-1,-1.0714642E0,-8.854841E-2,7.2804195E-1,-3.465688E-1,8.410218E-1,-2.9549763E-1,4.4716623E-1,1.0387287E0,-1.2164125E0,-7.024286E-1,5.7557102E-2,-6.993075E-1,-6.0359944E-2,9.873148E-1,-8.2357407E-1,-2.276851E-1,-6.4919186E-1,6.89232E-1,8.0398554E-1,-6.9226325E-2,-6.000013E-1,1.3572596E-1,6.771229E-1,-9.6189834E-2,2.7577707E-1,1.0759865E0],"categories":[],"categories_nodes":[],"categories_segments":[],"categories_sizes":[],"default_left":[1,1,1,1,1,1,1,1,1,1,0,1,1,1,1,1,1,1,1,0,0,1,0,1,1,0,1,0,0,1,1,1,1,1,0,0,0,0,0,1,0,0,1,1,1,0,0,0,0,0,0,0,0,0,0,0,0,0,0,0,0,0,0],"id":12,"left_children":[1,3,5,7,9,11,13,15,17,19,-1,21,23,25,27,29,31,33,35,-1,-1,37,-1,39,41,-1,43,-1,-1,45,47,49,51,53,-1,-1,-1,-1,-1,55,-1,-1,57,59,61,-1,-1,-1,-1,-1,-1,-1,-1,-1,-1,-1,-1,-1,-1,-1,-1,-1,-1],"loss_changes":[2.4039135E1,1.12542925E1,3.0316105E0,3.4281254E0,7.509098E-1,4.171842E0,9.705658E-1,2.7285538E0,2.043515E0,2.746486E0,0E0,1.3273942E0,1.9886737E0,6.8236923E-1,1.0123641E0,2.26643E0,2.872658E0,7.2403467E-1,1.5794742E-1,0E0,0E0,5.915015E-1,0E0,1.8475785E0,2.1478426E0,0E0,2.5938034E-1,0E0,0E0,5.7873726E-1,2.0849483E0,1.2824885E0,1.7708898E-2,1.8116142E0,0E0,0E0,0E0,0E0,0E0,1.0731277E0,0E0,0E0,9.2452675E-1,5.846217E-1,1.0558033E-1,0E0,0E0,0E0,0E0,0E0,0E0,0E0,0E0,0E0,0E0,0E0,0E0,0E0,0E0,0E0,0E0,0E0,0E0],"parents":[2147483647,0,0,1,1,2,2,3,3,4,4,5,5,6,6,7,7,8,8,9,9,11,11,12,12,13,13,14,14,15,15,16,16,17,17,18,18,21,21,23,23,24,24,26,26,29,29,30,30,31,31,32,32,33,33,39,39,42,42,43,43,44,44],"right_children":[2,4,6,8,10,12,14,16,18,20,-1,22,24,26,28,30,32,34,36,-1,-1,38,-1,40,42,-1,44,-1,-1,46,48,50,52,54,-1,-1,-1,-1,-1,56,-1,-1,58,60,62,-1,-1,-1,-1,-1,-1,-1,-1,-1,-1,-1,-1,-1,-1,-1,-1,-1,-1],"split_conditions":[5E-1,2.6072206E1,1.5E0,7.52315E0,7.8631806E-1,6.233033E-1,7.35E1,5E-1,1.5E0,7.258147E-1,1.02852814E-1,2.605E2,5E-1,6.05E1,7.7194023E-1,5E-1,7.844968E-1,2.56E2,9.4E0,8.7872766E-2,-5.5830598E-2,5.865386E-1,1.4329008E-2,9.35E0,5E-1,1.7414909E-2,4.815E0,6.97841E-2,-2.1444952E-2,2.01324E2,1.685E2,1.5E0,2.08317E2,2.08E2,-7.683739E-2,7.308724E-2,1.3807978E-2,-1.0714642E-1,-8.854841E-3,7.75E1,-3.465688E-2,8.4102176E-2,6.65E1,4.5699997E0,5.424209E-1,-1.21641256E-1,-7.024286E-2,5.7557104E-3,-6.9930755E-2,-6.0359943E-3,9.873148E-2,-8.235741E-2,-2.276851E-2,-6.491919E-2,6.89232E-2,8.039855E-2,-6.9226325E-3,-6.000013E-2,1.3572596E-2,6.771229E-2,-9.618984E-3,2.7577708E-2,1.07598655E-1],"split_indices":[6,4,7,5,1,1,3,12,7,1,0,2,10,3,1,8,1,2,5,0,0,1,0,5,13,0,5,0,0,2,2,7,2,2,0,0,0,0,0,3,0,0,3,5,1,0,0,0,0,0,0,0,0,0,0,0,0,0,0,0,0,0,0],"split_type":[0,0,0,0,0,0,0,0,0,0,0,0,0,0,0,0,0,0,0,0,0,0,0,0,0,0,0,0,0,0,0,0,0,0,0,0,0,0,0,0,0,0,0,0,0,0,0,0,0,0,0,0,0,0,0,0,0,0,0,0,0,0,0],"sum_hessian":[1.05241356E2,5.574373E1,4.9497627E1,4.9088436E1,6.6552935E0,2.8294699E1,2.1202927E1,4.2611282E1,6.4771543E0,3.4927292E0,3.162564E0,4.6402392E0,2.3654459E1,1.8038767E1,3.1641605E0,3.6456833E1,6.1544495E0,3.460946E0,3.016208E0,2.0067325E0,1.4859968E0,2.8548768E0,1.7853625E0,1.6989817E1,6.6646433E0,1.7281038E0,1.6310663E1,1.180758E0,1.9834025E0,2.134113E1,1.5115703E1,3.4643667E0,2.6900828E0,2.0464478E0,1.4144984E0,1.8114561E0,1.2047518E0,1.8254495E0,1.0294273E0,1.5804513E1,1.1853026E0,1.2439867E0,5.4206567E0,3.1576328E0,1.315303E1,1.0696154E1,1.0644976E1,5.2604294E0,9.855272E0,2.08099E0,1.3833766E0,1.5905374E0,1.0995454E0,1.0214478E0,1.025E0,1.4422296E1,1.382218E0,2.9477463E0,2.4729104E0,2.0456822E0,1.1119506E0,1.0035974E0,1.2149433E1],"tree_param":{"num_deleted":"0","num_feature":"14","num_nodes":"63","size_leaf_vector":"0"}},{"base_weights":[3.1714708E-2,-3.812146E-1,4.941714E-1,-5.275297E-1,8.4122765E-1,9.300914E-1,3.9083222E-1,-2.1525048E-1,-7.720597E-1,9.918902E-1,2.8331032E-1,1.0905707E0,2.9446948E-1,-2.608445E-1,4.764273E-1,-5.5576885E-1,9.6680015E-2,-9.918431E-1,-6.0996883E-2,4.595239E-1,-1.1414564E-2,2.246607E-1,-4.8761913E-1,3.271561E-1,8.7407863E-1,-7.532271E-1,5.983629E-1,5.897648E-1,-4.6651635E-1,-3.4163427E-1,-1.0901507E0,-5.9058106E-1,5.710459E-1,-7.611337E-1,4.0071923E-3,-4.978877E-2,5.7508385E-1,1.7470765E-1,1.0844934E0,-1.0998347E0,-2.7471626E-1,1.0578718E0,3.9815877E-2,-1.0281187E0,5.1429205E-2,2.150763E-1,-6.753399E-1,-4.9903E-2,-7.881948E-1,-2.3079295E-1,9.2731184E-1,6.1998385E-1,-3.8953942E-1,7.427693E-1,-9.3815845E-1,-5.1928794E-1,7.1697044E-1],"categories":[],"categories_nodes":[],"categories_segments":[],"categories_sizes":[],"default_left":[1,1,1,1,1,1,1,1,1,0,0,0,1,1,1,1,1,1,1,0,0,0,1,1,1,1,0,1,1,1,0,1,1,0,0,1,1,1,0,0,0,0,0,0,0,0,0,0,0,0,0,0,0,0,0,0,0],"id":13,"left_children":[1,3,5,7,9,11,13,15,17,-1,-1,-1,19,21,23,25,27,29,31,-1,-1,-1,33,35,37,39,-1,41,43,45,-1,47,49,-1,-1,51,53,55,-1,-1,-1,-1,-1,-1,-1,-1,-1,-1,-1,-1,-1,-1,-1,-1,-1,-1,-1],"loss_changes":[1.9669392E1,1.0184224E1,1.8238745E0,3.594716E0,2.4071026E-1,5.540905E-1,2.4099731E0,2.498435E0,4.195833E0,0E0,0E0,0E0,1.6173261E-1,7.0447445E-1,1.8849554E0,2.9921393E0,3.8475132E0,9.53228E-1,2.8463426E0,0E0,0E0,0E0,5.407223E-1,2.663092E0,1.1914258E0,1.3506708E0,0E0,1.8373065E0,1.9620366E0,9.218428E-1,0E0,4.4897473E-1,1.3355122E0,0E0,0E0,2.9960616E0,5.0320306E0,1.6376421E0,0E0,0E0,0E0,0E0,0E0,0E0,0E0,0E0,0E0,0E0,0E0,0E0,0E0,0E0,0E0,0E0,0E0,0E0,0E0],"parents":[2147483647,0,0,1,1,2,2,3,3,4,4,5,5,6,6,7,7,8,8,12,12,13,13,14,14,15,15,16,16,17,17,18,18,22,22,23,23,24,24,25,25,27,27,28,28,29,29,31,31,32,32,35,35,36,36,37,37],"right_children":[2,4,6,8,10,12,14,16,18,-1,-1,-1,20,22,24,26,28,30,32,-1,-1,-1,34,36,38,40,-1,42,44,46,-1,48,50,-1,-1,52,54,56,-1,-1,-1,-1,-1,-1,-1,-1,-1,-1,-1,-1,-1,-1,-1,-1,-1,-1,-1],"split_conditions":[5E-1,2.6072206E1,4.58E0,8.3889997E-1,2.436963E2,7.25E1,4.875E0,7.55E-1,7.25E1,9.918902E-2,2.8331032E-2,1.0905707E-1,2.3305916E1,8.4175E-1,2.7012745E1,2.5275143E1,2.3018715E1,1.485E2,2.058E2,4.595239E-2,-1.1414564E-3,2.246607E-2,9.946E-1,5E-1,8.25E-1,1.96E2,5.9836295E-2,5.0808E0,5.8417E0,8.95E-1,-1.0901507E-1,9.4E-1,1.9633198E1,-7.6113366E-2,4.0071923E-4,2.1710136E1,9.35E0,1.5E0,1.0844934E-1,-1.0998347E-1,-2.7471626E-2,1.0578718E-1,3.981588E-3,-1.0281187E-1,5.1429207E-3,2.150763E-2,-6.753399E-2,-4.9903E-3,-7.8819476E-2,-2.3079297E-2,9.2731185E-2,6.1998386E-2,-3.895394E-2,7.427693E-2,-9.381585E-2,-5.1928796E-2,7.169705E-2],"split_indices":[6,4,5,0,2,3,5,0,3,0,0,0,4,0,4,4,4,2,2,0,0,0,0,8,0,2,0,5,5,0,0,0,4,0,0,4,5,7,0,0,0,0,0,0,0,0,0,0,0,0,0,0,0,0,0,0,0],"split_type":[0,0,0,0,0,0,0,0,0,0,0,0,0,0,0,0,0,0,0,0,0,0,0,0,0,0,0,0,0,0,0,0,0,0,0,0,0,0,0,0,0,0,0,0,0,0,0,0,0,0,0,0,0,0,0,0,0],"sum_hessian":[1.0101514E2,5.3457985E1,4.7557156E1,4.825122E1,5.206765E0,7.5803366E0,3.9976818E1,2.201589E1,2.6235329E1,3.487217E0,1.7195483E0,5.4808097E0,2.0995266E0,4.4034896E0,3.557333E1,1.015189E1,1.1864E1,1.9739227E1,6.496101E0,1.0374432E0,1.0620835E0,1.4049445E0,2.9985452E0,2.7189571E1,8.383757E0,8.965384E0,1.1865063E0,6.300589E0,5.5634108E0,3.1802337E0,1.6558994E1,3.5702298E0,2.925871E0,1.5744243E0,1.4241209E0,1.1104965E1,1.6084606E1,2.3623018E0,6.021455E0,4.446283E0,4.519101E0,2.9046335E0,3.3959556E0,2.1966333E0,3.3667777E0,1.3251009E0,1.8551329E0,1.290876E0,2.2793539E0,1.0084244E0,1.9174465E0,3.4597378E0,7.6452274E0,1.4938406E1,1.1462009E0,1.0547659E0,1.3075359E0],"tree_param":{"num_deleted":"0","num_feature":"14","num_nodes":"57","size_leaf_vector":"0"}},{"base_weights":[4.110989E-2,-2.3606855E-1,5.321542E-1,-4.2031446E-1,4.5512065E-1,3.4533402E-1,9.98982E-1,-5.225107E-1,4.2772102E-1,-4.7422564E-1,5.744047E-1,5.743174E-1,-1.4969341E-1,2.5508887E-1,1.0752981E0,-7.17357E-3,-6.025038E-1,-4.6623895E-1,7.191726E-1,8.9345694E-1,1.8286823E-1,3.4974444E-1,9.673507E-1,-5.884564E-1,2.7040756E-1,-3.98184E-1,5.167098E-1,-1.5915039E-1,-8.6551934E-1,9.1665345E-1,1.6073965E-1,1.0818224E0,2.1758506E-1,-4.6329564E-1,4.6716386E-1,6.675553E-1,-1.3049847E-1,5.8016002E-2,1.1633804E0,-8.30597E-1,1.1578883E-1,-6.068779E-1,6.4257663E-1,1.7886703E-1,-6.9752663E-1,8.773444E-1,-1.1606116E-1,3.8950214E-1,-3.6350495E-1,-9.118464E-1,-6.47506E-2,2.6541138E-2,8.8811576E-1,7.751575E-1,-2.8829163E-2,-5.270109E-1,5.614266E-1,3.1050894E-2,9.4747347E-1],"categories":[],"categories_nodes":[],"categories_segments":[],"categories_sizes":[],"default_left":[1,1,1,1,1,1,1,1,1,0,1,1,1,0,0,1,1,0,1,1,1,1,1,1,1,1,1,1,1,0,0,0,0,0,1,1,1,0,0,0,0,0,1,0,0,0,0,0,0,0,0,0,0,0,0,0,0,0,0],"id":14,"left_children":[1,3,5,7,9,11,13,15,17,-1,19,21,23,-1,-1,25,27,-1,29,31,33,35,37,39,41,43,45,47,49,-1,-1,-1,-1,-1,51,53,55,-1,-1,-1,-1,-1,57,-1,-1,-1,-1,-1,-1,-1,-1,-1,-1,-1,-1,-1,-1,-1,-1],"loss_changes":[1.3807727E1,8.462293E0,2.8450098E0,4.712658E0,1.8409164E0,3.2203248E0,2.8920174E-1,1.9198914E0,1.9300404E0,0E0,1.4595671E0,1.3486519E0,1.9173083E0,0E0,0E0,1.6978326E0,4.5725155E0,0E0,4.0506887E-1,6.432109E-1,1.5189999E0,2.1825643E0,1.0703964E0,9.4547606E-1,2.2046597E0,9.427948E-1,9.1154313E-1,1.965308E0,8.731327E-1,0E0,0E0,0E0,0E0,0E0,9.8212063E-1,6.5368056E-1,2.0254018E0,0E0,0E0,0E0,0E0,0E0,7.88772E-1,0E0,0E0,0E0,0E0,0E0,0E0,0E0,0E0,0E0,0E0,0E0,0E0,0E0,0E0,0E0,0E0],"parents":[2147483647,0,0,1,1,2,2,3,3,4,4,5,5,6,6,7,7,8,8,10,10,11,11,12,12,15,15,16,16,18,18,19,19,20,20,21,21,22,22,23,23,24,24,25,25,26,26,27,27,28,28,34,34,35,35,36,36,42,42],"right_children":[2,4,6,8,10,12,14,16,18,-1,20,22,24,-1,-1,26,28,-1,30,32,34,36,38,40,42,44,46,48,50,-1,-1,-1,-1,-1,52,54,56,-1,-1,-1,-1,-1,58,-1,-1,-1,-1,-1,-1,-1,-1,-1,-1,-1,-1,-1,-1,-1,-1],"split_conditions":[1.5E0,1.5E0,2.58542E1,2.6499882E1,5.718327E-1,2.3668705E1,6.05E1,5E-1,6.351812E-1,-4.7422566E-2,9.0575004E-1,8.3806014E-1,2.4841053E1,2.5508886E-2,1.0752981E-1,6.06715E0,5E-1,-4.6623897E-2,6.8252E0,2.6044155E1,2.3104362E1,7.1132374E-1,1.900708E1,5E-1,4.8999996E0,5E-1,9.1425E-1,7.030545E-1,8.4E0,9.166535E-2,1.6073965E-2,1.08182244E-1,2.1758506E-2,-4.6329565E-2,7E1,8.95E-1,5E-1,5.8016004E-3,1.1633804E-1,-8.30597E-2,1.1578883E-2,-6.068779E-2,8.405E-1,1.7886704E-2,-6.975266E-2,8.7734446E-2,-1.1606116E-2,3.8950216E-2,-3.6350496E-2,-9.118464E-2,-6.47506E-3,2.6541138E-3,8.881158E-2,7.751575E-2,-2.8829162E-3,-5.2701093E-2,5.6142658E-2,3.1050895E-3,9.474735E-2],"split_indices":[7,8,4,4,1,4,3,7,1,0,0,1,4,0,0,5,13,0,5,4,4,1,4,8,5,11,0,1,5,0,0,0,0,0,3,0,12,0,0,0,0,0,0,0,0,0,0,0,0,0,0,0,0,0,0,0,0,0,0],"split_type":[0,0,0,0,0,0,0,0,0,0,0,0,0,0,0,0,0,0,0,0,0,0,0,0,0,0,0,0,0,0,0,0,0,0,0,0,0,0,0,0,0,0,0,0,0,0,0,0,0,0,0,0,0,0,0,0,0,0,0],"sum_hessian":[9.952468E1,6.3947605E1,3.5577076E1,5.0798473E1,1.3149131E1,2.6651241E1,8.925835E0,4.5677734E1,5.1207395E0,1.157262E0,1.1991869E1,1.811272E1,8.538521E0,1.2345498E0,7.6912847E0,6.2840204E0,3.9393715E1,1.1115634E0,4.0091763E0,5.901211E0,6.0906577E0,1.2729275E1,5.3834457E0,3.9804738E0,4.558047E0,3.7357266E0,2.5482936E0,1.5265856E1,2.412786E1,2.4878967E0,1.5212793E0,4.145287E0,1.755924E0,1.6685815E0,4.422076E0,7.4253545E0,5.3039207E0,1.1845512E0,4.1988945E0,2.828527E0,1.1519468E0,1.1698346E0,3.3882122E0,1.413449E0,2.3222775E0,1.3769933E0,1.1713003E0,3.897041E0,1.1368814E1,2.2677195E1,1.4506632E0,2.6799471E0,1.7421291E0,6.3335977E0,1.0917568E0,3.5232427E0,1.7806777E0,1.4938555E0,1.8943567E0],"tree_param":{"num_deleted":"0","num_feature":"14","num_nodes":"59","size_leaf_vector":"0"}},{"base_weights":[-2.1520002E-2,-3.700685E-1,3.5833454E-1,-6.3595045E-1,1.3929531E-1,1.9516367E-1,7.788201E-1,-2.7293897E-1,-9.120906E-1,-4.8401964E-1,4.1702062E-1,9.1613436E-1,2.7278487E-2,2.2846164E-2,1.0062656E0,4.534466E-1,-4.4171014E-1,-1.0226619E0,4.2644447E-1,4.76646E-1,-7.8582036E-1,-1.6053407E-2,7.2751236E-1,1.1174086E0,1.3603497E-1,-7.442344E-2,9.6911323E-1,-3.8903654E-1,6.146442E-1,1.0854748E0,2.2006476E-1,-3.0424392E-1,9.1808784E-1,-6.612971E-1,-7.1327685E-4,-2.780517E-1,-1.1110276E0,-8.0742426E-2,-9.716298E-1,4.2935964E-1,-4.3717748E-1,-3.175254E-2,8.914848E-1,7.140376E-1,-1.65279E-1,-2.8608483E-1,-1.0285535E0,-5.802946E-1,3.284609E-1,1.4141533E-1,-5.55519E-1,-1.1481298E0,-3.6674735E-1,7.0520616E-1,-1.3285348E-1,8.772012E-2,-8.791843E-1,1.0006975E0,1.9024798E-1,-4.804464E-1,2.2073282E-1],"categories":[],"categories_nodes":[],"categories_segments":[],"categories_sizes":[],"default_left":[1,1,1,1,1,1,1,1,1,1,1,1,1,1,1,1,1,1,0,0,1,1,1,0,0,1,0,0,0,0,0,0,0,1,1,1,1,0,0,1,1,0,1,0,1,0,0,0,0,0,0,0,0,0,0,0,0,0,0,0,0],"id":15,"left_children":[1,3,5,7,9,11,13,15,17,19,21,23,25,27,29,31,33,35,-1,-1,37,39,41,-1,-1,43,-1,-1,-1,-1,-1,-1,-1,45,47,49,51,-1,-1,53,55,-1,57,-1,59,-1,-1,-1,-1,-1,-1,-1,-1,-1,-1,-1,-1,-1,-1,-1,-1],"loss_changes":[1.2901707E1,6.966702E0,3.0492544E0,3.114028E0,3.359114E0,4.205169E0,2.162343E0,2.1521435E0,3.1929893E0,2.138611E0,1.7804508E0,8.7961864E-1,2.886145E0,1.2050376E0,3.6810875E-1,1.5098352E0,1.29968E0,8.425503E-1,0E0,0E0,5.7757497E-1,1.4015298E0,9.8481464E-1,0E0,0E0,2.0839677E0,0E0,0E0,0E0,0E0,0E0,0E0,0E0,9.407079E-1,1.233066E0,4.4987172E-1,1.6975403E-3,0E0,0E0,6.596548E-1,9.638035E-1,0E0,2.961383E-1,0E0,3.1986084E0,0E0,0E0,0E0,0E0,0E0,0E0,0E0,0E0,0E0,0E0,0E0,0E0,0E0,0E0,0E0,0E0],"parents":[2147483647,0,0,1,1,2,2,3,3,4,4,5,5,6,6,7,7,8,8,9,9,10,10,11,11,12,12,13,13,14,14,15,15,16,16,17,17,20,20,21,21,22,22,25,25,33,33,34,34,35,35,36,36,39,39,40,40,42,42,44,44],"right_children":[2,4,6,8,10,12,14,16,18,20,22,24,26,28,30,32,34,36,-1,-1,38,40,42,-1,-1,44,-1,-1,-1,-1,-1,-1,-1,46,48,50,52,-1,-1,54,56,-1,58,-1,60,-1,-1,-1,-1,-1,-1,-1,-1,-1,-1,-1,-1,-1,-1,-1,-1],"split_conditions":[5E-1,1.5E0,2.6362907E1,5E-1,2.1252258E1,5E-1,6.097287E-1,6.794063E-1,1.4213805E0,6.566744E-1,8.361E-1,2.4294096E1,1.13265E0,1.5E0,1.016403E0,7.35E-1,2.3391495E1,5E-1,4.264445E-2,4.76646E-2,8.43E-1,2.4008959E1,5E-1,1.11740865E-1,1.3603496E-2,5E-1,9.6911326E-2,-3.8903654E-2,6.1464425E-2,1.0854749E-1,2.2006476E-2,-3.0424392E-2,9.180879E-2,2.1684881E1,8.3555E-1,8.31E-1,7.75E1,-8.074243E-3,-9.7162984E-2,2.2E2,7.45E-1,-3.1752542E-3,5E-1,7.1403764E-2,1.5E0,-2.8608484E-2,-1.0285535E-1,-5.802946E-2,3.284609E-2,1.4141533E-2,-5.5551898E-2,-1.14812985E-1,-3.6674734E-2,7.052062E-2,-1.3285348E-2,8.772012E-3,-8.791843E-2,1.00069754E-1,1.9024799E-2,-4.804464E-2,2.2073282E-2],"split_indices":[6,7,4,13,4,13,1,1,1,1,0,4,0,7,1,0,4,7,0,0,0,4,13,0,0,7,0,0,0,0,0,0,0,4,0,0,3,0,0,2,0,0,10,0,7,0,0,0,0,0,0,0,0,0,0,0,0,0,0,0,0],"split_type":[0,0,0,0,0,0,0,0,0,0,0,0,0,0,0,0,0,0,0,0,0,0,0,0,0,0,0,0,0,0,0,0,0,0,0,0,0,0,0,0,0,0,0,0,0,0,0,0,0,0,0,0,0,0,0,0,0,0,0,0,0],"sum_hessian":[9.5445E1,4.9787003E1,4.5657997E1,3.254853E1,1.723847E1,3.394836E1,1.1709639E1,1.4921399E1,1.762713E1,5.084418E0,1.2154053E1,5.570281E0,2.8378078E1,2.9627204E0,8.746919E0,2.4952354E0,1.2426164E1,1.6500105E1,1.127027E0,1.076968E0,4.00745E0,5.4711657E0,6.682887E0,4.0841365E0,1.4861447E0,2.6443604E1,1.9344733E0,1.9489202E0,1.0138001E0,7.6005135E0,1.146405E0,1.0797286E0,1.4155068E0,7.9620466E0,4.4641175E0,2.190292E0,1.4309813E1,1.1350187E0,2.8724313E0,2.6494007E0,2.8217652E0,1.3301336E0,5.3527536E0,2.0235791E0,2.4420025E1,4.8183227E0,3.1437237E0,1.3406817E0,3.1234357E0,1.0672258E0,1.1230661E0,1.3113504E1,1.1963077E0,1.6067291E0,1.0426716E0,1.6563438E0,1.1654212E0,4.26194E0,1.0908135E0,1.3308986E1,1.111104E1],"tree_param":{"num_deleted":"0","num_feature":"14","num_nodes":"61","size_leaf_vector":"0"}},{"base_weights":[3.286701E-2,-1.2668742E-1,6.655285E-1,-3.4590182E-1,2.4270843E-1,4.097331E-1,9.286231E-1,-5.206856E-1,5.466062E-1,-2.4313287E-1,4.3294507E-1,-4.451329E-3,6.6795325E-1,2.0298423E-1,1.0146523E0,-2.0370805E-1,-6.6416883E-1,-4.594001E-1,7.701099E-1,1.0109043E-1,-8.281996E-1,2.7341005E-1,8.838964E-1,5.5806535E-1,-4.2789742E-1,2.2059238E-1,9.971645E-1,-3.5134515E-1,7.9615223E-1,-3.32846E-1,-8.484104E-1,3.8399864E-2,9.463983E-1,-3.4581158E-1,9.053456E-1,-2.5712326E-1,-9.987652E-1,-2.5013262E-2,6.9003516E-1,1.0966445E0,1.1754516E-1,1.01849675E-1,-7.982477E-1,-2.8635976E-1,7.5783247E-1,-7.838485E-1,1.864526E-1,-8.121742E-1,-4.5612533E-2,-9.214474E-1,-1.1676024E-1,3.976821E-1,-7.937382E-1,4.9731386E-1,-4.062735E-1,-3.7318298E-1,9.2712593E-1],"categories":[],"categories_nodes":[],"categories_segments":[],"categories_sizes":[],"default_left":[1,1,1,1,1,1,1,1,1,1,1,1,1,0,0,1,1,0,1,1,1,1,1,0,1,1,0,1,0,1,1,0,0,1,0,0,0,1,1,0,0,0,0,0,0,0,0,0,0,0,0,0,0,0,0,0,0],"id":16,"left_children":[1,3,5,7,9,11,13,15,17,19,21,23,25,-1,-1,27,29,-1,31,33,35,37,39,-1,41,43,-1,45,-1,47,49,-1,-1,51,-1,-1,-1,53,55,-1,-1,-1,-1,-1,-1,-1,-1,-1,-1,-1,-1,-1,-1,-1,-1,-1,-1],"loss_changes":[9.507994E0,6.1890907E0,8.956232E-1,7.7298803E0,2.7547386E0,1.2226392E0,3.282838E-1,1.7032013E0,2.2208805E0,1.8371707E0,1.266228E0,1.5185713E0,8.1556106E-1,0E0,0E0,2.3520627E0,1.3892708E0,0E0,8.8827515E-1,2.6035905E0,6.792903E-2,2.1222124E0,6.910908E-1,0E0,7.937388E-1,1.3785483E0,0E0,3.152792E0,0E0,1.5368742E0,7.983389E-1,0E0,0E0,1.9208839E0,0E0,0E0,0E0,2.358659E0,2.1359468E0,0E0,0E0,0E0,0E0,0E0,0E0,0E0,0E0,0E0,0E0,0E0,0E0,0E0,0E0,0E0,0E0,0E0,0E0],"parents":[2147483647,0,0,1,1,2,2,3,3,4,4,5,5,6,6,7,7,8,8,9,9,10,10,11,11,12,12,15,15,16,16,18,18,19,19,20,20,21,21,22,22,24,24,25,25,27,27,29,29,30,30,33,33,37,37,38,38],"right_children":[2,4,6,8,10,12,14,16,18,20,22,24,26,-1,-1,28,30,-1,32,34,36,38,40,-1,42,44,-1,46,-1,48,50,-1,-1,52,-1,-1,-1,54,56,-1,-1,-1,-1,-1,-1,-1,-1,-1,-1,-1,-1,-1,-1,-1,-1,-1,-1],"split_conditions":[2.6059292E1,1.5E0,1.5E0,1.5E0,4.90165E0,1.5E0,6.05E1,5E-1,6.4536214E-1,2.344822E1,7.25E1,5.79E0,6.55E1,2.0298423E-2,1.01465225E-1,7.9849997E0,5.1826E0,-4.5940008E-2,2.1186626E1,2.2244793E1,7.8450245E-1,5E-1,9.2096746E-1,5.5806536E-2,7.6605785E-1,1.5E0,9.971645E-2,5E-1,7.961523E-2,7.367536E-1,7.8E1,3.8399864E-3,9.463983E-2,4.2E0,9.053456E-2,-2.5712326E-2,-9.9876516E-2,7.2356355E-1,5.4847E0,1.09664455E-1,1.1754516E-2,1.0184968E-2,-7.982477E-2,-2.8635977E-2,7.5783245E-2,-7.8384854E-2,1.864526E-2,-8.121742E-2,-4.5612534E-3,-9.214474E-2,-1.1676024E-2,3.976821E-2,-7.937382E-2,4.9731385E-2,-4.0627353E-2,-3.73183E-2,9.2712596E-2],"split_indices":[4,7,7,8,5,9,3,9,1,4,3,5,3,0,0,5,5,0,4,4,1,8,1,0,1,8,0,8,0,1,3,0,0,5,0,0,0,1,5,0,0,0,0,0,0,0,0,0,0,0,0,0,0,0,0,0,0],"split_type":[0,0,0,0,0,0,0,0,0,0,0,0,0,0,0,0,0,0,0,0,0,0,0,0,0,0,0,0,0,0,0,0,0,0,0,0,0,0,0,0,0,0,0,0,0,0,0,0,0,0,0,0,0,0,0,0,0],"sum_hessian":[9.2355576E1,7.439359E1,1.7961983E1,4.672732E1,2.7666273E1,1.0403995E1,7.5579877E0,3.9423454E1,7.3038664E0,7.706571E0,1.9959702E1,4.372799E0,6.0311956E0,1.1571487E0,6.400839E0,1.3038667E1,2.6384787E1,1.1358545E0,6.168012E0,5.372741E0,2.3338299E0,1.5930275E1,4.0294266E0,1.7414706E0,2.631328E0,3.2647848E0,2.7664106E0,1.1926268E1,1.1123999E0,1.0431796E1,1.5952991E1,1.4339644E0,4.7340474E0,3.8200624E0,1.5526786E0,1.113421E0,1.2204089E0,9.829494E0,6.1007805E0,2.8165302E0,1.2128961E0,1.3809769E0,1.2503512E0,1.9200044E0,1.3447804E0,6.356654E0,5.569613E0,3.224033E0,7.207763E0,1.4269162E1,1.6838282E0,1.4783634E0,2.3416991E0,4.0190268E0,5.8104677E0,1.0077194E0,5.0930614E0],"tree_param":{"num_deleted":"0","num_feature":"14","num_nodes":"57","size_leaf_vector":"0"}},{"base_weights":[3.171467E-2,-3.5407442E-1,4.6514443E-1,-4.8939088E-1,9.926269E-1,2.9736367E-1,7.1447015E-1,-6.571811E-1,-1.3994761E-1,-1.6676116E-1,4.2633122E-1,-1.5385835E-1,7.864695E-1,-3.123807E-1,-9.35093E-1,-3.87124E-1,5.4356825E-1,6.078516E-1,-1.0162652E0,5.45075E-1,-3.8587394E-1,8.647044E-1,2.9630807E-1,-1.0485474E-3,-6.8140733E-1,-1.0323843E0,2.1237251E-1,1.6216226E-2,-1.0576332E0,-2.610484E-2,8.2752067E-1,9.9039865E-1,-2.2895046E-1,-3.323456E-1,-1.2871035E0,1.08400136E-1,7.9905236E-1,-5.2067703E-1,-5.7103414E-2,9.0352106E-1,2.1878833E-1,-1.5029372E-1,7.178525E-1,3.506406E-1,-7.0826936E-1,-8.943379E-1,2.2074041E-1,-1.8601575E-1,-1.1209708E0,7.434691E-1,-4.0006942E-1,6.4897496E-1,-5.7461697E-1,9.286583E-1,-2.0663877E-1,3.1237835E-1,9.466721E-1],"categories":[],"categories_nodes":[],"categories_segments":[],"categories_sizes":[],"default_left":[1,1,1,1,0,1,1,1,1,1,1,0,1,1,1,1,1,1,1,1,1,1,1,1,1,1,0,1,0,0,0,0,0,0,0,1,1,0,0,1,0,0,0,0,0,0,0,0,0,0,0,0,0,0,0,0,0],"id":17,"left_children":[1,3,5,7,-1,9,11,13,15,17,19,-1,21,23,25,27,29,31,33,35,37,39,41,43,45,47,-1,49,-1,-1,-1,-1,-1,-1,-1,51,53,-1,-1,55,-1,-1,-1,-1,-1,-1,-1,-1,-1,-1,-1,-1,-1,-1,-1,-1,-1],"loss_changes":[1.5583092E1,9.479446E0,1.6220999E0,2.5768175E0,0E0,1.7427499E0,1.1793194E0,2.6286669E0,2.9197206E0,5.0868826E0,2.3452039E0,0E0,3.4949493E-1,1.7346835E0,2.0474033E0,3.3601735E0,7.778127E-1,1.5642416E0,2.4157023E-1,2.1012006E0,1.2135011E-1,1.3076496E-1,8.03593E-1,2.5352044E0,1.524879E0,9.361019E-1,0E0,2.9323034E0,0E0,0E0,0E0,0E0,0E0,0E0,0E0,3.478518E0,1.7971597E0,0E0,0E0,1.134491E-2,0E0,0E0,0E0,0E0,0E0,0E0,0E0,0E0,0E0,0E0,0E0,0E0,0E0,0E0,0E0,0E0,0E0],"parents":[2147483647,0,0,1,1,2,2,3,3,5,5,6,6,7,7,8,8,9,9,10,10,12,12,13,13,14,14,15,15,16,16,17,17,18,18,19,19,20,20,21,21,22,22,23,23,24,24,25,25,27,27,35,35,36,36,39,39],"right_children":[2,4,6,8,-1,10,12,14,16,18,20,-1,22,24,26,28,30,32,34,36,38,40,42,44,46,48,-1,50,-1,-1,-1,-1,-1,-1,-1,52,54,-1,-1,56,-1,-1,-1,-1,-1,-1,-1,-1,-1,-1,-1,-1,-1,-1,-1,-1,-1],"split_conditions":[5E-1,2.6523731E1,6.2023E0,1.5E0,9.926269E-2,1.515E2,4.8585987E-1,5E-1,7.26665E0,1.335E2,6.1069E0,-1.5385835E-2,1.05E0,7.6110315E-1,1.4213805E0,2.1298401E2,6.3461554E-1,9.55E-1,5.15E0,4.87665E0,8.7224996E-1,9.7624457E-1,9.699211E-1,8.5205E-1,1.0415E0,5E-1,2.1237252E-2,7.4194026E-1,-1.05763316E-1,-2.610484E-3,8.275207E-2,9.903987E-2,-2.2895046E-2,-3.3234563E-2,-1.2871036E-1,4.635E0,9.253396E-1,-5.2067704E-2,-5.7103415E-3,5.978508E-1,2.1878833E-2,-1.5029373E-2,7.178525E-2,3.506406E-2,-7.082694E-2,-8.943379E-2,2.2074042E-2,-1.8601576E-2,-1.12097085E-1,7.4346915E-2,-4.0006943E-2,6.48975E-2,-5.7461698E-2,9.286583E-2,-2.0663878E-2,3.1237835E-2,9.466721E-2],"split_indices":[6,4,5,7,0,2,1,13,5,2,5,0,0,1,1,2,1,0,5,5,0,1,1,0,0,7,0,1,0,0,0,0,0,0,0,5,1,0,0,1,0,0,0,0,0,0,0,0,0,0,0,0,0,0,0,0,0],"split_type":[0,0,0,0,0,0,0,0,0,0,0,0,0,0,0,0,0,0,0,0,0,0,0,0,0,0,0,0,0,0,0,0,0,0,0,0,0,0,0,0,0,0,0,0,0,0,0,0,0,0,0,0,0,0,0,0,0],"sum_hessian":[9.120842E1,4.8353134E1,4.2855286E1,4.4516697E1,3.836435E0,2.6927448E1,1.5927835E1,2.9480541E1,1.5036158E1,5.791634E0,2.1135815E1,1.1325152E0,1.47953205E1,1.4104885E1,1.5375656E1,1.1361268E1,3.6748896E0,3.1781387E0,2.613495E0,1.8726858E1,2.4089572E0,1.2099926E1,2.695395E0,8.194431E0,5.910454E0,1.4266334E1,1.1093223E0,7.703247E0,3.6580205E0,1.5244875E0,2.150402E0,2.0550938E0,1.123045E0,1.3731427E0,1.2403525E0,7.41122E0,1.1315638E1,1.2944821E0,1.1144751E0,1.1037783E1,1.0621432E0,1.6212469E0,1.074148E0,5.809609E0,2.3848226E0,4.7888227E0,1.121631E0,1.6454341E0,1.2620899E1,2.5181203E0,5.185127E0,4.1648135E0,3.2464063E0,1.0091693E1,1.223945E0,1.3114125E0,9.72637E0],"tree_param":{"num_deleted":"0","num_feature":"14","num_nodes":"57","size_leaf_vector":"0"}},{"base_weights":[2.3384383E-2,-6.219543E-2,4.7704542E-1,2.7092928E-1,-1.8276535E-1,9.713754E-2,7.142742E-1,8.175074E-3,6.720604E-1,-2.9447532E-1,2.4970919E-1,-4.3269473E-1,5.5239636E-1,-1.3809607E-3,8.848247E-1,-4.3698922E-1,2.7627924E-1,6.2655754E-2,7.520702E-1,2.7258185E-1,-3.9211342E-1,6.460679E-1,-4.7123235E-1,7.467901E-2,-8.265352E-1,-1.655931E-1,9.537574E-1,1.006591E0,1.3042942E-1,-9.8731995E-2,-7.7932376E-1,-2.1912706E-1,5.9005517E-1,8.60613E-1,1.02079675E-1,4.9865556E-1,-5.415805E-1,-4.610201E-1,2.71843E-1,7.4638203E-3,1.3247263E0,-8.127901E-1,1.4737563E-1,-7.2543395E-1,7.666512E-1,4.49585E-1,-6.2207884E-1,7.236736E-1,6.9418535E-2,2.528599E-1,1.0294183E0,6.763983E-1,1.4561883E-2,-5.315171E-1,1.0812324E-1,-1.846317E-1,4.7676495E-1,-5.815E-1,3.038194E-1,-1.0208778E0,-1.8106599E-1],"categories":[],"categories_nodes":[],"categories_segments":[],"categories_sizes":[],"default_left":[1,1,1,1,1,1,1,1,1,1,1,1,1,0,1,1,1,0,1,1,1,1,1,0,0,0,0,0,0,1,0,1,1,1,0,1,0,1,1,1,0,1,0,0,0,0,0,0,0,0,0,0,0,0,0,0,0,0,0,0,0],"id":18,"left_children":[1,3,5,7,9,11,13,15,17,19,21,23,25,-1,27,29,31,-1,33,35,37,39,41,-1,-1,-1,-1,-1,-1,43,-1,45,47,49,-1,51,-1,53,55,57,-1,59,-1,-1,-1,-1,-1,-1,-1,-1,-1,-1,-1,-1,-1,-1,-1,-1,-1,-1,-1],"loss_changes":[3.4588215E0,3.0695953E0,1.2043467E0,2.1430879E0,2.76966E0,1.8286271E0,1.0439129E0,1.7116047E0,3.456664E-1,2.5878372E0,3.7326508E0,7.82366E-1,1.3059441E0,0E0,5.0257015E-1,5.4808545E-1,1.5177164E0,0E0,4.081285E-1,1.5901614E0,1.8930383E0,3.5278895E0,1.1412033E0,0E0,0E0,0E0,0E0,0E0,0E0,2.6496036E0,0E0,1.4094315E0,3.490156E-1,3.439145E-1,0E0,5.1794624E-1,0E0,1.4768457E0,4.866943E-1,1.086257E0,0E0,2.4474859E-1,0E0,0E0,0E0,0E0,0E0,0E0,0E0,0E0,0E0,0E0,0E0,0E0,0E0,0E0,0E0,0E0,0E0,0E0,0E0],"parents":[2147483647,0,0,1,1,2,2,3,3,4,4,5,5,6,6,7,7,8,8,9,9,10,10,11,11,12,12,14,14,15,15,16,16,18,18,19,19,20,20,21,21,22,22,29,29,31,31,32,32,33,33,35,35,37,37,38,38,39,39,41,41],"right_children":[2,4,6,8,10,12,14,16,18,20,22,24,26,-1,28,30,32,-1,34,36,38,40,42,-1,-1,-1,-1,-1,-1,44,-1,46,48,50,-1,52,-1,54,56,58,-1,60,-1,-1,-1,-1,-1,-1,-1,-1,-1,-1,-1,-1,-1,-1,-1,-1,-1,-1,-1],"split_conditions":[5E-1,6.792988E-1,8.806E-1,6.21E0,7.35E1,6.65E1,7.475963E-1,5E-1,6.25E1,1.41E2,1.045E0,7.8499997E-1,5E-1,-1.3809607E-4,1.0732808E0,2.365E2,7.25E-1,6.2655755E-3,5E-1,6.95E1,1.08905E0,8.274889E-1,2.27672E2,7.467901E-3,-8.265352E-2,-1.655931E-2,9.537574E-2,1.00659095E-1,1.3042942E-2,1.96E2,-7.793238E-2,6.65E-1,6.65E1,1.9973001E2,1.0207968E-2,9.0999997E-1,-5.415805E-2,1.5E0,1.99925E2,5E-1,1.3247263E-1,1.15265E0,1.4737563E-2,-7.25434E-2,7.6665126E-2,4.49585E-2,-6.2207885E-2,7.236736E-2,6.9418536E-3,2.5285989E-2,1.0294183E-1,6.763983E-2,1.4561884E-3,-5.3151708E-2,1.08123245E-2,-1.846317E-2,4.7676496E-2,-5.815E-2,3.0381938E-2,-1.0208779E-1,-1.81066E-2],"split_indices":[12,1,0,5,3,3,1,8,3,2,0,0,8,0,1,2,0,0,10,3,0,1,2,0,0,0,0,0,0,2,0,0,3,2,0,0,0,8,2,11,0,0,0,0,0,0,0,0,0,0,0,0,0,0,0,0,0,0,0,0,0],"split_type":[0,0,0,0,0,0,0,0,0,0,0,0,0,0,0,0,0,0,0,0,0,0,0,0,0,0,0,0,0,0,0,0,0,0,0,0,0,0,0,0,0,0,0,0,0,0,0,0,0,0,0,0,0,0,0,0,0,0,0,0,0],"sum_hessian":[8.732504E1,7.419215E1,1.3132899E1,1.9385246E1,5.48069E1,5.5901203E0,7.5427785E0,1.2329436E1,7.0558095E0,4.3809753E1,1.09971485E1,2.606374E0,2.9837465E0,1.642501E0,5.9002776E0,4.3976264E0,7.93181E0,1.0257976E0,6.030012E0,6.172087E0,3.7637665E1,7.162958E0,3.8341904E0,1.49316E0,1.1132139E0,1.2804992E0,1.7032472E0,4.792433E0,1.1078446E0,2.8600492E0,1.537577E0,3.1926801E0,4.7391295E0,4.8894734E0,1.1405386E0,5.1340156E0,1.0380718E0,3.4375732E1,3.2619328E0,4.2112517E0,2.9517064E0,2.2680237E0,1.5661666E0,1.7525727E0,1.1074765E0,1.1569513E0,2.0357287E0,3.460925E0,1.2782044E0,1.6058477E0,3.2836258E0,3.4646628E0,1.6693528E0,3.0645887E1,3.7298446E0,1.0413297E0,2.2206032E0,1.0876113E0,3.1236403E0,1.242673E0,1.0253508E0],"tree_param":{"num_deleted":"0","num_feature":"14","num_nodes":"61","size_leaf_vector":"0"}},{"base_weights":[7.70832E-3,-3.3307302E-1,3.6360413E-1,-4.542621E-1,5.4011047E-1,1.793382E-1,6.2568784E-1,-5.262976E-1,4.7204323E-2,9.20344E-1,-1.0901384E-1,8.636187E-1,5.044025E-2,4.42664E-1,1.0041869E0,-5.8714104E-1,3.522482E-1,-4.1144854E-1,6.7906046E-1,-7.9521143E-1,6.781256E-1,-3.3039185E-1,3.2819784E-1,7.061157E-1,-3.0576566E-1,-2.7493262E-1,-7.725725E-1,3.4593388E-1,-8.509787E-1,-6.35388E-1,-1.9844638E-2,9.40526E-1,1.8545127E-2,2.549746E-1,7.8196216E-1,-7.4988246E-1,8.9256465E-2,6.805287E-2,-7.0318574E-1,-5.672981E-1,-1.0629717E0,4.5736857E-2,-8.126276E-1,3.09542E-1,-6.294902E-1,2.683679E-1,1.166271E0,-2.5846046E-1,4.6396467E-1,2.0821998E-1,9.41563E-1,3.8132647E-1,-2.533221E-1],"categories":[],"categories_nodes":[],"categories_segments":[],"categories_sizes":[],"default_left":[1,1,1,1,1,1,1,1,1,0,1,0,1,1,0,1,0,1,0,0,0,1,1,1,1,1,1,0,0,1,1,1,1,0,1,0,1,0,0,0,0,0,0,0,0,0,0,0,0,0,0,0,0],"id":19,"left_children":[1,3,5,7,9,11,13,15,17,-1,19,-1,21,23,-1,25,-1,27,-1,-1,-1,29,31,33,35,37,39,-1,-1,41,43,45,47,-1,49,-1,51,-1,-1,-1,-1,-1,-1,-1,-1,-1,-1,-1,-1,-1,-1,-1,-1],"loss_changes":[1.1287967E1,5.277868E0,2.0858903E0,1.5530205E0,1.6436546E0,2.4373398E0,8.293309E-1,2.188507E0,2.085271E0,0E0,2.2697504E0,0E0,2.7244442E0,3.0124826E0,0E0,1.8165627E0,0E0,1.7036003E0,0E0,0E0,0E0,1.0224911E0,2.7892284E0,1.699171E-1,8.3719087E-1,2.1940799E0,6.7475796E-1,0E0,0E0,6.988802E-1,1.4895118E0,4.3831205E-1,1.4587588E0,0E0,6.0568714E-1,0E0,4.1851565E-1,0E0,0E0,0E0,0E0,0E0,0E0,0E0,0E0,0E0,0E0,0E0,0E0,0E0,0E0,0E0,0E0],"parents":[2147483647,0,0,1,1,2,2,3,3,4,4,5,5,6,6,7,7,8,8,10,10,12,12,13,13,15,15,17,17,21,21,22,22,23,23,24,24,25,25,26,26,29,29,30,30,31,31,32,32,34,34,36,36],"right_children":[2,4,6,8,10,12,14,16,18,-1,20,-1,22,24,-1,26,-1,28,-1,-1,-1,30,32,34,36,38,40,-1,-1,42,44,46,48,-1,50,-1,52,-1,-1,-1,-1,-1,-1,-1,-1,-1,-1,-1,-1,-1,-1,-1,-1],"split_conditions":[5E-1,2.6104738E1,1.5E0,5E-1,6.70195E0,5E-1,2.2765799E2,1.3082583E0,2.3503242E1,9.20344E-2,7.28055E0,8.636187E-2,7.432128E-1,2.10715E2,1.0041869E-1,1.5E0,3.522482E-2,1.705E2,6.7906044E-2,-7.952114E-2,6.781256E-2,1.5E0,5E-1,6.459278E-1,2.176802E2,2.3006046E1,2.1741519E2,3.459339E-2,-8.509787E-2,2.1013357E1,6.7667437E-1,2.1427195E1,2.10677E2,2.549746E-2,4.80165E0,-7.4988246E-2,2.5093136E1,6.805287E-3,-7.031857E-2,-5.6729812E-2,-1.0629717E-1,4.5736856E-3,-8.126276E-2,3.09542E-2,-6.2949024E-2,2.6836788E-2,1.166271E-1,-2.5846047E-2,4.6396468E-2,2.0821998E-2,9.41563E-2,3.813265E-2,-2.533221E-2],"split_indices":[6,4,7,12,5,7,2,1,4,0,5,0,1,2,0,9,0,2,0,0,0,8,9,1,2,4,2,0,0,4,1,4,2,0,5,0,4,0,0,0,0,0,0,0,0,0,0,0,0,0,0,0,0],"split_type":[0,0,0,0,0,0,0,0,0,0,0,0,0,0,0,0,0,0,0,0,0,0,0,0,0,0,0,0,0,0,0,0,0,0,0,0,0,0,0,0,0,0,0,0,0,0,0,0,0,0,0,0,0],"sum_hessian":[9.107303E1,4.655719E1,4.4515835E1,4.130433E1,5.2528615E0,2.712738E1,1.7388454E1,3.607294E1,5.2313876E0,3.0490274E0,2.2038338E0,3.3964787E0,2.3730904E1,1.3183215E1,4.205239E0,3.4046734E1,2.0262063E0,3.2332532E0,1.9981341E0,1.1719333E0,1.0319006E0,9.9284935E0,1.3802409E1,9.792672E0,3.3905423E0,1.3611649E1,2.0435087E1,1.2655131E0,1.9677403E0,4.4812846E0,5.4472094E0,3.9513617E0,9.8510475E0,2.0371644E0,7.755508E0,1.1732013E0,2.217341E0,8.025312E0,5.586336E0,1.3702628E1,6.7324576E0,1.0785207E0,3.4027643E0,3.8560662E0,1.5911428E0,1.5437222E0,2.4076395E0,6.33257E0,3.5184767E0,2.1894345E0,5.5660734E0,1.13585E0,1.081491E0],"tree_param":{"num_deleted":"0","num_feature":"14","num_nodes":"53","size_leaf_vector":"0"}},{"base_weights":[3.433057E-2,-2.759847E-1,3.9544994E-1,-3.752567E-1,6.38108E-1,4.4295844E-1,-4.6948287E-1,-5.777158E-1,-1.698582E-1,8.2140887E-1,1.716709E-1,8.148576E-1,3.1328776E-1,-1.8618815E-1,-7.475558E-1,8.565138E-2,-6.9616395E-1,1.0096319E0,1.02537975E-1,4.8867145E-1,-1.19070165E-1,2.3760866E-1,-7.0054376E-1,1.12715684E-1,-8.6818784E-1,4.9171326E-1,-2.6816183E-1,1.6102564E-1,-8.9225715E-1,1.0926479E0,2.846436E-1,2.730208E-1,-1.0694813E-1,2.0922446E-1,8.560118E-1,-6.412538E-1,2.566079E-1,8.314253E-1,-1.844403E-1,-1.0451281E0,-5.0111085E-1,1.1397586E-1,1.2152164E0,1.01670064E-1,-6.3644046E-1,-1.0083227E0,-1.8884999E-1,-3.2724237E-1,4.340014E-1,1.1685797E0,4.5199844E-1,1.0970455E-1,-9.970602E-1,-4.7014803E-1,8.3970994E-1],"categories":[],"categories_nodes":[],"categories_segments":[],"categories_sizes":[],"default_left":[1,1,1,1,1,1,0,1,1,0,0,1,1,1,1,1,1,1,1,1,1,1,0,0,1,1,1,0,1,0,0,0,0,1,1,1,1,0,0,0,0,0,0,0,0,0,0,0,0,0,0,0,0,0,0],"id":20,"left_children":[1,3,5,7,9,11,-1,13,15,-1,-1,17,19,21,23,25,27,29,31,33,35,37,-1,-1,39,41,43,-1,45,-1,-1,-1,-1,47,49,51,53,-1,-1,-1,-1,-1,-1,-1,-1,-1,-1,-1,-1,-1,-1,-1,-1,-1,-1],"loss_changes":[9.872632E0,4.5451155E0,1.8794947E0,1.7078996E0,2.8806138E-1,1.6290693E0,0E0,1.2875118E0,3.1492167E0,0E0,0E0,1.2113771E0,2.3783383E0,1.8716927E0,1.6163368E0,2.481848E0,1.4242029E0,1.3010406E-1,1.4162783E-1,2.075492E0,2.0544696E0,1.4153951E0,0E0,0E0,3.17235E-1,2.039371E0,1.3433452E0,0E0,3.2822323E-1,0E0,0E0,0E0,0E0,1.8058017E0,6.2928724E-1,1.2628065E0,3.071831E0,0E0,0E0,0E0,0E0,0E0,0E0,0E0,0E0,0E0,0E0,0E0,0E0,0E0,0E0,0E0,0E0,0E0,0E0],"parents":[2147483647,0,0,1,1,2,2,3,3,4,4,5,5,7,7,8,8,11,11,12,12,13,13,14,14,15,15,16,16,17,17,18,18,19,19,20,20,21,21,24,24,25,25,26,26,28,28,33,33,34,34,35,35,36,36],"right_children":[2,4,6,8,10,12,-1,14,16,-1,-1,18,20,22,24,26,28,30,32,34,36,38,-1,-1,40,42,44,-1,46,-1,-1,-1,-1,48,50,52,54,-1,-1,-1,-1,-1,-1,-1,-1,-1,-1,-1,-1,-1,-1,-1,-1,-1,-1],"split_conditions":[5E-1,2.6510609E1,9.35E0,2.0093701E2,6.8202E0,5E-1,-4.6948288E-2,1.435E2,2.495E2,8.2140885E-2,1.716709E-2,2.7982069E1,5E-1,8.6E-1,6.2160647E-1,5E-1,5.9389156E-1,5E-1,2.18E2,8.0274343E-1,8.5155E-1,5E-1,-7.0054375E-2,1.1271569E-2,8.0938935E-1,5E-1,2.1747641E2,1.6102565E-2,1.015E0,1.0926479E-1,2.846436E-2,2.730208E-2,-1.0694813E-2,2.2081377E1,2.3370506E1,5.668E0,5.73975E0,8.3142534E-2,-1.844403E-2,-1.0451281E-1,-5.0111085E-2,1.1397586E-2,1.21521644E-1,1.0167006E-2,-6.3644044E-2,-1.00832276E-1,-1.8885E-2,-3.272424E-2,4.340014E-2,1.1685797E-1,4.5199845E-2,1.0970455E-2,-9.970602E-2,-4.7014803E-2,8.3970994E-2],"split_indices":[6,4,5,2,5,13,0,2,2,0,0,4,10,0,1,13,1,12,2,1,0,13,0,0,1,10,2,0,0,0,0,0,0,4,4,5,5,0,0,0,0,0,0,0,0,0,0,0,0,0,0,0,0,0,0],"split_type":[0,0,0,0,0,0,0,0,0,0,0,0,0,0,0,0,0,0,0,0,0,0,0,0,0,0,0,0,0,0,0,0,0,0,0,0,0,0,0,0,0,0,0,0,0,0,0,0,0,0,0,0,0,0,0],"sum_hessian":[8.612672E1,4.6448544E1,3.9678177E1,4.2430046E1,4.018498E0,3.80747E1,1.6034738E0,2.0455055E1,2.1974993E1,2.3384883E0,1.6800094E0,8.477354E0,2.9597347E1,6.822827E0,1.3632228E1,1.5356848E1,6.6181445E0,6.329304E0,2.1480498E0,2.0963406E1,8.633942E0,4.0357046E0,2.787122E0,1.6845691E0,1.19476595E1,6.968982E0,8.387866E0,1.2654159E0,5.352729E0,5.223997E0,1.1053071E0,1.0170618E0,1.130988E0,1.2797513E1,8.165892E0,3.316777E0,5.317165E0,1.2736809E0,2.762024E0,6.815335E0,5.1323247E0,5.3390326E0,1.6299493E0,4.546311E0,3.8415546E0,4.2225103E0,1.1302185E0,3.6441941E0,9.153319E0,3.5370216E0,4.62887E0,1.2886499E0,2.028127E0,2.453246E0,2.863919E0],"tree_param":{"num_deleted":"0","num_feature":"14","num_nodes":"55","size_leaf_vector":"0"}},{"base_weights":[1.7667597E-2,-2.8775385E-1,3.328528E-1,-4.8783848E-1,1.2066128E-1,1.8376969E-2,5.0262403E-1,9.0422116E-2,-5.541601E-1,-4.0251344E-2,5.393058E-1,-3.4177E-1,4.803029E-1,1.0645836E-1,6.4408755E-1,-6.497816E-1,5.985122E-1,-2.9337457E-1,-7.6031345E-1,2.655454E-1,-6.904629E-1,1.1402933E-2,6.985103E-1,1.2557805E-1,-7.171247E-1,-9.628955E-2,9.192373E-1,3.829335E-1,-6.838937E-1,7.023754E-1,-2.2853339E-1,5.065665E-1,-4.8327115E-1,-8.750222E-1,2.6092332E-2,6.400414E-1,-4.4956467E-1,-8.1719863E-1,-1.7875862E-1,-3.0784535E-1,5.9095794E-1,-4.7680225E-2,-8.985091E-1,-5.721462E-1,4.369443E-1,9.086244E-1,-7.6809086E-2,3.6770773E-1,7.9036105E-1,5.2229587E-2,7.1744424E-1,4.4903314E-1,-6.619183E-1,-9.777158E-1,-3.5733925E-3,-1.8519872E-1,8.3744013E-1,-7.554555E-1,3.100161E-1,-2.854273E-1,-1.0251155E0,3.660705E-1,-3.1599054E-1,7.05987E-1,-4.669364E-1,8.2756156E-1,2.0484185E-1],"categories":[],"categories_nodes":[],"categories_segments":[],"categories_sizes":[],"default_left":[1,1,1,1,1,1,1,1,1,1,1,1,1,1,1,0,0,1,1,1,1,0,0,1,1,1,0,1,0,1,0,1,1,1,0,1,0,0,0,1,0,0,1,0,0,0,1,1,1,0,0,0,0,0,0,0,0,0,0,0,0,0,0,0,0,0,0],"id":21,"left_children":[1,3,5,7,9,11,13,15,17,19,21,23,25,27,29,-1,-1,31,33,35,37,-1,-1,39,41,43,-1,45,-1,47,-1,49,51,53,-1,55,-1,-1,-1,57,-1,-1,59,-1,-1,-1,61,63,65,-1,-1,-1,-1,-1,-1,-1,-1,-1,-1,-1,-1,-1,-1,-1,-1,-1,-1],"loss_changes":[8.25227E0,3.619129E0,2.2417607E0,1.179183E0,1.0407779E0,2.7959082E0,1.4637971E0,1.8514665E0,1.2044001E0,2.5410998E0,3.5086977E-1,1.7518753E0,1.9477385E0,2.0957649E0,1.1752453E0,0E0,0E0,2.2728724E0,1.3038464E0,2.6410081E0,1.1791229E-1,0E0,0E0,1.2046889E0,6.131973E-1,1.2853652E0,0E0,1.7273997E0,0E0,2.672758E-1,0E0,2.5470185E-1,2.179485E0,1.1081772E0,0E0,1.1617672E0,0E0,0E0,0E0,1.1421299E0,0E0,0E0,3.3014297E-2,0E0,0E0,0E0,6.009196E-1,1.9712408E0,1.3830471E-1,0E0,0E0,0E0,0E0,0E0,0E0,0E0,0E0,0E0,0E0,0E0,0E0,0E0,0E0,0E0,0E0,0E0,0E0],"parents":[2147483647,0,0,1,1,2,2,3,3,4,4,5,5,6,6,7,7,8,8,9,9,10,10,11,11,12,12,13,13,14,14,17,17,18,18,19,19,20,20,23,23,24,24,25,25,27,27,29,29,31,31,32,32,33,33,35,35,39,39,42,42,46,46,47,47,48,48],"right_children":[2,4,6,8,10,12,14,16,18,20,22,24,26,28,30,-1,-1,32,34,36,38,-1,-1,40,42,44,-1,46,-1,48,-1,50,52,54,-1,56,-1,-1,-1,58,-1,-1,60,-1,-1,-1,62,64,66,-1,-1,-1,-1,-1,-1,-1,-1,-1,-1,-1,-1,-1,-1,-1,-1,-1,-1],"split_conditions":[5E-1,1.5E0,8.496E-1,6.5999997E-1,7.25665E0,1.5E0,1.77057E2,5.6E0,5E-1,2.165E2,2.0273001E2,5.75895E0,5E-1,1.715E2,3.14E2,-6.497816E-2,5.9851218E-2,7.008939E-1,1.5E0,8.9225E-1,8.5230005E-1,1.1402933E-3,6.985103E-2,1.5E0,1.73E2,1.5E0,9.1923736E-2,8.6312234E-1,-6.838937E-2,7.613859E-1,-2.285334E-2,1.9998999E2,1.28E2,7.24645E0,2.6092331E-3,4E0,-4.4956468E-2,-8.171987E-2,-1.7875863E-2,7.092762E-1,5.9095796E-2,-4.768023E-3,5E-1,-5.7214618E-2,4.3694433E-2,9.0862446E-2,4.1E0,7.3835427E-1,8.97E0,5.222959E-3,7.174443E-2,4.4903316E-2,-6.619183E-2,-9.777158E-2,-3.5733925E-4,-1.8519873E-2,8.374401E-2,-7.554555E-2,3.100161E-2,-2.8542731E-2,-1.0251155E-1,3.6607053E-2,-3.1599056E-2,7.05987E-2,-4.669364E-2,8.2756154E-2,2.0484185E-2],"split_indices":[6,7,0,0,5,7,2,5,13,2,2,5,8,2,2,0,0,1,10,0,0,0,0,8,2,9,0,1,0,1,0,2,2,5,0,5,0,0,0,1,0,0,13,0,0,0,5,1,5,0,0,0,0,0,0,0,0,0,0,0,0,0,0,0,0,0,0],"split_type":[0,0,0,0,0,0,0,0,0,0,0,0,0,0,0,0,0,0,0,0,0,0,0,0,0,0,0,0,0,0,0,0,0,0,0,0,0,0,0,0,0,0,0,0,0,0,0,0,0,0,0,0,0,0,0,0,0,0,0,0,0,0,0,0,0,0,0],"sum_hessian":[8.373015E1,4.256792E1,4.1162228E1,2.8440372E1,1.4127549E1,1.4819524E1,2.6342703E1,2.8888664E0,2.5551506E1,1.085797E1,3.2695792E0,8.4733095E0,6.346214E0,7.392553E0,1.8950151E1,1.0623403E0,1.826526E0,1.2350772E1,1.3200735E1,7.7872167E0,3.0707536E0,1.0058678E0,2.2637115E0,4.0705614E0,4.402748E0,3.0803878E0,3.2658262E0,5.8586226E0,1.5339303E0,1.7946487E1,1.0036631E0,2.0495274E0,1.0301244E1,1.1421987E1,1.7787483E0,5.179657E0,2.6075597E0,1.9826816E0,1.088072E0,2.2829154E0,1.787646E0,1.2078273E0,3.1949208E0,1.589208E0,1.4911797E0,2.2777553E0,3.5808673E0,4.8141727E0,1.3132315E1,1.045237E0,1.0042905E0,1.4131145E0,8.888129E0,1.0108799E1,1.3131877E0,1.011753E0,4.1679044E0,1.1947118E0,1.0882037E0,1.1038859E0,2.091035E0,1.0696814E0,2.511186E0,3.5354211E0,1.2787516E0,1.1959121E1,1.1731939E0],"tree_param":{"num_deleted":"0","num_feature":"14","num_nodes":"67","size_leaf_vector":"0"}},{"base_weights":[-5.6359988E-2,-3.4122694E-1,2.4377048E-1,-4.1086346E-1,7.594129E-1,1.0231882E0,1.7331277E-1,-1.7484364E-1,-6.386984E-1,-3.1661678E-2,4.7543928E-1,1.772334E-1,-3.996161E-1,-8.996549E-1,-1.923296E-1,-5.0364417E-1,1.941574E-1,2.127512E-1,8.7193775E-1,-2.8899592E-1,5.20945E-1,-4.946255E-1,3.1315547E-1,-1.0941914E0,-3.4432828E-1,-4.809268E-1,6.9883794E-1,3.7695053E-1,-7.1528125E-1,-3.8695094E-1,3.276469E-1,4.652398E-1,-6.7666435E-1,-6.6137826E-1,2.972591E-1,1.1078886E0,-1.459851E-1,-2.8630309E-2,-6.136051E-1,2.1931568E-1,-8.367965E-1,-6.722906E-1,2.1169211E-1,-1.4543556E-1,-9.185083E-1,1.3171594E-1,-7.424216E-1,2.5474915E-2,7.661756E-1,6.383844E-1,-2.8614524E-1],"categories":[],"categories_nodes":[],"categories_segments":[],"categories_sizes":[],"default_left":[1,1,1,1,0,0,1,1,1,1,1,1,1,1,1,1,1,1,0,1,1,1,0,0,1,1,0,0,1,1,1,1,0,0,0,0,0,0,0,0,0,0,0,0,0,0,0,0,0,0,0],"id":22,"left_children":[1,3,5,7,-1,-1,9,11,13,15,17,19,21,23,25,27,29,31,-1,33,35,37,-1,-1,39,41,-1,-1,43,45,47,49,-1,-1,-1,-1,-1,-1,-1,-1,-1,-1,-1,-1,-1,-1,-1,-1,-1,-1,-1],"loss_changes":[7.1239586E0,3.5821772E0,2.0568938E0,2.081029E0,0E0,0E0,2.4002476E0,1.7647939E0,2.1998549E0,2.6434867E0,1.4425175E0,1.5981565E0,1.0604436E0,9.826622E-1,2.5961366E0,1.7619939E0,1.4359674E0,2.7231975E0,0E0,1.1739144E0,2.336947E0,6.581185E-1,0E0,0E0,1.4947238E0,1.1006305E0,0E0,0E0,6.5405035E-1,7.6358896E-1,1.870865E0,1.3465055E0,0E0,0E0,0E0,0E0,0E0,0E0,0E0,0E0,0E0,0E0,0E0,0E0,0E0,0E0,0E0,0E0,0E0,0E0,0E0],"parents":[2147483647,0,0,1,1,2,2,3,3,6,6,7,7,8,8,9,9,10,10,11,11,12,12,13,13,14,14,15,15,16,16,17,17,19,19,20,20,21,21,24,24,25,25,28,28,29,29,30,30,31,31],"right_children":[2,4,6,8,-1,-1,10,12,14,16,18,20,22,24,26,28,30,32,-1,34,36,38,-1,-1,40,42,-1,-1,44,46,48,50,-1,-1,-1,-1,-1,-1,-1,-1,-1,-1,-1,-1,-1,-1,-1,-1,-1,-1,-1],"split_conditions":[5E-1,2.7696821E1,1.185E2,8.5455E-1,7.594129E-2,1.0231882E-1,1.5E0,5E-1,2.3062042E1,8.3255E-1,2.2044101E2,7.6E-1,2.935E2,7.35E1,7.2941E0,6.4E-1,1.805E2,2.15057E2,8.719378E-2,5.1099997E0,5.0808E0,1.575E2,3.1315546E-2,-1.09419145E-1,1.0364499E0,5E-1,6.988379E-2,3.7695054E-2,5E-1,6.8E1,7.05E1,1.005E0,-6.7666434E-2,-6.613783E-2,2.972591E-2,1.1078886E-1,-1.459851E-2,-2.8630309E-3,-6.136051E-2,2.1931568E-2,-8.367965E-2,-6.722906E-2,2.1169212E-2,-1.4543556E-2,-9.185083E-2,1.3171594E-2,-7.424217E-2,2.5474916E-3,7.661756E-2,6.3838445E-2,-2.8614525E-2],"split_indices":[6,4,2,0,0,0,7,13,4,0,2,0,2,3,5,0,2,2,0,5,5,2,0,0,0,12,0,0,13,3,3,0,0,0,0,0,0,0,0,0,0,0,0,0,0,0,0,0,0,0,0],"split_type":[0,0,0,0,0,0,0,0,0,0,0,0,0,0,0,0,0,0,0,0,0,0,0,0,0,0,0,0,0,0,0,0,0,0,0,0,0,0,0,0,0,0,0,0,0,0,0,0,0,0,0],"sum_hessian":[8.1350914E1,4.1666492E1,3.968442E1,3.977657E1,1.8899242E0,2.168957E0,3.7515465E1,2.040546E1,1.9371109E1,2.2884756E1,1.4630708E1,8.033506E0,1.2371954E1,1.1583598E1,7.787512E0,7.0077076E0,1.5877048E1,9.7245655E0,4.906142E0,3.4767046E0,4.5568023E0,1.1186848E1,1.185106E0,7.859855E0,3.7237427E0,6.230241E0,1.557271E0,1.2064996E0,5.801208E0,2.6112003E0,1.3265848E1,7.945812E0,1.7787536E0,2.0478153E0,1.4288894E0,2.072067E0,2.4847353E0,2.527658E0,8.65919E0,1.995032E0,1.7287108E0,4.90452E0,1.3257208E0,1.9760429E0,3.825165E0,1.3178245E0,1.2933758E0,8.480427E0,4.7854204E0,6.5799565E0,1.3658557E0],"tree_param":{"num_deleted":"0","num_feature":"14","num_nodes":"51","size_leaf_vector":"0"}},{"base_weights":[7.753769E-3,-1.22896336E-1,5.2952105E-1,-3.207672E-1,1.3560586E-1,1.440097E-1,8.659979E-1,-4.819425E-1,-4.94992E-3,8.7521535E-1,-2.536576E-2,3.89624E-1,-7.575691E-1,2.7468216E-1,1.0336994E0,-2.284522E-1,-7.0973355E-1,1.7103226E-1,-4.885257E-1,9.8180073E-1,2.2116484E-1,9.2744535E-1,-1.1146797E-1,-2.3062207E-2,8.2761085E-1,1.487053E-1,-7.126863E-1,-8.129482E-1,1.5305917E-1,4.2836842E-1,-2.659356E-1,-8.402895E-1,2.4595942E-1,-3.4263268E-1,2.4098487E-1,-8.130141E-1,4.288611E-1,-8.717885E-2,7.553215E-1,-9.545895E-1,2.0948502E-1,-1.341884E-1,-9.136668E-1,4.5912057E-2,8.680737E-1,-6.260637E-1,4.8787585E-1,-5.617093E-1,3.911167E-1,8.5487103E-1,-7.6188E-2,1.09252125E-1,6.49815E-1],"categories":[],"categories_nodes":[],"categories_segments":[],"categories_sizes":[],"default_left":[1,1,1,1,1,1,1,1,1,1,1,1,0,0,0,1,1,1,1,0,0,0,1,1,0,1,1,1,0,1,1,0,0,1,1,0,1,0,0,0,0,0,0,0,0,0,0,0,0,0,0,0,0],"id":23,"left_children":[1,3,5,7,9,11,13,15,17,19,21,23,-1,-1,-1,25,27,29,31,-1,-1,-1,33,35,-1,37,39,41,-1,43,45,-1,-1,47,49,-1,51,-1,-1,-1,-1,-1,-1,-1,-1,-1,-1,-1,-1,-1,-1,-1,-1],"loss_changes":[5.6099286E0,3.4123802E0,2.0126286E0,1.9117105E0,3.5056806E0,2.2612257E0,5.687394E-1,1.2749057E0,1.2508459E0,1.4940739E-1,2.1544526E0,1.3996587E0,0E0,0E0,0E0,2.5265415E0,1.2494602E0,1.3280652E0,1.2192504E0,0E0,0E0,0E0,2.0234444E0,2.0999079E0,0E0,1.2503552E0,1.5330162E0,6.5960646E-1,0E0,1.1673416E0,1.5593358E0,0E0,0E0,2.598621E0,2.0166225E0,0E0,1.9559312E-1,0E0,0E0,0E0,0E0,0E0,0E0,0E0,0E0,0E0,0E0,0E0,0E0,0E0,0E0,0E0,0E0],"parents":[2147483647,0,0,1,1,2,2,3,3,4,4,5,5,6,6,7,7,8,8,9,9,10,10,11,11,15,15,16,16,17,17,18,18,22,22,23,23,25,25,26,26,27,27,29,29,30,30,33,33,34,34,36,36],"right_children":[2,4,6,8,10,12,14,16,18,20,22,24,-1,-1,-1,26,28,30,32,-1,-1,-1,34,36,-1,38,40,42,-1,44,46,-1,-1,48,50,-1,52,-1,-1,-1,-1,-1,-1,-1,-1,-1,-1,-1,-1,-1,-1,-1,-1],"split_conditions":[2.6073868E1,5E-1,7.444855E-1,1.5E0,5E-1,7.3257935E-1,5E-1,5E-1,2.175E2,2.4089596E1,3.75E0,1.5E0,-7.575691E-2,2.7468218E-2,1.03369944E-1,7.6110315E-1,1.4213805E0,2.3668705E1,6.475E0,9.818008E-2,2.2116484E-2,9.274454E-2,6.18095E0,5.3902733E-1,8.276109E-2,2.3569E2,7.55E1,5E-1,1.5305917E-2,2.2414818E1,5E-1,-8.402895E-2,2.4595942E-2,2.4817015E1,6.43305E0,-8.130141E-2,6.45E0,-8.717885E-3,7.553215E-2,-9.545895E-2,2.0948503E-2,-1.341884E-2,-9.136668E-2,4.5912056E-3,8.680737E-2,-6.260637E-2,4.8787586E-2,-5.617093E-2,3.911167E-2,8.5487105E-2,-7.6188E-3,1.0925213E-2,6.4981505E-2],"split_indices":[4,6,1,7,13,1,11,13,2,4,5,7,0,0,0,1,1,4,5,0,0,0,5,1,0,2,3,7,0,4,8,0,0,4,5,0,5,0,0,0,0,0,0,0,0,0,0,0,0,0,0,0,0],"split_type":[0,0,0,0,0,0,0,0,0,0,0,0,0,0,0,0,0,0,0,0,0,0,0,0,0,0,0,0,0,0,0,0,0,0,0,0,0,0,0,0,0,0,0,0,0,0,0,0,0,0,0,0,0],"sum_hessian":[8.033986E1,6.486275E1,1.5477117E1,3.66036E1,2.8259144E1,7.8784914E0,7.5986257E0,2.3887005E1,1.2716596E1,4.2580023E0,2.4001143E1,6.637972E0,1.2405194E0,2.2617197E0,5.336906E0,1.2253725E1,1.163328E1,9.797442E0,2.9191535E0,3.2304525E0,1.0275495E0,1.1793172E0,2.2821825E1,3.9054596E0,2.7325125E0,7.2779903E0,4.975734E0,1.04419E1,1.1913793E0,6.178514E0,3.6189287E0,1.8764303E0,1.0427233E0,1.3799169E1,9.022656E0,1.1304497E0,2.7750099E0,5.8568335E0,1.421157E0,3.9138916E0,1.0618428E0,1.6505908E0,8.79131E0,3.8950276E0,2.2834861E0,2.563638E0,1.0552908E0,1.080698E1,2.9921885E0,2.4961293E0,6.526527E0,1.7451352E0,1.0298747E0],"tree_param":{"num_deleted":"0","num_feature":"14","num_nodes":"53","size_leaf_vector":"0"}},{"base_weights":[3.6512725E-2,-8.9006074E-2,5.795422E-1,-2.3245353E-1,1.5275699E-1,3.1517255E-1,9.319357E-1,-3.4345E-1,2.9513812E-1,3.6655223E-1,-1.793288E-1,-1.5009468E-2,5.116581E-1,-1.0828552E-1,-5.0492555E-1,6.1869854E-1,-6.2265635E-1,1.7593673E-1,8.0067575E-1,-7.4226195E-1,1.628113E-2,3.6389697E-1,-3.214733E-1,1.6359713E-2,7.196403E-1,6.019025E-1,-2.5916734E-1,-1.6455878E-1,-6.901462E-1,1.500948E-1,9.317043E-1,-2.7758312E-1,4.3504235E-1,4.6430555E-1,-2.7568308E-1,-5.591432E-1,9.036889E-2,8.6234206E-1,1.1556695E-1,-4.2456838E-1,6.309681E-1,-6.43048E-1,1.2712793E-1,-7.6761234E-1,-1.0787429E-1,4.93949E-1,-2.0753114E-1,3.9939144E-1,-8.9189315E-1,2.0416884E-1,7.2841054E-1,-6.3662834E-2,7.152091E-1,-6.811918E-1,4.3783795E-2],"categories":[],"categories_nodes":[],"categories_segments":[],"categories_sizes":[],"default_left":[1,1,1,1,1,1,0,1,1,1,1,1,1,1,1,1,0,1,0,0,1,0,1,0,1,0,1,1,1,1,0,1,1,1,1,0,0,0,0,0,0,0,0,0,0,0,0,0,0,0,0,0,0,0,0],"id":24,"left_children":[1,3,5,7,9,11,-1,13,15,17,19,21,23,25,27,29,-1,31,-1,-1,33,-1,35,-1,37,-1,39,41,43,45,-1,47,49,51,53,-1,-1,-1,-1,-1,-1,-1,-1,-1,-1,-1,-1,-1,-1,-1,-1,-1,-1,-1,-1],"loss_changes":[5.458722E0,2.3002183E0,1.1062398E0,2.5246835E0,1.8351016E0,6.627265E-1,0E0,1.261126E0,2.6809082E0,1.1408827E0,1.1608012E0,6.672099E-1,6.432389E-1,1.8039869E0,1.1643801E0,7.7206016E-1,0E0,1.5361571E0,0E0,0E0,1.2686824E0,0E0,3.589141E-1,0E0,2.843597E-1,0E0,2.2383642E0,1.262052E0,4.9520302E-1,5.5526155E-1,0E0,2.4313915E0,3.96855E-1,5.5066043E-1,7.950769E-1,0E0,0E0,0E0,0E0,0E0,0E0,0E0,0E0,0E0,0E0,0E0,0E0,0E0,0E0,0E0,0E0,0E0,0E0,0E0,0E0],"parents":[2147483647,0,0,1,1,2,2,3,3,4,4,5,5,7,7,8,8,9,9,10,10,11,11,12,12,13,13,14,14,15,15,17,17,20,20,22,22,24,24,26,26,27,27,28,28,29,29,31,31,32,32,33,33,34,34],"right_children":[2,4,6,8,10,12,-1,14,16,18,20,22,24,26,28,30,-1,32,-1,-1,34,-1,36,-1,38,-1,40,42,44,46,-1,48,50,52,54,-1,-1,-1,-1,-1,-1,-1,-1,-1,-1,-1,-1,-1,-1,-1,-1,-1,-1,-1,-1],"split_conditions":[2.5851875E1,1.5E0,1.5E0,1.5E0,2.3654892E1,2.7195509E1,9.3193576E-2,1.5E0,9.95E-1,5E-1,4.8999996E0,6.38795E0,8.7545E-1,6.55E-1,5.1826E0,7.538237E-1,-6.2265635E-2,4.95E0,8.0067575E-2,-7.422619E-2,6.13655E0,3.6389697E-2,6.8752003E0,1.6359714E-3,9.6776044E-1,6.019025E-2,7.45E1,7.367536E-1,7.55E1,6.730771E-1,9.317043E-2,4.41E0,7.26665E0,2.4349277E1,6.40405E0,-5.591432E-2,9.036889E-3,8.6234204E-2,1.1556695E-2,-4.245684E-2,6.3096814E-2,-6.43048E-2,1.2712793E-2,-7.676124E-2,-1.0787429E-2,4.93949E-2,-2.0753114E-2,3.9939146E-2,-8.918931E-2,2.0416884E-2,7.2841056E-2,-6.3662836E-3,7.152092E-2,-6.811918E-2,4.37838E-3],"split_indices":[4,7,7,8,4,4,0,9,0,12,5,5,0,0,5,1,0,5,0,0,5,0,5,0,1,0,3,1,3,1,0,5,5,4,5,0,0,0,0,0,0,0,0,0,0,0,0,0,0,0,0,0,0,0,0],"split_type":[0,0,0,0,0,0,0,0,0,0,0,0,0,0,0,0,0,0,0,0,0,0,0,0,0,0,0,0,0,0,0,0,0,0,0,0,0,0,0,0,0,0,0,0,0,0,0,0,0,0,0,0,0,0,0],"sum_hessian":[7.832962E1,6.430248E1,1.4027134E1,4.0381233E1,2.3921255E1,9.096907E0,4.9302273E0,3.3650707E1,6.7305236E0,1.4489315E1,9.43194E0,3.7383862E0,5.3585205E0,1.4379605E1,1.9271103E1,5.217149E0,1.5133748E0,1.1044951E1,3.4443629E0,1.7116089E0,7.7203307E0,1.5878235E0,2.1505625E0,1.9036769E0,3.4548438E0,1.9958897E0,1.2383716E1,7.456773E0,1.181433E1,2.6817713E0,2.5353775E0,3.9899383E0,7.0550137E0,2.813177E0,4.907154E0,1.1368401E0,1.0137224E0,2.44881E0,1.0060337E0,1.0884277E1,1.499439E0,2.367875E0,5.088898E0,1.0146166E1,1.6681638E0,1.1728742E0,1.5088971E0,2.0645933E0,1.9253448E0,4.89708E0,2.1579335E0,1.1466286E0,1.6665485E0,1.6634328E0,3.2437212E0],"tree_param":{"num_deleted":"0","num_feature":"14","num_nodes":"55","size_leaf_vector":"0"}},{"base_weights":[5.012158E-4,-2.8828636E-1,3.0347374E-1,-5.196253E-1,8.140816E-2,9.647498E-1,2.2891913E-1,-8.0904585E-1,-1.815074E-1,-7.090906E-2,7.0006484E-1,9.5745623E-1,1.6700748E-1,-9.3518454E-1,1.657668E-2,-3.175835E-1,6.889521E-1,5.956736E-1,-2.1880808E-1,-1.7273705E-2,4.109977E-1,-9.856385E-1,-2.046749E-1,-8.993721E-1,-5.7956524E-2,-3.8452432E-1,3.343211E-1,-2.193813E-1,3.9836037E-1,1.6729218E-1,8.1834996E-1,-1.050515E0,-3.8316947E-1,1.549992E-1,-7.418873E-1,1.1661646E-1,-6.3846254E-1,-1.717422E-1,6.2085116E-1,-4.0475164E-2,-6.7772096E-1,-2.4531999E-1,8.992073E-1,4.1398755E-1,-7.6053363E-1],"categories":[],"categories_nodes":[],"categories_segments":[],"categories_sizes":[],"default_left":[1,1,1,1,1,0,1,1,1,1,0,0,1,1,0,1,0,0,1,1,1,1,0,0,1,1,1,1,1,1,0,0,0,0,0,0,0,0,0,0,0,0,0,0,0],"id":25,"left_children":[1,3,5,7,9,-1,11,13,15,17,-1,-1,19,21,-1,23,-1,-1,25,27,29,31,-1,-1,33,35,37,39,41,43,-1,-1,-1,-1,-1,-1,-1,-1,-1,-1,-1,-1,-1,-1,-1],"loss_changes":[7.016879E0,3.55403E0,1.7086444E0,2.337967E0,1.6203951E0,0E0,1.4856437E0,1.410182E0,1.7586346E0,1.5385361E0,0E0,0E0,1.573442E0,2.2707939E-1,0E0,1.7494226E0,0E0,0E0,1.267133E0,1.8351798E0,1.3551962E0,1.2598038E-2,0E0,0E0,1.4717917E0,1.3499672E0,5.994086E-1,1.173368E0,2.5296352E0,2.7550426E0,0E0,0E0,0E0,0E0,0E0,0E0,0E0,0E0,0E0,0E0,0E0,0E0,0E0,0E0,0E0],"parents":[2147483647,0,0,1,1,2,2,3,3,4,4,6,6,7,7,8,8,9,9,12,12,13,13,15,15,18,18,19,19,20,20,21,21,24,24,25,25,26,26,27,27,28,28,29,29],"right_children":[2,4,6,8,10,-1,12,14,16,18,-1,-1,20,22,-1,24,-1,-1,26,28,30,32,-1,-1,34,36,38,40,42,44,-1,-1,-1,-1,-1,-1,-1,-1,-1,-1,-1,-1,-1,-1,-1],"split_conditions":[5E-1,1.5E0,5E-1,5E-1,2.5597977E1,9.647498E-2,9.95E1,8.00555E0,7.75E1,1.555E2,7.000648E-2,9.574562E-2,1.5E0,2.835E2,1.6576679E-3,2.0853025E1,6.889521E-2,5.9567362E-2,7.25E1,7.05E1,2.2044101E2,5E-1,-2.046749E-2,-8.993721E-2,2.2643399E2,5E-1,5.11155E0,6.76755E0,2.02522E2,2.15057E2,8.1834994E-2,-1.0505151E-1,-3.8316946E-2,1.549992E-2,-7.418873E-2,1.1661646E-2,-6.384625E-2,-1.717422E-2,6.208512E-2,-4.0475163E-3,-6.77721E-2,-2.4532E-2,8.992073E-2,4.1398756E-2,-7.6053366E-2],"split_indices":[6,7,7,8,4,0,2,5,3,2,0,0,7,2,0,4,0,0,3,3,2,12,0,0,2,9,5,5,2,2,0,0,0,0,0,0,0,0,0,0,0,0,0,0,0],"split_type":[0,0,0,0,0,0,0,0,0,0,0,0,0,0,0,0,0,0,0,0,0,0,0,0,0,0,0,0,0,0,0,0,0,0,0,0,0,0,0,0,0,0,0,0,0],"sum_hessian":[7.8197845E1,4.006097E1,3.8136875E1,2.4391973E1,1.5668999E1,2.654258E0,3.5482616E1,1.2391965E1,1.2000008E1,1.3283819E1,2.3851788E0,1.6462078E0,3.383641E1,1.063452E1,1.7574456E0,1.0926982E1,1.0730257E0,1.8623984E0,1.1421421E1,1.9806293E1,1.4030115E1,9.620794E0,1.0137248E0,2.611307E0,8.315675E0,9.022978E0,2.3984435E0,1.3643929E1,6.162365E0,9.660961E0,4.3691545E0,8.014116E0,1.6066787E0,6.9309525E0,1.3847226E0,3.216353E0,5.806625E0,1.0118856E0,1.3865577E0,1.0596176E1,3.0477529E0,2.9199202E0,3.2424448E0,8.069268E0,1.5916922E0],"tree_param":{"num_deleted":"0","num_feature":"14","num_nodes":"45","size_leaf_vector":"0"}},{"base_weights":[5.9291225E-2,-2.0169073E-1,3.171613E-1,-6.079955E-1,-4.535025E-2,2.3763864E-1,9.560959E-1,1.246942E-1,-7.83238E-1,6.5481895E-1,-2.3708922E-1,3.1182635E-1,-4.11421E-1,5.3980287E-2,-1.0687612E0,2.5794256E-1,1.2803177E0,-3.321491E-1,6.8431926E-1,1.4214744E-1,5.866167E-1,5.0171874E-2,-6.606004E-1,6.894274E-1,-6.168012E-1,7.98458E-1,-2.690674E-1,-4.100073E-1,2.9732066E-1,-4.8029852E-1,2.7995893E-1,7.502579E-1,-5.960724E-2,-6.476747E-1,2.1429104E-1,-7.114135E-1,-2.025211E-2,-9.188167E-1,-5.433961E-2,9.905774E-1,1.5133746E-1,1.6067648E-1,8.0323553E-1,-4.0249428E-1,3.046076E-1],"categories":[],"categories_nodes":[],"categories_segments":[],"categories_sizes":[],"default_left":[1,1,1,1,1,1,0,0,1,1,1,1,1,1,0,1,0,1,0,1,1,0,0,0,0,0,1,1,0,1,1,1,1,0,0,0,0,0,0,0,0,0,0,0,0],"id":26,"left_children":[1,3,5,7,9,11,-1,-1,13,15,17,19,21,23,-1,25,-1,27,-1,29,31,-1,-1,-1,-1,-1,33,35,-1,37,39,41,43,-1,-1,-1,-1,-1,-1,-1,-1,-1,-1,-1,-1],"loss_changes":[5.222558E0,2.4311728E0,1.7515419E0,1.4682927E0,4.0528226E0,1.8600612E0,0E0,0E0,2.1497617E0,1.2851024E0,2.2878432E0,1.4480128E0,5.0705034E-1,1.7796688E0,0E0,1.7056041E0,0E0,1.2000294E0,0E0,1.9895083E0,1.3368311E0,0E0,0E0,0E0,0E0,0E0,7.605888E-1,2.3347623E0,0E0,7.510855E-1,1.5261282E0,1.777687E-1,5.4662347E-1,0E0,0E0,0E0,0E0,0E0,0E0,0E0,0E0,0E0,0E0,0E0,0E0],"parents":[2147483647,0,0,1,1,2,2,3,3,4,4,5,5,8,8,9,9,10,10,11,11,12,12,13,13,15,15,17,17,19,19,20,20,26,26,27,27,29,29,30,30,31,31,32,32],"right_children":[2,4,6,8,10,12,-1,-1,14,16,18,20,22,24,-1,26,-1,28,-1,30,32,-1,-1,-1,-1,-1,34,36,-1,38,40,42,44,-1,-1,-1,-1,-1,-1,-1,-1,-1,-1,-1,-1],"split_conditions":[5E-1,2.0769234E1,1.1032E0,6.5101826E-1,2.2078985E1,1.02115E0,9.560959E-2,1.246942E-2,8.229E-1,8.486258E-1,2.7632542E1,1.5E0,7.25E1,5.01E0,-1.0687613E-1,7.030545E-1,1.2803178E-1,8.35E0,6.843193E-2,6.233033E-1,8.6651605E-1,5.0171874E-3,-6.6060044E-2,6.894274E-2,-6.168012E-2,7.98458E-2,2.1380238E1,5E-1,2.9732067E-2,1.96E2,2.0211866E1,1.9768747E1,1.775E2,-6.476747E-2,2.1429105E-2,-7.1141355E-2,-2.025211E-3,-9.188167E-2,-5.4339613E-3,9.905774E-2,1.5133746E-2,1.6067648E-2,8.0323555E-2,-4.024943E-2,3.046076E-2],"split_indices":[6,4,0,1,4,0,0,0,0,1,4,7,3,5,0,1,0,5,0,1,1,0,0,0,0,0,4,8,0,2,4,4,2,0,0,0,0,0,0,0,0,0,0,0,0],"split_type":[0,0,0,0,0,0,0,0,0,0,0,0,0,0,0,0,0,0,0,0,0,0,0,0,0,0,0,0,0,0,0,0,0,0,0,0,0,0,0,0,0,0,0,0,0],"sum_hessian":[7.5651306E1,3.770706E1,3.794424E1,9.6748085E0,2.8032253E1,3.496445E1,2.9797919E0,1.9230356E0,7.7517734E0,5.507064E0,2.252519E1,3.184422E1,3.1202316E0,2.177575E0,5.5741982E0,4.2333803E0,1.2736835E0,2.0998352E1,1.526838E0,2.0625547E1,1.1218672E1,1.373865E0,1.7463666E0,1.1039655E0,1.0736097E0,1.8356336E0,2.3977466E0,1.8997255E1,2.0010965E0,3.288295E0,1.7337252E1,8.823371E0,2.395301E0,1.1539378E0,1.2438087E0,1.0247419E1,8.749836E0,1.0501387E0,2.2381563E0,1.6300311E0,1.5707221E1,1.0599732E0,7.7633977E0,1.1796387E0,1.2156622E0],"tree_param":{"num_deleted":"0","num_feature":"14","num_nodes":"45","size_leaf_vector":"0"}},{"base_weights":[1.0931625E-2,-1.6235611E-1,2.8163454E-1,-6.1618435E-1,-3.6162965E-2,1.3324091E-1,7.9681045E-1,3.3210322E-1,-8.001122E-1,3.3728698E-1,-2.648474E-1,9.426342E-3,9.1463196E-1,1.6638814E-1,9.077815E-1,6.535343E-1,-9.084594E-2,-4.4737494E-1,2.614584E-1,7.0711523E-1,-1.02918714E-1,1.7114786E-2,8.866935E-1,3.3277807E-1,-5.2530736E-1,-7.852202E-1,-2.3947695E-2,-3.1051666E-1,5.4960746E-1,1.327075E-1,-4.1280144E-1,5.2136505E-1,-4.8289928E-1,1.2726355E0,2.1750043E-1,-3.084558E-1,6.573775E-1,-7.922945E-1,6.51266E-2,-3.269468E-1,-9.3284124E-1,5.444111E-1,-2.4600136E-1,7.2475487E-1,4.673647E-2,-1.7607264E-1,8.8144857E-1,4.2961087E-2,-6.2855434E-1],"categories":[],"categories_nodes":[],"categories_segments":[],"categories_sizes":[],"default_left":[1,1,1,1,1,1,1,0,0,1,1,1,0,0,0,1,1,1,1,0,1,1,1,1,1,1,1,0,1,1,1,0,0,0,0,0,0,0,0,0,0,0,0,0,0,0,0,0,0],"id":27,"left_children":[1,3,5,7,9,11,13,-1,-1,15,17,19,-1,-1,-1,21,23,25,27,-1,29,31,33,35,37,39,41,-1,43,45,47,-1,-1,-1,-1,-1,-1,-1,-1,-1,-1,-1,-1,-1,-1,-1,-1,-1,-1],"loss_changes":[3.4871361E0,2.5757089E0,2.1107616E0,1.9762771E0,3.2113433E0,2.2857153E0,2.8859043E-1,0E0,0E0,1.998737E0,2.3488488E0,1.7565264E0,0E0,0E0,0E0,1.2253921E0,1.4563975E0,2.5016751E0,1.2606966E0,0E0,1.4694785E0,1.074054E0,1.2983928E0,1.064034E0,6.5464485E-1,3.5585928E-1,1.2509376E0,0E0,3.8529086E-1,2.8747478E0,8.738482E-1,0E0,0E0,0E0,0E0,0E0,0E0,0E0,0E0,0E0,0E0,0E0,0E0,0E0,0E0,0E0,0E0,0E0,0E0],"parents":[2147483647,0,0,1,1,2,2,3,3,4,4,5,5,6,6,9,9,10,10,11,11,15,15,16,16,17,17,18,18,20,20,21,21,22,22,23,23,24,24,25,25,26,26,28,28,29,29,30,30],"right_children":[2,4,6,8,10,12,14,-1,-1,16,18,20,-1,-1,-1,22,24,26,28,-1,30,32,34,36,38,40,42,-1,44,46,48,-1,-1,-1,-1,-1,-1,-1,-1,-1,-1,-1,-1,-1,-1,-1,-1,-1,-1],"split_conditions":[1.5E0,6.25E1,2.5667494E1,5E-1,5E-1,7.9E0,6.15E1,3.3210322E-2,-8.001122E-2,7.661936E-1,9.2081475E-1,5E-1,9.14632E-2,1.6638814E-2,9.077815E-2,6.45E1,5.585E0,2.4357227E1,5E-1,7.071152E-2,2.3668705E1,5.4602003E0,6.85E1,2.0880009E1,9.594403E-1,5E-1,5.89505E0,-3.1051666E-2,5E-1,2.246708E1,7.4894816E-1,5.2136507E-2,-4.828993E-2,1.2726355E-1,2.1750044E-2,-3.084558E-2,6.573775E-2,-7.922945E-2,6.51266E-3,-3.269468E-2,-9.328412E-2,5.4441113E-2,-2.4600137E-2,7.2475486E-2,4.673647E-3,-1.7607264E-2,8.814486E-2,4.2961086E-3,-6.285544E-2],"split_indices":[7,3,4,7,13,5,3,0,0,1,1,13,0,0,0,3,5,4,6,0,4,5,3,4,1,9,5,0,10,4,1,0,0,0,0,0,0,0,0,0,0,0,0,0,0,0,0,0,0],"split_type":[0,0,0,0,0,0,0,0,0,0,0,0,0,0,0,0,0,0,0,0,0,0,0,0,0,0,0,0,0,0,0,0,0,0,0,0,0,0,0,0,0,0,0,0,0,0,0,0,0],"sum_hessian":[7.236279E1,4.436392E1,2.799887E1,8.807315E0,3.5556602E1,2.2714666E1,5.284205E0,1.299872E0,7.507443E0,1.3323669E1,2.2232935E1,2.0481375E1,2.2332928E0,1.1650399E0,4.119165E0,7.360351E0,5.9633183E0,1.6619215E1,5.613721E0,2.106345E0,1.8375029E1,2.2613332E0,5.0990176E0,3.137817E0,2.8255012E0,8.768523E0,7.8506913E0,1.8546404E0,3.7590804E0,1.07629385E1,7.6120906E0,1.104637E0,1.1566963E0,2.6620142E0,2.4370034E0,1.0712792E0,2.0665379E0,1.710258E0,1.1152433E0,2.919628E0,5.848895E0,1.797691E0,6.0530005E0,2.460772E0,1.2983084E0,8.161843E0,2.6010952E0,