{"learner":{"attributes":{"best_iteration":"199","best_ntree_limit":"200","scikit_learn":"{\"use_label_encoder\": null, \"n_estimators\": 200, \"objective\": \"binary:logistic\", \"max_depth\": 5, \"max_leaves\": null, \"max_bin\": null, \"grow_policy\": null, \"learning_rate\": 0.1, \"verbosity\": null, \"booster\": null, \"tree_method\": null, \"gamma\": 1, \"min_child_weight\": null, \"max_delta_step\": null, \"subsample\": 0.8, \"sampling_method\": null, \"colsample_bytree\": 0.8, \"colsample_bylevel\": null, \"colsample_bynode\": null, \"reg_alpha\": 0.1, \"reg_lambda\": 1, \"scale_pos_weight\": 1.0471698113207548, \"base_score\": null, \"missing\": NaN, \"num_parallel_tree\": null, \"random_state\": 42, \"n_jobs\": null, \"monotone_constraints\": null, \"interaction_constraints\": null, \"importance_type\": null, \"gpu_id\": null, \"validate_parameters\": null, \"predictor\": null, \"enable_categorical\": false, \"feature_types\": null, \"max_cat_to_onehot\": null, \"max_cat_threshold\": null, \"eval_metric\": null, \"early_stopping_rounds\": null, \"callbacks\": null, \"classes_\": [0, 1], \"n_classes_\": 2, \"_estimator_type\": \"classifier\"}"},"feature_names":["FTSST","Complications","fall","ADL","gender","bmi2015","age","bl_wbc","bl_cysc","bl_crea","PA","bl_plt","smoke","Walking speed"],"feature_types":["int","int","int","int","int","float","int","float","float","float","int","float","int","int"],"gradient_booster":{"model":{"gbtree_model_param":{"num_parallel_tree":"1","num_trees":"200","size_leaf_vector":"0"},"tree_info":[0,0,0,0,0,0,0,0,0,0,0,0,0,0,0,0,0,0,0,0,0,0,0,0,0,0,0,0,0,0,0,0,0,0,0,0,0,0,0,0,0,0,0,0,0,0,0,0,0,0,0,0,0,0,0,0,0,0,0,0,0,0,0,0,0,0,0,0,0,0,0,0,0,0,0,0,0,0,0,0,0,0,0,0,0,0,0,0,0,0,0,0,0,0,0,0,0,0,0,0,0,0,0,0,0,0,0,0,0,0,0,0,0,0,0,0,0,0,0,0,0,0,0,0,0,0,0,0,0,0,0,0,0,0,0,0,0,0,0,0,0,0,0,0,0,0,0,0,0,0,0,0,0,0,0,0,0,0,0,0,0,0,0,0,0,0,0,0,0,0,0,0,0,0,0,0,0,0,0,0,0,0,0,0,0,0,0,0,0,0,0,0,0,0,0,0,0,0,0,0],"trees":[{"base_weights":[6.366608E-3,-5.591467E-1,9.556848E-1,-9.490833E-1,9.279322E-1,6.9076985E-1,1.2417486E0,1.8529202E-1,-1.1301665E0,-4.877551E-1,1.1210821E0,-7.277987E-2,9.5675796E-1,6.224206E-1,1.5656029E0,6.861515E-1,-4.7454634E-1,-1.21252E0,-1.2715009E-1,1.2615095E0,-4.3563893E-1,-8.885E-1,4.943446E-1,1.0669422E0,-1.18204914E-1,9.305987E-1,-9.5E-1,5.764319E-1,1.7294917E0,-3.3794394E-1,1.1166667E0,-1.035141E0,3.9037037E-1,-1.4956167E0,-7.7285844E-1,6.5051335E-1,-5.3655326E-1,6.861515E-1,1.4830505E0,-0E0,-1.2363636E0,1.0905005E0,1.0196982E-2,2.9167768E-1,1.1621023E0,1.4587234E0,3.835777E-1,-0E0,9.741936E-1],"categories":[],"categories_nodes":[],"categories_segments":[],"categories_sizes":[],"default_left":[1,1,1,1,1,1,1,1,1,0,1,1,1,1,1,1,1,1,1,1,0,1,1,1,0,1,0,1,0,0,0,0,0,0,0,0,0,1,1,0,0,0,0,1,1,0,0,1,1],"id":0,"left_children":[1,3,5,7,9,11,13,15,17,-1,19,21,23,25,27,29,31,33,35,-1,-1,39,41,-1,-1,45,-1,-1,-1,-1,-1,-1,-1,-1,-1,-1,-1,-1,-1,-1,-1,-1,-1,-1,-1,-1,-1,-1,-1],"loss_changes":[7.169172E1,4.9349518E1,2.7297096E0,1.4018826E1,5.48176E0,5.9131927E0,3.3300133E0,3.64306E0,4.485626E0,0E0,4.1391296E0,4.250479E0,2.7301044E0,5.490262E0,1.048954E0,3.173363E0,2.8002758E0,5.2386475E0,2.118753E0,6.813698E-1,0E0,1.224647E0,1.4315443E0,9.4677925E-1,0E0,1.7145724E0,0E0,7.524867E-1,0E0,0E0,0E0,0E0,0E0,0E0,0E0,0E0,0E0,0E0,0E0,0E0,0E0,0E0,0E0,0E0,0E0,0E0,0E0,0E0,0E0],"parents":[2147483647,0,0,1,1,2,2,3,3,4,4,5,5,6,6,7,7,8,8,10,10,11,11,12,12,13,13,14,14,15,15,16,16,17,17,18,18,19,19,21,21,22,22,23,23,25,25,27,27],"right_children":[2,4,6,8,10,12,14,16,18,-1,20,22,24,26,28,30,32,34,36,-1,-1,40,42,-1,-1,46,-1,-1,-1,-1,-1,-1,-1,-1,-1,-1,-1,-1,-1,-1,-1,-1,-1,-1,-1,-1,-1,-1,-1],"split_conditions":[1.5E0,1.5E0,5E-1,5E-1,5.6674224E-1,5E-1,5.4847E0,7.6639163E-1,8.55E0,-4.877551E-2,2.915E2,8.1E-1,2.88E2,7.15E1,6.15E1,6.11565E0,6.95E1,5E-1,8.7E-1,1.2615095E-1,-4.3563895E-2,4.67E0,8.7505E-1,1.0669422E-1,-1.1820491E-2,6.8384063E-1,-9.5E-2,5.7643186E-2,1.7294918E-1,-3.3794396E-2,1.1166667E-1,-1.035141E-1,3.9037038E-2,-1.4956167E-1,-7.728585E-2,6.505134E-2,-5.3655326E-2,6.861515E-2,1.4830504E-1,-0E0,-1.23636365E-1,1.0905005E-1,1.0196982E-3,2.916777E-2,1.1621024E-1,1.4587234E-1,3.8357772E-2,-0E0,9.741936E-2],"split_indices":[1,2,2,1,9,10,7,9,7,0,11,8,11,6,6,7,6,2,8,11,0,7,8,8,0,9,0,8,0,0,0,0,0,0,0,0,0,2147483647,2147483647,0,0,0,0,2147483647,2147483647,0,0,2147483647,2147483647],"split_type":[0,0,0,0,0,0,0,0,0,0,0,0,0,0,0,0,0,0,0,0,0,0,0,0,0,0,0,0,0,0,0,0,0,0,0,0,0,0,0,0,0,0,0,0,0,0,0,0,0],"sum_hessian":[1.314717E2,8.258255E1,4.8889153E1,6.576651E1,1.6816038E1,2.7337263E1,2.1551888E1,8.974056E0,5.6792454E1,1.7735848E0,1.5042453E1,7.1533017E0,2.0183962E1,8.509434E0,1.3042453E1,5.1650944E0,3.8089623E0,5.2198112E1,4.5943394E0,1.4030661E1,1.0117924E0,2.7735848E0,4.379717E0,1.8398584E1,1.7853774E0,7.5094337E0,1E0,2.5825472E0,1.0459906E1,1.5235848E0,3.6415095E0,2.2617924E0,1.5471698E0,3.0153301E1,2.2044811E1,1.2971698E0,3.2971697E0,5.1650944E0,8.865566E0,1.0235848E0,1.75E0,1.3089622E0,3.0707548E0,2.5707548E0,1.582783E1,2.8797169E0,4.629717E0,1.5353774E0,1.0471698E0],"tree_param":{"num_deleted":"6","num_feature":"14","num_nodes":"49","size_leaf_vector":"0"}},{"base_weights":[-2.4225304E-2,-8.573693E-1,9.946937E-1,-1.1759107E0,1.4227308E0,5.6620824E-1,1.5200979E0,-1.4510062E0,-3.0318502E-1,1.954093E-1,1.2658598E0,-1.0793924E0,-1.699959E0,-5.024685E-1,8.280538E-1,1.4493865E0,-2.0635724E-1,-1.2107796E-1,1.6298349E0,-8.781293E-3,-1.2271167E0,-7.104548E-1,4.1298562E-1,1.0344785E0,-4.517813E-1,-4.2875203E-1,1.5930949E-1],"categories":[],"categories_nodes":[],"categories_segments":[],"categories_sizes":[],"default_left":[1,1,1,1,0,1,0,1,1,1,1,1,0,1,0,0,1,1,0,0,0,0,0,0,0,1,1],"id":1,"left_children":[1,3,5,7,-1,9,-1,11,13,15,17,19,-1,21,-1,-1,23,-1,-1,-1,-1,-1,-1,-1,-1,-1,-1],"loss_changes":[1.1201089E2,5.440615E1,1.2285339E1,1.4826912E1,0E0,8.5236845E0,0E0,2.3790512E0,4.1633716E0,1.2384644E1,6.2193546E0,3.4049606E0,0E0,3.1702347E0,0E0,0E0,6.132991E0,3.7919328E-1,0E0,0E0,0E0,0E0,0E0,0E0,0E0,0E0,0E0],"parents":[2147483647,0,0,1,1,2,2,3,3,5,5,7,7,8,8,9,9,10,10,11,11,13,13,16,16,17,17],"right_children":[2,4,6,8,-1,10,-1,12,14,16,18,20,-1,22,-1,-1,24,-1,-1,-1,-1,-1,-1,-1,-1,-1,-1],"split_conditions":[5E-1,2.6104738E1,1.5E0,1.5E0,1.4227308E-1,2.6362907E1,1.5200979E-1,5E-1,5E-1,5E-1,8.45E-1,1.4154001E2,-1.699959E-1,7.35E1,8.280538E-2,1.4493865E-1,5E-1,-1.2107796E-2,1.6298349E-1,-8.781293E-4,-1.2271167E-1,-7.104548E-2,4.1298565E-2,1.03447855E-1,-4.517813E-2,-4.2875204E-2,1.5930949E-2],"split_indices":[0,5,1,1,0,5,0,13,3,13,8,11,0,6,0,0,1,8,0,0,0,0,0,0,0,2147483647,2147483647],"split_type":[0,0,0,0,0,0,0,0,0,0,0,0,0,0,0,0,0,0,0,0,0,0,0,0,0,0,0],"sum_hessian":[1.2995888E2,7.163855E1,5.832032E1,6.332049E1,8.31806E0,3.3372154E1,2.4948166E1,4.75537E1,1.5766793E1,2.2741772E1,1.0630383E1,2.1378813E1,2.6174887E1,1.3953001E1,1.8137923E0,4.9459724E0,1.77958E1,2.2914283E0,8.338954E0,2.8027382E0,1.8576075E1,1.1641321E1,2.3116791E0,2.3404136E0,1.5455385E1,1.0103078E0,1.2811204E0],"tree_param":{"num_deleted":"2","num_feature":"14","num_nodes":"27","size_leaf_vector":"0"}},{"base_weights":[-3.1084917E-2,-7.2088784E-1,7.990144E-1,-1.002261E0,1.1482857E0,5.081502E-1,1.3954207E0,-1.3015909E0,-1.4211068E-1,4.7906032E-1,1.4736117E0,1.3290623E-1,9.5536E-1,3.608E-1,1.508083E0,-1.3769814E0,-7.4005735E-1,2.114317E-1,-8.3820707E-1,9.28452E-1,-1.5359452E-1,-2.5269857E-1,5.964984E-1,1.2522349E0,4.8169374E-1,-4.5307508E-1,9.599061E-1,-3.4185875E-2,-1.4165119E0,-1.1179373E0,-1.7836344E-1,-1.8264854E-1,1.1689762E0,-1.5488911E0,7.7071804E-1,9.851775E-1,-4.6570572E-1,1.0832887E0,-9.854367E-2,5.141896E-1,1.5238043E0,-3.4923935E-1,1.0830659E0],"categories":[],"categories_nodes":[],"categories_segments":[],"categories_sizes":[],"default_left":[1,1,1,1,1,1,1,1,1,1,0,1,1,1,0,1,1,1,1,0,0,1,1,1,1,0,0,0,0,0,0,0,0,0,0,0,0,0,0,0,0,0,0],"id":2,"left_children":[1,3,5,7,9,11,13,15,17,19,-1,21,23,25,-1,27,29,31,33,-1,-1,35,37,39,41,-1,-1,-1,-1,-1,-1,-1,-1,-1,-1,-1,-1,-1,-1,-1,-1,-1,-1],"loss_changes":[7.6746254E1,3.966129E1,9.645527E0,1.6212257E1,1.2767086E0,6.9038734E0,1.5118713E0,7.7809143E-1,4.619176E0,1.600261E0,0E0,4.550035E0,1.9132061E0,2.0903618E0,0E0,1.9571915E0,1.3553424E0,5.030654E0,8.464226E0,0E0,0E0,4.0757885E0,4.097074E0,1.2181187E0,5.0112114E0,0E0,0E0,0E0,0E0,0E0,0E0,0E0,0E0,0E0,0E0,0E0,0E0,0E0,0E0,0E0,0E0,0E0,0E0],"parents":[2147483647,0,0,1,1,2,2,3,3,4,4,5,5,6,6,7,7,8,8,9,9,11,11,12,12,13,13,15,15,16,16,17,17,18,18,21,21,22,22,23,23,24,24],"right_children":[2,4,6,8,10,12,14,16,18,20,-1,22,24,26,-1,28,30,32,34,-1,-1,36,38,40,42,-1,-1,-1,-1,-1,-1,-1,-1,-1,-1,-1,-1,-1,-1,-1,-1,-1,-1],"split_conditions":[5E-1,2.6123386E1,2.6362907E1,1.5E0,1.5E0,1.5E0,5.384617E-1,7.35E1,2.175E2,6.70195E0,1.4736117E-1,2.3198036E1,2.342669E1,5E-1,1.508083E-1,5.88801E-1,2.1547718E1,2.03E2,7.45665E0,9.28452E-2,-1.5359453E-2,5E-1,6.3885E0,5E-1,2.4834162E1,-4.530751E-2,9.599061E-2,-3.4185876E-3,-1.416512E-1,-1.11793734E-1,-1.7836345E-2,-1.8264854E-2,1.1689762E-1,-1.548891E-1,7.707181E-2,9.851775E-2,-4.6570573E-2,1.0832887E-1,-9.854367E-3,5.141896E-2,1.5238044E-1,-3.4923937E-2,1.0830659E-1],"split_indices":[0,5,5,1,1,1,9,6,11,7,0,5,5,10,0,9,5,11,7,0,0,1,7,10,5,0,0,0,0,0,0,0,0,0,0,0,0,0,0,0,0,0,0],"split_type":[0,0,0,0,0,0,0,0,0,0,0,0,0,0,0,0,0,0,0,0,0,0,0,0,0,0,0,0,0,0,0,0,0,0,0,0,0,0,0,0,0,0,0],"sum_hessian":[1.3203775E2,7.225047E1,5.9787277E1,6.324698E1,9.003493E0,4.1545467E1,1.824181E1,4.645225E1,1.6794727E1,3.8544579E0,5.1490355E0,2.341731E1,1.8128157E1,2.291176E0,1.5950634E1,3.951657E1,6.9356833E0,1.1504353E1,5.290375E0,2.0726874E0,1.7817703E0,1.2914525E1,1.0502785E1,1.0003523E1,8.124634E0,1.0040392E0,1.2871368E0,1.255728E0,3.826084E1,3.4478264E0,3.4878569E0,8.649461E0,2.8548915E0,3.738497E0,1.5518782E0,1.2948775E0,1.1619648E1,5.9328475E0,4.569937E0,3.5681026E0,6.43542E0,3.5174494E0,4.6071844E0],"tree_param":{"num_deleted":"0","num_feature":"14","num_nodes":"43","size_leaf_vector":"0"}},{"base_weights":[2.771293E-2,-3.2625222E-1,1.2268203E0,-6.9883645E-1,4.0986425E-1,7.8599906E-1,1.5079715E0,6.536773E-2,-8.0032647E-1,8.808495E-1,6.524255E-2,-6.0123223E-1,9.7937584E-1,-2.4802889E-1,6.912325E-1,-3.5585186E-1,-1.0286238E0,1.1790826E0,2.5412157E-1,-1.547765E-1,8.1720406E-1,3.6392164E-1,1.1435926E0,5.616225E-1,-5.194186E-1,-0E0,9.8602414E-1,-6.3413656E-1,5.148179E-1,-1.2580477E0,-6.4462274E-1,-1.5723463E-2,1.336155E0,-2.0769666E-1,1.0170048E0,-4.066978E-1,5.5590457E-1,-0E0,1.042406E0,-4.9326333E-1,1.0411172E0,1.794734E-1,1.3698092E0],"categories":[],"categories_nodes":[],"categories_segments":[],"categories_sizes":[],"default_left":[1,1,1,1,1,1,0,1,1,1,1,0,1,1,1,1,1,1,1,1,1,1,1,0,0,1,1,0,0,0,0,0,0,0,0,0,0,0,0,0,0,0,0],"id":3,"left_children":[1,3,5,7,9,11,-1,13,15,17,19,-1,21,23,-1,27,29,31,33,35,37,39,41,-1,-1,-1,-1,-1,-1,-1,-1,-1,-1,-1,-1,-1,-1,-1,-1,-1,-1,-1,-1],"loss_changes":[5.5787144E1,2.810224E1,2.2993965E0,5.378639E0,5.4618263E0,4.3546457E0,0E0,1.9318197E0,5.581608E0,2.2507458E0,3.6961277E0,0E0,7.10618E-1,1.7067876E0,6.492746E-1,5.676221E0,2.4300003E0,1.9137993E0,2.4164574E0,3.276269E0,1.0164497E0,3.0396748E0,1.6456757E0,0E0,0E0,0E0,0E0,0E0,0E0,0E0,0E0,0E0,0E0,0E0,0E0,0E0,0E0,0E0,0E0,0E0,0E0,0E0,0E0],"parents":[2147483647,0,0,1,1,2,2,3,3,4,4,5,5,7,7,8,8,9,9,10,10,12,12,13,13,14,14,15,15,16,16,17,17,18,18,19,19,20,20,21,21,22,22],"right_children":[2,4,6,8,10,12,-1,14,16,18,20,-1,22,24,-1,28,30,32,34,36,38,40,42,-1,-1,-1,-1,-1,-1,-1,-1,-1,-1,-1,-1,-1,-1,-1,-1,-1,-1,-1,-1],"split_conditions":[2.6085915E1,1.5E0,1.5E0,5E-1,7.4194026E-1,5.571269E-1,1.5079716E-1,5E-1,5E-1,6.1042E0,1.0226247E0,-6.0123224E-2,6.25E1,1.61E2,6.912325E-2,7.15E1,2.314283E1,4.15E0,6.8E1,5E-1,1.22E2,6.08895E0,5E-1,5.616225E-2,-5.194186E-2,-0E0,9.8602414E-2,-6.341366E-2,5.148179E-2,-1.2580477E-1,-6.4462274E-2,-1.5723463E-3,1.3361551E-1,-2.0769667E-2,1.01700485E-1,-4.066978E-2,5.559046E-2,-0E0,1.042406E-1,-4.9326334E-2,1.0411172E-1,1.794734E-2,1.3698092E-1],"split_indices":[5,1,1,1,9,9,0,3,13,7,9,0,6,11,9,6,5,7,6,3,11,7,10,0,0,2147483647,2147483647,0,0,0,0,0,0,0,0,0,0,0,0,0,0,0,0],"split_type":[0,0,0,0,0,0,0,0,0,0,0,0,0,0,0,0,0,0,0,0,0,0,0,0,0,0,0,0,0,0,0,0,0,0,0,0,0,0,0,0,0,0,0],"sum_hessian":[1.2928117E2,1.00313965E2,2.8967209E1,6.672679E1,3.3587173E1,1.2897051E1,1.6070158E1,7.748953E0,5.897784E1,1.3411657E1,2.0175514E1,1.2565637E0,1.1640488E1,5.4592175E0,2.289735E0,2.1030357E1,3.7947483E1,8.382089E0,5.0295696E0,1.6120071E1,4.055444E0,3.2574017E0,8.383085E0,1.0095295E0,4.4496884E0,1.0052071E0,1.284528E0,1.6229565E1,4.8007936E0,2.2167057E1,1.5780425E1,1.0044864E0,7.377602E0,3.504659E0,1.5249106E0,1.2320988E1,3.7990828E0,1.0129738E0,3.04247E0,1.4923483E0,1.7650535E0,2.0179877E0,6.365098E0],"tree_param":{"num_deleted":"2","num_feature":"14","num_nodes":"43","size_leaf_vector":"0"}},{"base_weights":[-6.373694E-2,-4.104944E-1,1.1132727E0,-7.7663714E-1,3.3954832E-1,2.5963697E-1,1.2105192E0,-1.0191517E0,6.31211E-1,4.9353445E-1,-4.134318E-1,-6.950224E-1,1.0154366E0,8.771226E-1,1.386252E0,-4.0445352E-1,-1.1091787E0,-5.2096047E-2,1.2149407E0,1.8582408E-1,9.593794E-1,-1.0335484E0,7.051247E-1,4.5070484E-1,1.2240491E0,1.9353938E-1,-6.883831E-1,-3.096585E-1,-1.2109158E0,7.129416E-1,-5.1745707E-1,8.137154E-1,-1.6857116E-1,1.8755542E-1,1.0489088E0,-1.2647014E0,-1.9457892E-1,1.0370339E0,-4.417938E-1],"categories":[],"categories_nodes":[],"categories_segments":[],"categories_sizes":[],"default_left":[1,1,1,1,1,1,1,1,1,1,1,0,0,1,0,1,1,1,0,1,1,1,0,1,0,0,0,0,0,0,0,0,0,1,1,1,1,0,0],"id":4,"left_children":[1,3,5,7,9,11,13,15,17,19,21,-1,-1,23,-1,25,27,29,-1,31,-1,-1,-1,37,-1,-1,-1,-1,-1,-1,-1,-1,-1,-1,-1,-1,-1,-1,-1],"loss_changes":[5.3954437E1,2.8367743E1,2.0350304E0,2.4258812E1,4.1686344E0,3.9512293E0,1.17263794E-1,2.68441E0,4.4491186E0,3.849331E0,5.0812106E0,0E0,0E0,1.0718632E0,0E0,1.7613376E0,3.6256256E0,2.4183445E0,0E0,4.3786664E0,4.4837475E-1,4.7474718E-1,0E0,4.255739E0,0E0,0E0,0E0,0E0,0E0,0E0,0E0,0E0,0E0,0E0,0E0,0E0,0E0,0E0,0E0],"parents":[2147483647,0,0,1,1,2,2,3,3,4,4,5,5,6,6,7,7,8,8,9,9,10,10,13,13,15,15,16,16,17,17,19,19,20,20,21,21,23,23],"right_children":[2,4,6,8,10,12,14,16,18,20,22,-1,-1,24,-1,26,28,30,-1,32,-1,-1,-1,38,-1,-1,-1,-1,-1,-1,-1,-1,-1,-1,-1,-1,-1,-1,-1],"split_conditions":[2.6073868E1,1.5E0,5.3902733E-1,1.5E0,2.445E2,1.5E0,2.7595676E1,4.3561497E0,7.6702505E-1,2.04489E2,6.74E0,-6.950224E-2,1.01543665E-1,7.8531694E-1,1.386252E-1,1.9460651E1,5E-1,7.75E-1,1.2149407E-1,1.485E2,9.593794E-2,-1.03354834E-1,7.0512466E-2,7.3257935E-1,1.2240491E-1,1.935394E-2,-6.883831E-2,-3.096585E-2,-1.2109158E-1,7.129416E-2,-5.174571E-2,8.137154E-2,-1.6857116E-2,1.8755542E-2,1.0489088E-1,-1.2647013E-1,-1.9457892E-2,1.03703395E-1,-4.417938E-2],"split_indices":[5,1,9,2,11,1,5,7,9,11,7,0,0,9,0,5,1,8,0,11,5,9,0,9,0,0,0,0,0,0,0,0,0,2147483647,2147483647,2147483647,2147483647,0,0],"split_type":[0,0,0,0,0,0,0,0,0,0,0,0,0,0,0,0,0,0,0,0,0,0,0,0,0,0,0,0,0,0,0,0,0,0,0,0,0,0,0],"sum_hessian":[1.302494E2,1.0117774E2,2.907166E1,6.805414E1,3.312361E1,3.4536343E0,2.5618025E1,5.8349953E1,9.704184E0,2.7896149E1,5.227462E0,1.5031246E0,1.9505095E0,1.1106773E1,1.4511251E1,8.297626E0,5.0052326E1,4.811426E0,4.8927574E0,1.7771126E1,1.0125024E1,3.4694386E0,1.7580233E0,6.1432734E0,4.9635E0,2.6604733E0,5.6371517E0,6.2175117E0,4.3834812E1,1.537282E0,3.2741444E0,6.0457735E0,1.1725352E1,1.4901819E0,8.634842E0,2.2287364E0,1.2407023E0,3.677459E0,2.4658146E0],"tree_param":{"num_deleted":"4","num_feature":"14","num_nodes":"39","size_leaf_vector":"0"}},{"base_weights":[-2.114207E-2,-6.431453E-1,7.412067E-1,-8.832388E-1,1.0688593E0,4.4051108E-1,1.049463E0,-1.0541989E0,-3.6986318E-1,2.6745966E-1,1.278152E0,6.2619853E-1,-8.6068964E-1,5.707909E-1,1.3133677E0,-3.2423414E-2,-1.0963016E0,-6.1374116E-1,4.8949346E-1,-3.0566308E-1,8.184185E-1,-6.8926704E-3,9.647803E-1,-4.9897913E-2,-1.2526022E0,1.056051E0,1.6385103E-2,-5.0105333E-1,-1.1471318E0,-1.6948178E-1,-1.4417882E0,-1.3631815E-1,8.286437E-1,-4.786661E-1,9.6916074E-1,3.1801885E-1,1.302163E0,-4.577327E-1,5.5735373E-1],"categories":[],"categories_nodes":[],"categories_segments":[],"categories_sizes":[],"default_left":[1,1,1,1,1,1,1,1,1,1,0,1,1,1,0,0,1,1,1,0,0,1,1,0,0,0,1,1,1,0,0,0,0,0,0,0,0,0,0],"id":5,"left_children":[1,3,5,7,9,11,13,15,17,19,-1,21,23,25,-1,-1,-1,29,31,-1,-1,33,35,-1,-1,-1,37,-1,-1,-1,-1,-1,-1,-1,-1,-1,-1,-1,-1],"loss_changes":[6.0888695E1,3.0018217E1,4.731863E0,4.968178E0,1.0309772E0,8.022015E0,2.5455418E0,1.8446083E0,3.9475996E0,1.3274621E0,0E0,6.06876E0,1.1525595E0,3.024164E0,0E0,0E0,6.0292053E-1,4.7607327E0,1.0947362E0,0E0,0E0,5.2907615E0,3.4050903E0,0E0,0E0,0E0,1.951377E0,0E0,0E0,0E0,0E0,0E0,0E0,0E0,0E0,0E0,0E0,0E0,0E0],"parents":[2147483647,0,0,1,1,2,2,3,3,4,4,5,5,6,6,7,7,8,8,9,9,11,11,12,12,13,13,16,16,17,17,18,18,21,21,22,22,26,26],"right_children":[2,4,6,8,10,12,14,16,18,20,-1,22,24,26,-1,-1,-1,30,32,-1,-1,34,36,-1,-1,-1,38,-1,-1,-1,-1,-1,-1,-1,-1,-1,-1,-1,-1],"split_conditions":[5E-1,2.6072206E1,2.4804998E1,1.5E0,1.5E0,2.4224873E1,8.787E-1,5.88801E-1,7.26665E0,7.8224003E-1,1.278152E-1,1.77927E2,8.3365E-1,6.0963497E0,1.3133678E-1,-3.2423416E-3,-1.0963016E-1,2.16677E2,2.015E2,-3.0566309E-2,8.184185E-2,5.95E0,5E-1,-4.989791E-3,-1.2526022E-1,1.056051E-1,1.5E0,-5.0105333E-2,-1.14713185E-1,-1.6948178E-2,-1.4417882E-1,-1.3631815E-2,8.286437E-2,-4.786661E-2,9.691607E-2,3.1801887E-2,1.302163E-1,-4.577327E-2,5.5735376E-2],"split_indices":[0,5,5,1,1,5,8,9,7,9,0,11,8,7,0,0,5,11,11,0,0,7,2,0,0,0,1,2147483647,2147483647,0,0,0,0,0,0,0,0,0,0],"split_type":[0,0,0,0,0,0,0,0,0,0,0,0,0,0,0,0,0,0,0,0,0,0,0,0,0,0,0,0,0,0,0,0,0,0,0,0,0,0,0],"sum_hessian":[1.2642283E2,6.977813E1,5.6644703E1,6.167172E1,8.106408E0,3.0067812E1,2.657689E1,4.5328533E1,1.6343185E1,2.249314E0,5.8570943E0,2.683407E1,3.2337422E0,1.0703893E1,1.5872998E1,1.9579116E0,4.337062E1,1.3043681E1,3.2995043E0,1.231739E0,1.017575E0,9.588839E0,1.7245232E1,1.5042391E0,1.7295033E0,5.1292E0,5.5746922E0,4.421174E0,3.8949448E1,9.351765E0,3.691916E0,1.2662259E0,2.0332782E0,6.8769317E0,2.7119074E0,6.6795545E0,1.0565677E1,2.9543982E0,2.620294E0],"tree_param":{"num_deleted":"2","num_feature":"14","num_nodes":"39","size_leaf_vector":"0"}},{"base_weights":[6.0191426E-2,-5.3127056E-1,7.1890974E-1,-7.974609E-1,1.0123111E0,4.3963346E-1,1.017394E0,-1.0062485E0,-1.9126585E-1,4.429468E-1,1.2245684E0,-3.7096906E-2,6.862686E-1,7.321043E-1,1.2656598E0,-6.330317E-1,-1.2603295E0,-4.99539E-1,8.4081995E-1,-7.8499444E-2,9.363921E-1,9.468444E-1,-2.4805151E-1,2.1311587E-1,9.848614E-1,-2.3687257E-1,1.0271537E0,-8.3795464E-1,-2.3926423E-1,-2.1043266E-1,-1.3608016E0,-1.1998374E-1,-1.2817382E0,1.1426245E0,-0E0,9.176723E-1,-4.7196344E-1,1.1650103E0,-1.2289485E-1,5.2121305E-1,1.1595064E0,-1.0747758E0,6.4950603E-1,5.956367E-1,1.2612164E0],"categories":[],"categories_nodes":[],"categories_segments":[],"categories_sizes":[],"default_left":[1,1,1,1,1,1,1,1,1,1,0,1,1,1,0,1,1,1,1,0,0,0,1,1,1,1,1,0,0,0,0,0,0,0,0,0,0,0,0,1,1,0,0,1,1],"id":6,"left_children":[1,3,5,7,9,11,13,15,17,19,-1,21,23,25,-1,27,29,31,33,-1,-1,-1,35,37,-1,41,-1,-1,-1,-1,-1,-1,-1,-1,-1,-1,-1,-1,-1,-1,-1,-1,-1,-1,-1],"loss_changes":[4.9995407E1,2.8547836E1,4.4692783E0,7.059353E0,5.3842545E-1,4.0066185E0,8.8659096E-1,3.0870361E0,5.5651064E0,1.3166685E0,0E0,2.6904187E0,2.7983437E0,4.8348446E0,0E0,1.2710004E0,2.1296806E0,3.6357706E0,1.1019433E0,0E0,0E0,0E0,3.232322E0,3.436919E0,2.9389E-1,4.0216537E0,3.1208038E-1,0E0,0E0,0E0,0E0,0E0,0E0,0E0,0E0,0E0,0E0,0E0,0E0,0E0,0E0,0E0,0E0,0E0,0E0],"parents":[2147483647,0,0,1,1,2,2,3,3,4,4,5,5,6,6,7,7,8,8,9,9,11,11,12,12,13,13,15,15,16,16,17,17,18,18,22,22,23,23,24,24,25,25,26,26],"right_children":[2,4,6,8,10,12,14,16,18,20,-1,22,24,26,-1,28,30,32,34,-1,-1,-1,36,38,-1,42,-1,-1,-1,-1,-1,-1,-1,-1,-1,-1,-1,-1,-1,-1,-1,-1,-1,-1,-1],"split_conditions":[5E-1,2.6072206E1,1.5E0,1.5E0,1.5E0,8.495E-1,5E-1,5E-1,7.21E0,2.7696821E1,1.2245684E-1,5E-1,2.3466213E1,5E-1,1.2656598E-1,2.16759E2,5E-1,2.165E2,9.799999E0,-7.849945E-3,9.363922E-2,9.4684444E-2,1.145E2,5E-1,9.848614E-2,9.35E-1,1.0271537E-1,-8.3795466E-2,-2.3926424E-2,-2.1043267E-2,-1.3608016E-1,-1.1998374E-2,-1.2817381E-1,1.14262454E-1,-0E0,9.176723E-2,-4.7196344E-2,1.1650103E-1,-1.2289486E-2,5.2121308E-2,1.15950644E-1,-1.0747758E-1,6.495061E-2,5.9563674E-2,1.2612164E-1],"split_indices":[0,5,1,1,1,8,2,13,7,5,0,1,5,10,0,11,1,11,7,0,0,0,11,13,2,8,5,0,0,0,0,0,0,0,0,0,0,0,0,2147483647,2147483647,0,0,2147483647,2147483647],"split_type":[0,0,0,0,0,0,0,0,0,0,0,0,0,0,0,0,0,0,0,0,0,0,0,0,0,0,0,0,0,0,0,0,0,0,0,0,0,0,0,0,0,0,0,0,0],"sum_hessian":[1.2629423E2,6.6566216E1,5.9728016E1,5.724285E1,9.323362E0,3.2307484E1,2.7420534E1,4.196443E1,1.527842E1,3.4980552E0,5.8253074E0,1.116683E1,2.1140654E1,1.478375E1,1.2636784E1,1.8570894E1,2.3393538E1,1.2236415E1,3.0420058E0,2.0110965E0,1.4869587E0,1.2719138E0,9.894917E0,8.972069E0,1.2168584E1,3.4177406E0,1.1366009E1,1.13053875E1,7.265507E0,2.400361E0,2.0993176E1,9.101317E0,3.1350968E0,2.032767E0,1.0092388E0,1.023167E0,8.87175E0,1.7747517E0,7.1973176E0,4.5763307E0,7.592253E0,1.7056463E0,1.7120943E0,5.393882E0,5.9721274E0],"tree_param":{"num_deleted":"4","num_feature":"14","num_nodes":"45","size_leaf_vector":"0"}},{"base_weights":[-9.580466E-3,-5.7388896E-1,6.1235905E-1,-7.941303E-1,8.1472796E-1,3.8648644E-1,1.0200784E0,-1.0324637E0,-1.5926707E-1,1.9901036E-1,1.1367484E0,1.2225442E0,1.6578314E-1,4.9596074E-1,1.1510203E0,-7.122433E-1,-1.2045652E0,-3.794652E-1,4.872286E-1,7.1823287E-1,-4.5507082E-1,1.4377034E0,-0E0,-1.2518883E-1,5.013835E-1,-8.423331E-2,9.727151E-1,-1.1840895E0,-1.6917126E-1,-1.2319742E0,-3.0104834E-1,6.049798E-2,-9.200251E-1,7.4202114E-1,1.2587584E-2,1.0851756E0,-3.539518E-1,1.3674326E-1,9.7227716E-1,3.78959E-1,-4.6802565E-1],"categories":[],"categories_nodes":[],"categories_segments":[],"categories_sizes":[],"default_left":[1,1,1,1,1,1,1,1,1,1,0,1,1,1,0,1,1,1,1,0,0,0,0,1,1,1,0,0,0,1,1,0,0,1,1,0,0,0,0,1,1],"id":7,"left_children":[1,3,5,7,9,11,13,15,17,19,-1,21,23,25,-1,27,-1,31,-1,-1,-1,-1,-1,35,37,-1,-1,-1,-1,-1,-1,-1,-1,-1,-1,-1,-1,-1,-1,-1,-1],"loss_changes":[4.2599472E1,2.0132065E1,4.775976E0,8.123814E0,1.4552121E0,6.8322883E0,6.226692E-1,1.1603928E0,2.517722E0,1.86865E0,0E0,2.0069075E0,3.2261617E0,1.7933326E0,0E0,3.9355297E0,8.0898285E-2,3.2233143E0,4.6002638E-1,0E0,0E0,0E0,0E0,5.2355494E0,2.3702734E0,8.034103E-1,0E0,0E0,0E0,0E0,0E0,0E0,0E0,0E0,0E0,0E0,0E0,0E0,0E0,0E0,0E0],"parents":[2147483647,0,0,1,1,2,2,3,3,4,4,5,5,6,6,7,7,8,8,9,9,11,11,12,12,13,13,15,15,16,16,17,17,18,18,23,23,24,24,25,25],"right_children":[2,4,6,8,10,12,14,16,18,20,-1,22,24,26,-1,28,-1,32,-1,-1,-1,-1,-1,36,38,-1,-1,-1,-1,-1,-1,-1,-1,-1,-1,-1,-1,-1,-1,-1,-1],"split_conditions":[5E-1,2.6104738E1,2.6073868E1,1.5E0,1.5E0,5E-1,8.35E-1,8.3889997E-1,7.26665E0,6.70195E0,1.1367484E-1,2.4294096E1,1.5E0,1.5E0,1.1510203E-1,7.65E-1,-1.2045652E-1,8.6010003E-1,4.872286E-2,7.182329E-2,-4.5507085E-2,1.4377034E-1,-0E0,5E-1,6.18095E0,-8.423331E-3,9.727151E-2,-1.18408956E-1,-1.6917126E-2,-1.2319743E-1,-3.0104835E-2,6.0497983E-3,-9.200251E-2,7.420211E-2,1.2587584E-3,1.08517565E-1,-3.5395183E-2,1.3674326E-2,9.7227715E-2,3.78959E-2,-4.6802565E-2],"split_indices":[0,5,5,1,1,13,8,8,7,7,0,5,1,1,0,8,7,8,12,0,0,0,0,1,7,5,0,0,0,2147483647,2147483647,0,0,2147483647,2147483647,0,0,0,0,2147483647,2147483647],"split_type":[0,0,0,0,0,0,0,0,0,0,0,0,0,0,0,0,0,0,0,0,0,0,0,0,0,0,0,0,0,0,0,0,0,0,0,0,0,0,0,0,0],"sum_hessian":[1.1938751E2,6.271864E1,5.666887E1,5.4564564E1,8.154076E0,3.787801E1,1.8790861E1,3.910166E1,1.5462903E1,3.462385E0,4.6916904E0,6.8681197E0,3.100989E1,4.865837E0,1.3925024E1,1.5668207E1,2.3433455E1,1.1957776E1,3.5051272E0,1.9607279E0,1.5016571E0,5.6602664E0,1.2078531E0,1.6785519E1,1.4224372E1,2.4715776E0,2.3942595E0,7.6537676E0,8.01444E0,2.2283258E1,1.1501954E0,6.979903E0,4.9778724E0,1.7771282E0,1.7279989E0,2.0036395E0,1.4781878E1,8.863559E0,5.3608127E0,1.0075812E0,1.4639963E0],"tree_param":{"num_deleted":"6","num_feature":"14","num_nodes":"41","size_leaf_vector":"0"}},{"base_weights":[-8.912874E-4,-2.9949343E-1,1.052032E0,-6.91445E-1,3.1545973E-1,-2.22795E-1,-8.4406465E-1,1.0933322E0,1.111636E-1,-7.467651E-1,1.15677506E-1,-9.1124076E-1,-0E0,1.3029873E0,-0E0,-1.683648E-1,4.2622653E-1,-9.071664E-1,-0E0,6.442379E-1,-3.0389917E-1,-5.129816E-2,-9.582787E-1,-5.6389344E-1,7.362445E-1,-3.9412516E-1,5.920095E-1,1.2620121E-1,9.909582E-1],"categories":[],"categories_nodes":[],"categories_segments":[],"categories_sizes":[],"default_left":[1,1,0,1,1,1,1,1,1,1,1,1,1,0,0,1,1,1,1,0,0,0,0,0,0,0,0,0,0],"id":8,"left_children":[1,3,-1,5,7,9,11,13,15,-1,19,21,23,-1,-1,25,27,-1,-1,-1,-1,-1,-1,-1,-1,-1,-1,-1,-1],"loss_changes":[3.7188293E1,2.2528713E1,0E0,3.7713814E0,5.5676785E0,2.895734E0,2.4265995E0,1.673809E0,2.7544813E0,7.226553E-1,2.4824977E0,1.4383659E0,2.1192763E0,0E0,0E0,3.0518935E0,2.2427588E0,0E0,0E0,0E0,0E0,0E0,0E0,0E0,0E0,0E0,0E0,0E0,0E0],"parents":[2147483647,0,0,1,1,3,3,4,4,5,5,6,6,7,7,8,8,9,9,10,10,11,11,12,12,15,15,16,16],"right_children":[2,4,-1,6,8,10,12,14,16,-1,20,22,24,-1,-1,26,28,-1,-1,-1,-1,-1,-1,-1,-1,-1,-1,-1,-1],"split_conditions":[2.6073868E1,5E-1,1.05203204E-1,7.008939E-1,5E-1,1.765E2,1.3082583E0,6.8728504E0,2.3137604E1,-7.4676506E-2,1.5E0,1.095E2,5.4049997E0,1.3029873E-1,-0E0,5E-1,1.5E0,-9.0716645E-2,-0E0,6.442379E-2,-3.0389918E-2,-5.129816E-3,-9.582787E-2,-5.6389343E-2,7.3624454E-2,-3.9412517E-2,5.920095E-2,1.2620121E-2,9.909582E-2],"split_indices":[5,0,0,9,13,11,9,7,5,7,10,11,7,0,0,3,2,2147483647,2147483647,0,0,0,0,0,0,0,0,0,0],"split_type":[0,0,0,0,0,0,0,0,0,0,0,0,0,0,0,0,0,0,0,0,0,0,0,0,0,0,0,0,0],"sum_hessian":[1.1651867E2,9.140682E1,2.5111843E1,5.58488E1,3.555802E1,1.4484916E1,4.1363888E1,6.38926E0,2.9168764E1,5.3272567E0,9.15766E0,3.827038E1,3.0935078E0,5.188536E0,1.2007236E0,1.5534525E1,1.3634238E1,4.16568E0,1.1615767E0,3.9210355E0,5.236624E0,2.2034607E0,3.6066917E1,1.8636625E0,1.2298453E0,1.2450939E1,3.0835857E0,9.818503E0,3.8157349E0],"tree_param":{"num_deleted":"2","num_feature":"14","num_nodes":"29","size_leaf_vector":"0"}},{"base_weights":[3.2166343E-2,-4.9286893E-1,5.8413243E-1,-7.6111937E-1,3.4755133E-2,1.0175272E0,4.4160753E-1,1.7478323E-1,-8.082374E-1,2.7269477E-1,-6.551443E-1,1.1855551E-1,1.1642687E0,3.3025244E-1,1.2205492E0,-9.2514956E-1,-2.9470256E-1,4.9255338E-1,-1.8094225E-1,-8.4074676E-1,-0E0,-4.5535597E-1,6.693051E-1,1.240066E0,1.6770737E-1,4.6772766E-1,-6.2823373E-1,-3.087129E-1,-1.016595E0,-5.543909E-1,2.2675247E-1,8.0744255E-1,-2.3852532E-1,6.338844E-1,-6.267355E-1,-0E0,-1.1509396E0,1.3212813E0,2.1913114E-1,2.4016337E-1,7.7257204E-1,-0E0,-1.0024056E0],"categories":[],"categories_nodes":[],"categories_segments":[],"categories_sizes":[],"default_left":[1,1,1,1,1,1,1,0,1,1,1,1,1,1,0,1,1,1,1,1,0,0,0,1,1,1,1,0,0,0,0,0,0,0,0,0,0,1,1,0,0,0,0],"id":9,"left_children":[1,3,5,7,9,11,13,-1,15,17,19,21,-1,25,-1,27,29,31,33,35,-1,-1,-1,-1,-1,39,41,-1,-1,-1,-1,-1,-1,-1,-1,-1,-1,-1,-1,-1,-1,-1,-1],"loss_changes":[3.3833584E1,8.556905E0,2.9234333E0,1.9590683E0,3.583064E0,1.4692955E0,3.328436E0,0E0,1.8963223E0,1.7567276E0,7.111995E-1,1.2918789E0,4.8983383E-1,5.639018E0,0E0,1.270441E0,1.3368921E0,2.8896766E0,2.5538955E0,1.1006651E0,0E0,0E0,0E0,3.9115715E-1,0E0,2.2277422E0,1.2105281E0,0E0,0E0,0E0,0E0,0E0,0E0,0E0,0E0,0E0,0E0,0E0,0E0,0E0,0E0,0E0,0E0],"parents":[2147483647,0,0,1,1,2,2,3,3,4,4,5,5,6,6,8,8,9,9,10,10,11,11,12,12,13,13,15,15,16,16,17,17,18,18,19,19,23,23,25,25,26,26],"right_children":[2,4,6,8,10,12,14,-1,16,18,20,22,-1,26,-1,28,30,32,34,36,-1,-1,-1,-1,-1,40,42,-1,-1,-1,-1,-1,-1,-1,-1,-1,-1,-1,-1,-1,-1,-1,-1],"split_conditions":[5E-1,1.5E0,5E-1,5.88801E-1,5E-1,5.7013583E-1,1.12E0,1.7478323E-2,7.25E1,8.008656E-1,7.4700003E0,1.5E0,1.1642688E-1,1.02115E0,1.2205493E-1,1.415E2,2.27672E2,2.4315631E2,6.6E1,6.55E1,-0E0,-4.5535598E-2,6.693051E-2,1.2400661E-1,1.6770737E-2,8.88E-1,7.25E1,-3.087129E-2,-1.016595E-1,-5.5439092E-2,2.2675248E-2,8.074426E-2,-2.3852533E-2,6.338844E-2,-6.2673554E-2,-0E0,-1.1509396E-1,1.3212813E-1,2.1913115E-2,2.4016337E-2,7.725721E-2,-0E0,-1.00240566E-1],"split_indices":[0,1,13,9,12,9,8,0,6,9,7,1,9,8,0,11,11,11,6,6,0,0,0,2147483647,2147483647,8,6,0,0,0,0,0,0,0,0,0,0,2147483647,2147483647,0,0,0,0],"split_type":[0,0,0,0,0,0,0,0,0,0,0,0,0,0,0,0,0,0,0,0,0,0,0,0,0,0,0,0,0,0,0,0,0,0,0,0,0,0,0,0,0,0,0],"sum_hessian":[1.1472245E2,5.8757587E1,5.5964863E1,3.8785538E1,1.9972046E1,1.2156877E1,4.3807987E1,1.6274664E0,3.7158073E1,1.5407745E1,4.5643015E0,2.0552626E0,1.0101614E1,3.9686836E1,4.1211524E0,2.9455847E1,7.7022266E0,1.0468676E1,4.9390693E0,3.384881E0,1.1794201E0,1.0023718E0,1.0528907E0,9.067278E0,1.0343361E0,3.524763E1,4.4392056E0,4.5117154E0,2.4944132E1,5.227503E0,2.4747238E0,7.339673E0,3.1290028E0,1.5180727E0,3.4209967E0,1.2141544E0,2.1707268E0,8.035887E0,1.0313911E0,2.1393433E1,1.3854197E1,2.0980396E0,2.341166E0],"tree_param":{"num_deleted":"4","num_feature":"14","num_nodes":"43","size_leaf_vector":"0"}},{"base_weights":[5.5182777E-2,-4.135662E-1,5.6363523E-1,-5.827274E-1,8.432991E-1,1.114195E0,3.7520027E-1,-6.825641E-1,-0E0,1.0213964E0,-2.721478E-2,5.689739E-2,1.2854981E0,2.1852113E-1,1.0398247E0,-3.048992E-1,-9.1079813E-1,-1.902065E-1,6.65391E-1,2.7050588E-1,-6.28159E-1,-4.534465E-1,6.324104E-1,-1.0535166E0,-7.4345036E-4,-5.5377895E-1,2.1801233E-1,3.2009768E-1,-6.210174E-1],"categories":[],"categories_nodes":[],"categories_segments":[],"categories_sizes":[],"default_left":[1,1,1,1,1,1,1,1,1,0,0,0,0,1,0,1,1,1,0,1,0,0,0,0,0,0,0,0,0],"id":10,"left_children":[1,3,5,7,9,11,13,15,17,-1,-1,-1,-1,19,-1,21,23,25,-1,27,-1,-1,-1,-1,-1,-1,-1,-1,-1],"loss_changes":[2.6920128E1,1.2946232E1,5.0566673E0,3.0349998E0,1.259294E0,2.1795826E0,4.023397E0,3.4542847E0,1.2174073E0,0E0,0E0,0E0,0E0,1.6921742E0,0E0,2.8459306E0,3.4263287E0,1.2765936E0,0E0,1.6790075E0,0E0,0E0,0E0,0E0,0E0,0E0,0E0,0E0,0E0],"parents":[2147483647,0,0,1,1,2,2,3,3,4,4,5,5,6,6,7,7,8,8,13,13,15,15,16,16,17,17,19,19],"right_children":[2,4,6,8,10,12,14,16,18,-1,-1,-1,-1,20,-1,22,24,26,-1,28,-1,-1,-1,-1,-1,-1,-1,-1,-1],"split_conditions":[5E-1,2.6523731E1,5E-1,7.26665E0,7.5E1,7.25E-1,2.7096737E1,8.237E-1,7.3E1,1.02139644E-1,-2.721478E-3,5.6897392E-3,1.2854981E-1,9.65E0,1.0398247E-1,8.1764996E-1,5E-1,2.289112E1,6.65391E-2,2.6696463E1,-6.28159E-2,-4.534465E-2,6.324104E-2,-1.05351664E-1,-7.434504E-5,-5.5377897E-2,2.1801233E-2,3.200977E-2,-6.210174E-2],"split_indices":[0,5,13,7,6,8,5,8,6,0,0,0,0,7,0,8,3,5,0,5,0,0,0,0,0,0,0,0,0],"split_type":[0,0,0,0,0,0,0,0,0,0,0,0,0,0,0,0,0,0,0,0,0,0,0,0,0,0,0,0,0],"sum_hessian":[1.1090905E2,5.7702396E1,5.3206657E1,5.1400364E1,6.3020325E0,1.2179021E1,4.1027637E1,4.370688E1,7.6934857E0,5.1831646E0,1.1188679E0,1.9652476E0,1.0213773E1,3.4397896E1,6.62974E0,1.7508749E1,2.619813E1,6.561704E0,1.1317817E0,3.3160515E1,1.2373822E0,1.5651216E1,1.8575327E0,2.241534E1,3.7827904E0,3.4116104E0,3.1500938E0,3.2126564E1,1.0339481E0],"tree_param":{"num_deleted":"0","num_feature":"14","num_nodes":"29","size_leaf_vector":"0"}},{"base_weights":[2.1615006E-2,-3.8189062E-1,4.7481525E-1,-6.9811314E-1,2.3199281E-1,9.912517E-1,2.9460827E-1,-2.59949E-1,-1.011825E0,-8.189266E-2,1.0877597E0,1.1011897E0,-0E0,1.4280123E-2,7.769686E-1,5.265479E-1,-3.6204687E-1,-7.36668E-2,-1.1437652E0,2.7097347E-1,-6.0780853E-1,1.2454494E0,2.2222106E-1,-3.420535E-1,4.358964E-1,9.1143984E-1,-2.8053862E-1,5.170965E-1,-4.8065862E-1,-4.022526E-1,1.6541126E-1,-1.1925855E0,-1.3282257E-1,8.184087E-1,-5.451812E-1,-9.9591905E-1,-6.710555E-2,-8.066395E-1,1.6139966E-1,8.408291E-1,-2.8254214E-1,4.9673548E-1,1.0969568E0],"categories":[],"categories_nodes":[],"categories_segments":[],"categories_sizes":[],"default_left":[1,1,1,1,1,1,1,1,1,1,0,1,0,1,1,0,1,1,1,1,1,1,1,1,1,1,0,0,0,1,1,1,1,0,0,0,0,0,0,0,0,1,1],"id":11,"left_children":[1,3,5,7,9,11,13,15,17,19,-1,-1,-1,23,25,-1,27,-1,-1,33,35,-1,-1,37,39,-1,-1,-1,-1,-1,-1,-1,-1,-1,-1,-1,-1,-1,-1,-1,-1,-1,-1],"loss_changes":[1.9626745E1,1.1208082E1,4.290557E0,4.799488E0,5.53706E0,1.2680225E0,5.195999E0,1.5578727E0,2.4581795E0,3.0580668E0,0E0,9.962988E-1,0E0,4.045775E0,2.340808E0,0E0,1.9088237E0,3.900024E-1,6.323471E-1,4.8520145E0,1.2139318E0,0E0,0E0,3.5756288E0,3.906573E0,2.9082966E-1,0E0,0E0,0E0,0E0,0E0,0E0,0E0,0E0,0E0,0E0,0E0,0E0,0E0,0E0,0E0,0E0,0E0],"parents":[2147483647,0,0,1,1,2,2,3,3,4,4,5,5,6,6,7,7,8,8,9,9,11,11,13,13,14,14,16,16,17,17,18,18,19,19,20,20,23,23,24,24,25,25],"right_children":[2,4,6,8,10,12,14,16,18,20,-1,-1,-1,24,26,-1,28,-1,-1,34,36,-1,-1,38,40,-1,-1,-1,-1,-1,-1,-1,-1,-1,-1,-1,-1,-1,-1,-1,-1,-1,-1],"split_conditions":[5E-1,1.5E0,5E-1,5E-1,2.5597977E1,7.235E0,2.5351492E1,6.5214944E-1,5E-1,8.009052E-1,1.0877597E-1,1.1011898E-1,-0E0,1.5E0,2.945E2,5.265479E-2,1.8323046E1,-7.3666805E-3,-1.1437652E-1,2.165E2,8.8178754E-1,1.2454494E-1,2.2222107E-2,2.07425E2,2.361131E1,9.114399E-2,-2.8053863E-2,5.1709652E-2,-4.8065864E-2,-4.0225264E-2,1.6541127E-2,-1.19258545E-1,-1.3282257E-2,8.184087E-2,-5.4518122E-2,-9.95919E-2,-6.710555E-3,-8.066395E-2,1.6139967E-2,8.408291E-2,-2.8254215E-2,4.967355E-2,1.0969569E-1],"split_indices":[0,1,13,13,5,7,5,9,1,9,0,5,0,1,11,0,5,7,9,11,9,2147483647,2147483647,11,5,9,0,0,0,2147483647,2147483647,2147483647,2147483647,0,0,0,0,0,0,0,0,2147483647,2147483647],"split_type":[0,0,0,0,0,0,0,0,0,0,0,0,0,0,0,0,0,0,0,0,0,0,0,0,0,0,0,0,0,0,0,0,0,0,0,0,0,0,0,0,0,0,0],"sum_hessian":[1.052845E2,5.566236E1,4.9622143E1,3.675492E1,1.890744E1,1.152844E1,3.80937E1,1.623155E1,2.052337E1,1.4409611E1,4.4978285E0,1.0197431E1,1.331009E0,2.4874548E1,1.3219152E1,1.2747729E0,1.4956778E1,2.8160648E0,1.7707306E1,8.7998905E0,5.6097198E0,8.303857E0,1.8935741E0,1.3454693E1,1.1419855E1,1.193429E1,1.2848625E0,1.278435E0,1.3678343E1,1.0747288E0,1.741336E0,1.662582E1,1.0814849E0,5.338715E0,3.461176E0,2.6678946E0,2.9418254E0,6.7875576E0,6.6671352E0,7.2834997E0,4.136356E0,4.9919343E0,6.942356E0],"tree_param":{"num_deleted":"8","num_feature":"14","num_nodes":"43","size_leaf_vector":"0"}},{"base_weights":[2.5666958E-2,-1.5419535E-1,7.360372E-1,-3.786118E-1,2.4051724E-1,3.5986897E-1,1.0637615E0,-5.6193393E-1,4.684841E-1,-4.4185158E-2,6.403999E-1,-2.4515716E-2,8.4943545E-1,-1.563125E-1,-7.869255E-1,7.2416407E-1,-4.9476874E-1,-2.7492073E-1,8.1769335E-1,8.415758E-1,-2.1626364E-1,7.7975863E-1,-3.2325336E-1,2.0628792E-1,1.0491494E0,-5.78506E-1,1.0002316E-1,2.0573726E-1,-9.391119E-1,8.966386E-1,-0E0,-6.52131E-1,2.4288075E-1,1.037022E0,1.0519173E-1,1.4010085E-1,1.0152315E0,3.479912E-1,-7.195218E-1,-6.36564E-1,1.6593105E-1],"categories":[],"categories_nodes":[],"categories_segments":[],"categories_sizes":[],"default_left":[1,1,1,1,1,1,0,1,1,1,1,1,1,1,1,1,0,1,1,1,1,0,1,1,1,0,0,0,0,0,0,0,0,1,1,0,0,0,0,0,0],"id":12,"left_children":[1,3,5,7,9,11,-1,13,15,17,19,21,-1,25,27,29,-1,31,-1,35,37,-1,39,-1,-1,-1,-1,-1,-1,-1,-1,-1,-1,-1,-1,-1,-1,-1,-1,-1,-1],"loss_changes":[1.4368011E1,8.0217495E0,2.2774677E0,9.206427E0,3.8273578E0,2.4062943E0,0E0,4.149167E0,3.012384E0,4.1429806E0,2.634974E0,2.059585E0,3.6769915E-1,2.1053607E0,4.8543816E0,1.1278133E0,0E0,3.4410539E0,4.6092653E-1,1.1469593E0,1.2356642E0,0E0,1.136908E0,0E0,0E0,0E0,0E0,0E0,0E0,0E0,0E0,0E0,0E0,0E0,0E0,0E0,0E0,0E0,0E0,0E0,0E0],"parents":[2147483647,0,0,1,1,2,2,3,3,4,4,5,5,7,7,8,8,9,9,10,10,11,11,12,12,13,13,14,14,15,15,17,17,18,18,19,19,20,20,22,22],"right_children":[2,4,6,8,10,12,-1,14,16,18,20,22,-1,26,28,30,-1,32,-1,36,38,-1,40,-1,-1,-1,-1,-1,-1,-1,-1,-1,-1,-1,-1,-1,-1,-1,-1,-1,-1],"split_conditions":[2.6073868E1,1.5E0,1.5E0,1.5E0,5E-1,6.65E1,1.0637615E-1,5E-1,9.95E-1,7.9E0,1.0216E0,5E-1,8.494355E-2,6.45E1,5E-1,6.8576E0,-4.9476873E-2,6.85E1,8.176934E-2,2.1446487E1,7.2E1,7.797586E-2,6.4256496E0,2.0628793E-2,1.0491494E-1,-5.78506E-2,1.0002316E-2,2.0573726E-2,-9.391119E-2,8.9663856E-2,-0E0,-6.521311E-2,2.4288075E-2,1.037022E-1,1.0519173E-2,1.4010086E-2,1.0152315E-1,3.479912E-2,-7.195219E-2,-6.3656405E-2,1.6593104E-2],"split_indices":[5,1,1,2,2,6,0,13,8,7,8,1,10,6,1,7,0,6,7,5,6,0,7,2147483647,2147483647,0,0,0,0,0,0,0,0,2147483647,2147483647,0,0,0,0,0,0],"split_type":[0,0,0,0,0,0,0,0,0,0,0,0,0,0,0,0,0,0,0,0,0,0,0,0,0,0,0,0,0,0,0,0,0,0,0,0,0,0,0,0,0],"sum_hessian":[1.1010952E2,8.837545E1,2.1734072E1,5.6529415E1,3.1846031E1,1.1238045E1,1.0496026E1,4.6846035E1,9.683382E0,1.8975542E1,1.2870489E1,6.7129846E0,4.52506E0,1.7477068E1,2.9368965E1,7.9304075E0,1.7529746E0,1.5597062E1,3.37848E0,1.0531623E1,2.3388655E0,1.2913734E0,5.4216113E0,1.6725401E0,2.85252E0,6.2750807E0,1.1201987E1,3.7699342E0,2.5599031E1,6.2280154E0,1.7023921E0,8.985191E0,6.6118703E0,2.1276965E0,1.2507834E0,2.5626268E0,7.9689965E0,1.1543841E0,1.1844814E0,3.245862E0,2.1757493E0],"tree_param":{"num_deleted":"4","num_feature":"14","num_nodes":"41","size_leaf_vector":"0"}},{"base_weights":[2.9111579E-2,-3.4769267E-1,4.5283931E-1,-5.0084865E-1,8.6920553E-1,9.784492E-1,3.3096376E-1,2.24992E-1,-6.094251E-1,1.020211E0,1.9537574E-1,1.1192232E0,3.3232786E-2,-3.6211962E-1,4.2302123E-1,-2.9571724E-1,9.6758956E-1,-7.5166005E-1,1.4531483E-1,3.8237602E-1,1.2740281E0,-7.554368E-1,6.375439E-1,2.6359394E-1,8.585601E-1,-0E0,-7.558926E-1,1.1749693E0,2.250771E-1,-3.7479743E-1,-1.0235622E0,-5.051391E-1,8.6029685E-1,-1.0718415E0,-1.1963036E-2,-7.987211E-2,5.035974E-1,8.6100376E-4,1.0703319E0],"categories":[],"categories_nodes":[],"categories_segments":[],"categories_sizes":[],"default_left":[1,1,1,1,1,1,1,1,1,1,1,1,0,1,1,1,1,1,1,1,1,1,0,1,1,1,1,1,1,0,0,0,0,1,1,0,0,0,0],"id":13,"left_children":[1,3,5,7,-1,11,13,15,17,-1,-1,-1,-1,21,23,-1,-1,29,31,-1,-1,-1,-1,35,37,-1,-1,-1,-1,-1,-1,-1,-1,-1,-1,-1,-1,-1,-1],"loss_changes":[1.7173956E1,1.0988066E1,2.792616E0,4.208561E0,3.5517883E-1,1.0286741E0,2.8911672E0,3.1642485E0,4.99041E0,0E0,0E0,2.1447182E-1,0E0,2.6290865E0,2.3268423E0,7.160425E-1,1.05148554E-1,3.376295E0,4.1195016E0,0E0,0E0,9.2031956E-1,0E0,2.531753E0,1.6492348E0,0E0,0E0,0E0,0E0,0E0,0E0,0E0,0E0,0E0,0E0,0E0,0E0,0E0,0E0],"parents":[2147483647,0,0,1,1,2,2,3,3,4,4,5,5,6,6,7,7,8,8,11,11,13,13,14,14,15,15,16,16,17,17,18,18,21,21,23,23,24,24],"right_children":[2,4,6,8,-1,12,14,16,18,-1,-1,-1,-1,22,24,-1,-1,30,32,-1,-1,-1,-1,36,38,-1,-1,-1,-1,-1,-1,-1,-1,-1,-1,-1,-1,-1,-1],"split_conditions":[5E-1,2.6072206E1,4.58E0,6.182128E-1,8.692055E-2,1.1317875E0,4.875E0,7.35E-1,7.35E1,1.020211E-1,1.9537574E-2,1.1192232E-1,3.3232786E-3,5E-1,2.7012745E1,-2.9571725E-2,9.6758954E-2,8.3889997E-1,2.0987225E1,3.82376E-2,1.2740281E-1,-7.554368E-2,6.3754395E-2,5E-1,6.097287E-1,-0E0,-7.558926E-2,1.1749693E-1,2.250771E-2,-3.7479743E-2,-1.0235622E-1,-5.0513912E-2,8.6029686E-2,-1.0718415E-1,-1.1963036E-3,-7.987211E-3,5.0359737E-2,8.610038E-5,1.0703319E-1],"split_indices":[0,5,7,9,6,9,7,8,6,2147483647,2147483647,9,0,3,5,9,7,8,5,2147483647,2147483647,8,0,2,9,2147483647,2147483647,2147483647,2147483647,0,0,0,0,2147483647,2147483647,0,0,0,0],"split_type":[0,0,0,0,0,0,0,0,0,0,0,0,0,0,0,0,0,0,0,0,0,0,0,0,0,0,0,0,0,0,0,0,0,0,0,0,0,0,0],"sum_hessian":[1.0551219E2,5.5818478E1,4.969371E1,5.017426E1,5.644219E0,7.876432E0,4.181728E1,6.2694397E0,4.390482E1,4.0697365E0,1.5744829E0,6.603121E0,1.2733108E0,4.431728E0,3.738555E1,3.959886E0,2.3095539E0,3.7057674E1,6.847145E0,1.8610129E0,4.742108E0,3.427516E0,1.0042121E0,2.8710867E1,8.674685E0,2.9475808E0,1.012305E0,1.2447894E0,1.0647646E0,1.6682106E1,2.0375568E1,3.6658096E0,3.1813354E0,2.0001357E0,1.4273803E0,1.1912942E1,1.6797924E1,2.0100472E0,6.6646376E0],"tree_param":{"num_deleted":"10","num_feature":"14","num_nodes":"39","size_leaf_vector":"0"}},{"base_weights":[5.147949E-2,-2.4237198E-1,5.62821E-1,-5.6806177E-1,1.7726041E-1,2.3990832E-1,8.341476E-1,-6.773515E-1,5.844345E-1,-8.6603475E-1,3.4069204E-1,5.250529E-3,8.7478906E-1,1.0487058E0,5.786866E-1,-3.1047416E-1,-9.574932E-1,8.5008526E-1,-0E0,-1.8011162E-1,-1.0420693E0,4.2953447E-1,-6.648242E-1,3.3216926E-1,-5.931266E-1,-8.938802E-1,9.620479E-1,2.459472E-1,-5.156419E-1,-1.0486398E0,2.6655725E-1,6.027682E-1,-9.27776E-3,5.8854055E-1,-2.838649E-1,-1.1079552E0,5.1315135E-1,2.5949404E-1,1.025092E0],"categories":[],"categories_nodes":[],"categories_segments":[],"categories_sizes":[],"default_left":[1,1,1,1,1,1,1,1,1,1,1,1,0,0,1,1,1,1,1,1,1,1,0,1,1,0,1,0,0,0,0,0,0,0,0,0,0,1,1],"id":14,"left_children":[1,3,5,7,9,11,13,15,-1,-1,21,23,-1,-1,25,27,29,-1,-1,-1,-1,31,-1,33,35,-1,-1,-1,-1,-1,-1,-1,-1,-1,-1,-1,-1,-1,-1],"loss_changes":[1.6016394E1,9.372484E0,3.1021318E0,5.2427225E0,5.382971E0,2.788827E0,3.5814953E-1,3.237133E0,5.611235E-1,2.0719051E-1,2.6619954E0,3.152696E0,0E0,0E0,7.548704E0,2.1011305E0,2.540512E0,0E0,0E0,0E0,0E0,1.9945087E0,0E0,1.8726232E0,3.838162E0,0E0,4.5218468E-2,0E0,0E0,0E0,0E0,0E0,0E0,0E0,0E0,0E0,0E0,0E0,0E0],"parents":[2147483647,0,0,1,1,2,2,3,3,4,4,5,5,6,6,7,7,8,8,9,9,10,10,11,11,14,14,15,15,16,16,21,21,23,23,24,24,26,26],"right_children":[2,4,6,8,10,12,14,16,-1,-1,22,24,-1,-1,26,28,30,-1,-1,-1,-1,32,-1,34,36,-1,-1,-1,-1,-1,-1,-1,-1,-1,-1,-1,-1,-1,-1],"split_conditions":[1.5E0,5E-1,5E-1,2.6547318E1,5.93326E-1,2.5597977E1,2.361131E1,5E-1,5.8443453E-2,-8.660348E-2,2.97E2,2.175E2,8.7478906E-2,1.0487058E-1,2.4841053E1,7.030545E-1,1.4213805E0,8.5008524E-2,-0E0,-1.8011162E-2,-1.04206935E-1,8.9322424E-1,-6.648242E-2,2.3668705E1,7.1E0,-8.938802E-2,9.620479E-2,2.459472E-2,-5.1564194E-2,-1.0486398E-1,2.6655724E-2,6.0276818E-2,-9.2777604E-4,5.8854055E-2,-2.8386489E-2,-1.1079552E-1,5.1315136E-2,2.5949404E-2,1.025092E-1],"split_indices":[1,0,0,5,9,5,5,13,7,5,11,11,0,0,5,9,9,2147483647,2147483647,2147483647,2147483647,9,0,5,7,0,7,0,0,0,0,0,0,0,0,0,0,2147483647,2147483647],"split_type":[0,0,0,0,0,0,0,0,0,0,0,0,0,0,0,0,0,0,0,0,0,0,0,0,0,0,0,0,0,0,0,0,0,0,0,0,0,0,0],"sum_hessian":[1.0447119E2,6.655476E1,3.7916435E1,3.740678E1,2.914798E1,1.8341051E1,1.9575382E1,3.462261E1,2.7841737E0,3.2825143E0,2.5865465E1,1.4242625E1,4.0984263E0,8.739006E0,1.0836376E1,1.6058033E1,1.8564575E1,1.5651046E0,1.2190691E0,1.1995742E0,2.08294E0,2.4383347E1,1.4821187E0,9.606299E0,4.636326E0,1.90941E0,8.926966E0,4.1410933E0,1.191694E1,1.7487408E1,1.0771667E0,1.737738E1,7.0059657E0,6.9294643E0,2.6768353E0,3.22458E0,1.411746E0,1.2870091E0,7.639957E0],"tree_param":{"num_deleted":"6","num_feature":"14","num_nodes":"39","size_leaf_vector":"0"}},{"base_weights":[-2.0511732E-2,-2.995976E-1,4.1581747E-1,4.514953E-1,-4.3903357E-1,5.6687444E-1,2.2025077E-2,-1.03259504E-1,7.952615E-1,-6.238605E-1,1.858885E-1,1.3646016E-1,6.801359E-1,-4.6021304E-1,4.8205385E-1,-6.379778E-1,2.779803E-1,-1.8535228E-2,9.8721963E-1,-1.4601205E-1,-8.795468E-1,4.0175548E-1,-9.713447E-1,4.8098797E-1,-7.758901E-1,9.770949E-1,4.2335275E-1,-8.027519E-1,1.3518716E-1,-1.818475E-1,7.319229E-1,3.7675444E-2,3.6406153E-1,3.271651E-1,-5.6025565E-1,-9.833252E-1,-0E0,-1.6664226E-1,7.3789436E-1,6.1115164E-1,6.789642E-2,9.703132E-1,2.4156953E-1,-2.793887E-1,-9.9493665E-1,-1.1298253E-1,9.8601586E-1],"categories":[],"categories_nodes":[],"categories_segments":[],"categories_sizes":[],"default_left":[1,1,1,1,1,1,1,1,1,1,1,1,1,1,1,0,1,0,0,1,1,1,0,1,0,0,1,1,0,0,1,1,1,0,0,0,0,0,0,1,1,0,0,1,1,0,0],"id":15,"left_children":[1,3,5,7,9,11,13,15,17,19,21,23,25,27,29,-1,-1,-1,-1,33,35,37,-1,-1,-1,-1,41,-1,-1,-1,45,-1,-1,-1,-1,-1,-1,-1,-1,-1,-1,-1,-1,-1,-1,-1,-1],"loss_changes":[1.2442731E1,6.7398567E0,2.2948031E0,2.0894067E0,6.3173666E0,1.2161312E0,2.9420884E0,1.16371E0,1.130682E0,4.8389816E0,3.534679E0,2.6626818E0,1.1351776E0,1.4779214E0,1.32693E0,0E0,1.4556974E-2,0E0,0E0,3.3034859E0,2.3662891E0,2.392745E0,0E0,2.1601963E-1,0E0,0E0,1.018769E0,2.7629137E-2,0E0,0E0,1.3357232E0,0E0,0E0,0E0,0E0,0E0,0E0,0E0,0E0,0E0,0E0,0E0,0E0,0E0,0E0,0E0,0E0],"parents":[2147483647,0,0,1,1,2,2,3,3,4,4,5,5,6,6,7,7,8,8,9,9,10,10,11,11,12,12,13,13,14,14,16,16,19,19,20,20,21,21,23,23,26,26,27,27,30,30],"right_children":[2,4,6,8,10,12,14,16,18,20,22,24,26,28,30,-1,-1,-1,-1,34,36,38,-1,-1,-1,-1,42,-1,-1,-1,46,-1,-1,-1,-1,-1,-1,-1,-1,-1,-1,-1,-1,-1,-1,-1,-1],"split_conditions":[1.5E0,5E-1,5E-1,5.6549997E0,1.5E0,4.745E0,5E-1,5E-1,5E-1,5E-1,2.915E2,4.6871996E0,1.5E0,1.5E0,6.4E1,-6.379778E-2,2.779803E-2,-1.8535228E-3,9.8721966E-2,5.4538E0,8.00555E0,2.02522E2,-9.713447E-2,4.80988E-2,-7.758901E-2,9.770949E-2,1.695E2,-8.027519E-2,1.3518716E-2,-1.818475E-2,1.455E2,3.7675444E-3,3.6406156E-2,3.271651E-2,-5.6025565E-2,-9.833252E-2,-0E0,-1.6664227E-2,7.378944E-2,6.1115164E-2,6.789642E-3,9.703132E-2,2.4156954E-2,-2.793887E-2,-9.949367E-2,-1.1298253E-2,9.860159E-2],"split_indices":[1,1,12,7,2,7,0,2,4,13,11,7,10,12,6,0,6,0,0,7,7,11,0,7,0,0,11,11,0,0,11,2147483647,2147483647,0,0,0,0,0,0,2147483647,2147483647,0,0,2147483647,2147483647,0,0],"split_type":[0,0,0,0,0,0,0,0,0,0,0,0,0,0,0,0,0,0,0,0,0,0,0,0,0,0,0,0,0,0,0,0,0,0,0,0,0,0,0,0,0,0,0,0,0,0,0],"sum_hessian":[1.0025186E2,6.147417E1,3.8777695E1,9.1627035E0,5.2311466E1,2.752555E1,1.1252143E1,3.661945E0,5.5007586E0,4.049607E1,1.1815397E1,6.377526E0,2.1148026E1,5.3871417E0,5.865001E0,1.3530545E0,2.3088906E0,1.1228763E0,4.3778825E0,1.4799557E1,2.5696512E1,1.0580909E1,1.2344886E0,5.0521207E0,1.3254052E0,8.325436E0,1.2822589E1,3.3052824E0,2.0818594E0,1.5687792E0,4.2962217E0,1.2945064E0,1.0143843E0,6.893799E0,7.905758E0,2.2806086E1,2.8904264E0,4.0088496E0,6.572059E0,3.2929797E0,1.7591408E0,1.9792992E0,1.084329E1,1.6865371E0,1.6187451E0,1.0307112E0,3.2655106E0],"tree_param":{"num_deleted":"6","num_feature":"14","num_nodes":"47","size_leaf_vector":"0"}},{"base_weights":[2.7145877E-2,-1.4239949E-1,6.9119096E-1,-3.5844105E-1,2.1822438E-1,4.305591E-1,9.439365E-1,-9.3751855E-2,-4.7576416E-1,-2.668311E-1,4.0857098E-1,-1.4667355E-2,7.1195096E-1,-2.751108E-1,9.7017646E-1,-1.5189347E-1,-6.454793E-1,9.476157E-2,-9.1686976E-1,6.87449E-1,-1.9994827E-2,6.003489E-1,-6.6987604E-1,-1.30676925E-2,8.5832435E-1,-4.0687713E-1,2.2367267E-1,-3.3792296E-1,6.930473E-1,1.02152176E-1,-6.998165E-1,-3.3005127E-1,9.089374E-1,1.3974896E-2,8.987784E-1,-4.1589147E-1,6.1775887E-1,-9.3723005E-1,-3.0194685E-2],"categories":[],"categories_nodes":[],"categories_segments":[],"categories_sizes":[],"default_left":[1,1,1,1,1,1,0,1,1,1,1,1,1,1,0,1,1,1,0,1,1,0,1,1,1,0,0,0,0,0,0,0,0,0,0,0,0,1,1],"id":16,"left_children":[1,3,5,7,9,11,-1,13,15,17,19,21,-1,25,-1,27,29,31,-1,33,35,-1,-1,-1,-1,-1,-1,-1,-1,-1,-1,-1,-1,-1,-1,-1,-1,-1,-1],"loss_changes":[1.1223398E1,6.2499495E0,7.9266834E-1,1.4504728E0,2.8984377E0,1.5863688E0,0E0,3.4498904E0,1.6977439E0,2.2676418E0,2.7254386E0,2.6246064E0,8.94253E-1,1.1123163E0,0E0,2.2802367E0,1.0200682E0,2.6214018E0,0E0,1.8283634E0,2.6490273E0,0E0,4.2451346E-1,0E0,0E0,0E0,0E0,0E0,0E0,0E0,0E0,0E0,0E0,0E0,0E0,0E0,0E0,0E0,0E0],"parents":[2147483647,0,0,1,1,2,2,3,3,4,4,5,5,7,7,8,8,9,9,10,10,11,11,12,12,13,13,15,15,16,16,17,17,19,19,20,20,22,22],"right_children":[2,4,6,8,10,12,-1,14,16,18,20,22,-1,26,-1,28,30,32,-1,34,36,-1,-1,-1,-1,-1,-1,-1,-1,-1,-1,-1,-1,-1,-1,-1,-1,-1,-1],"split_conditions":[2.6059292E1,1.5E0,1.5E0,5E-1,4.90165E0,1.5E0,9.4393656E-2,7.6850004E0,5.1826E0,2.344822E1,2.1353601E2,2.2679599E2,7.1195096E-2,2.4399315E1,9.7017646E-2,2.33E2,1.8344612E1,2.2244793E1,-9.168698E-2,2.1188927E1,7.2984505E0,6.003489E-2,-6.6987604E-2,-1.3067693E-3,8.583244E-2,-4.0687714E-2,2.2367267E-2,-3.37923E-2,6.930473E-2,1.0215218E-2,-6.998166E-2,-3.300513E-2,9.089374E-2,1.3974896E-3,8.987784E-2,-4.158915E-2,6.177589E-2,-9.372301E-2,-3.0194686E-3],"split_indices":[5,1,1,10,7,10,0,7,7,5,11,11,9,5,0,11,5,5,0,5,7,0,5,2147483647,2147483647,0,0,0,0,0,0,0,0,0,0,0,0,2147483647,2147483647],"split_type":[0,0,0,0,0,0,0,0,0,0,0,0,0,0,0,0,0,0,0,0,0,0,0,0,0,0,0,0,0,0,0,0,0,0,0,0,0,0,0],"sum_hessian":[9.7325874E1,7.803642E1,1.9289455E1,4.8978104E1,2.9058317E1,1.1022357E1,8.267098E0,1.5856396E1,3.3121708E1,7.9281178E0,2.11302E1,4.4979954E0,6.5243616E0,1.4260875E1,1.5955209E0,1.22427845E1,2.0878923E1,5.5443716E0,2.3837461E0,1.2575977E1,8.554222E0,2.2846234E0,2.2133722E0,1.134161E0,5.3902006E0,1.158512E1,2.6757548E0,1.0622465E1,1.6203192E0,1.2303307E0,1.9648592E1,3.9534001E0,1.5909716E0,3.371345E0,9.204633E0,5.589268E0,2.9649537E0,1.122673E0,1.0906992E0],"tree_param":{"num_deleted":"4","num_feature":"14","num_nodes":"39","size_leaf_vector":"0"}},{"base_weights":[3.2940265E-2,-3.3034483E-1,4.3729565E-1,-4.744366E-1,1.0163246E0,-3.322713E-2,5.182918E-1,-6.3564056E-1,-1.4132552E-1,-6.1691695E-1,6.72499E-1,6.869307E-1,1.5152055E-1,-2.7637136E-1,-9.247648E-1,-3.817629E-1,5.0168514E-1,-9.048619E-1,8.8166066E-2,2.5338256E-1,8.554821E-1,-4.104297E-1,3.6754936E-1,5.0400145E-2,-6.812353E-1,-1.0286099E0,2.7421528E-1,-0E0,-1.0398141E0,-8.8355474E-2,8.077759E-1,-1.126882E0,-1.9059053E-1,7.978143E-1,-1.9277793E-1,7.57699E-2,9.238113E-1,-8.64859E-1,3.6250207E-1,8.5201126E-1,-1.8694233E-2],"categories":[],"categories_nodes":[],"categories_segments":[],"categories_sizes":[],"default_left":[1,1,1,1,0,1,1,1,1,1,0,1,1,1,1,1,1,1,0,1,1,1,1,0,0,0,0,0,0,0,0,1,1,0,0,1,1,0,0,0,0],"id":17,"left_children":[1,3,5,7,-1,9,11,13,15,17,-1,19,21,23,25,27,29,-1,-1,33,-1,37,39,-1,-1,-1,-1,-1,-1,-1,-1,-1,-1,-1,-1,-1,-1,-1,-1,-1,-1],"loss_changes":[1.4447722E1,1.04582615E1,1.841919E0,2.3801193E0,0E0,3.5412035E0,2.2863483E0,2.8945618E0,2.8016446E0,1.1279335E0,0E0,1.6405277E0,1.8545862E0,2.163786E0,2.4572086E0,3.1695766E0,1.0345657E0,2.1954775E-1,0E0,2.4312153E0,8.3202267E-1,1.8567979E0,2.1236959E0,0E0,0E0,0E0,0E0,0E0,0E0,0E0,0E0,0E0,0E0,0E0,0E0,0E0,0E0,0E0,0E0,0E0,0E0],"parents":[2147483647,0,0,1,1,2,2,3,3,5,5,6,6,7,7,8,8,9,9,11,11,12,12,13,13,14,14,15,15,16,16,17,17,19,19,20,20,21,21,22,22],"right_children":[2,4,6,8,-1,10,12,14,16,18,-1,20,22,24,26,28,30,-1,-1,34,-1,38,40,-1,-1,-1,-1,-1,-1,-1,-1,-1,-1,-1,-1,-1,-1,-1,-1,-1,-1],"split_conditions":[5E-1,2.6523731E1,6.097287E-1,1.5E0,1.0163247E-1,1.5E0,8.478509E-1,5E-1,7.26665E0,8.3500004E-1,6.72499E-2,2.2248848E1,1.525E2,7.6110315E-1,1.4213805E0,2.1298401E2,6.65E1,-9.048619E-2,8.816606E-3,2.088879E1,8.5548215E-2,1.0752265E0,2.2197105E1,5.0400146E-3,-6.8123534E-2,-1.0286099E-1,2.7421528E-2,-0E0,-1.0398141E-1,-8.835548E-3,8.077759E-2,-1.126882E-1,-1.9059053E-2,7.9781435E-2,-1.9277794E-2,7.5769904E-3,9.2381135E-2,-8.64859E-2,3.6250208E-2,8.520113E-2,-1.8694233E-3],"split_indices":[0,5,9,1,0,1,9,13,7,8,0,5,11,9,9,11,6,11,0,5,6,9,5,0,0,0,0,0,0,0,0,2147483647,2147483647,0,0,2147483647,2147483647,0,0,0,0],"split_type":[0,0,0,0,0,0,0,0,0,0,0,0,0,0,0,0,0,0,0,0,0,0,0,0,0,0,0,0,0,0,0,0,0,0,0,0,0,0,0,0,0],"sum_hessian":[9.629701E1,5.069069E1,4.560632E1,4.6443275E1,4.247414E0,6.6030455E0,3.9003273E1,3.0483072E1,1.5960204E1,3.7604241E0,2.8426213E0,2.5933613E1,1.3069662E1,1.4619041E1,1.5864031E1,1.2025414E1,3.9347892E0,2.5695472E0,1.190877E0,8.126698E0,1.7806915E1,3.2507596E0,9.818903E0,8.437517E0,6.1815243E0,1.4807074E1,1.056957E0,8.338145E0,3.6872692E0,1.475384E0,2.4594054E0,1.4127476E0,1.1567994E0,3.4062028E0,4.720495E0,1.7225941E0,1.608432E1,2.053746E0,1.1970134E0,3.9355679E0,5.8833346E0],"tree_param":{"num_deleted":"4","num_feature":"14","num_nodes":"41","size_leaf_vector":"0"}},{"base_weights":[2.339535E-2,-3.4270173E-1,3.9862308E-1,-4.6347976E-1,5.795207E-1,2.3644553E-1,6.097209E-1,-6.6512E-1,-7.969402E-2,9.113772E-1,-2.2686064E-2,-9.241816E-2,5.258983E-1,3.9669326E-1,1.0249394E0,1.3236322E-1,-7.569013E-1,9.537638E-2,-8.560173E-1,8.92619E-1,-3.2973418E-1,6.8303037E-1,-3.5738337E-1,6.361604E-1,-4.219269E-1,6.9224864E-1,-5.7056147E-1,-1.0051522E0,-3.4595326E-1,4.85424E-1,-4.7185668E-1,-7.736062E-1,3.2509577E-2,1.0944158E-1,8.825515E-1,8.66326E-1,1.04561895E-1,-8.7106967E-1,2.4794596E-1],"categories":[],"categories_nodes":[],"categories_segments":[],"categories_sizes":[],"default_left":[1,1,1,1,1,1,1,1,1,0,0,1,1,1,0,1,1,1,0,0,1,1,0,1,1,0,0,0,0,0,0,0,0,0,0,0,0,0,0],"id":18,"left_children":[1,3,5,7,9,11,13,15,17,-1,-1,19,21,23,-1,25,27,29,-1,-1,31,33,-1,35,37,-1,-1,-1,-1,-1,-1,-1,-1,-1,-1,-1,-1,-1,-1],"loss_changes":[1.3012412E1,5.583934E0,1.3756666E0,3.1953688E0,1.2859508E0,2.7958372E0,1.172575E0,2.200512E0,2.3453832E0,0E0,0E0,3.5074894E0,2.4166942E0,3.1621573E0,0E0,1.8287815E0,2.0910454E0,3.3121762E0,0E0,0E0,2.0420446E0,1.352613E0,0E0,1.2597241E0,1.4284619E0,0E0,0E0,0E0,0E0,0E0,0E0,0E0,0E0,0E0,0E0,0E0,0E0,0E0,0E0],"parents":[2147483647,0,0,1,1,2,2,3,3,4,4,5,5,6,6,7,7,8,8,11,11,12,12,13,13,15,15,16,16,17,17,20,20,21,21,23,23,24,24],"right_children":[2,4,6,8,10,12,14,16,18,-1,-1,20,22,24,-1,26,28,30,-1,-1,32,34,-1,36,38,-1,-1,-1,-1,-1,-1,-1,-1,-1,-1,-1,-1,-1,-1],"split_conditions":[5E-1,2.6104738E1,1.5E0,1.5E0,2.27087E2,7.403848E-1,2.2765799E2,1.095E2,2.4808006E1,9.113772E-2,-2.2686066E-3,5E-1,2.51E2,2.15057E2,1.0249394E-1,5E-1,2.1791519E2,8.9225E-1,-8.560173E-2,8.9261904E-2,1.5E0,8.496E-1,-3.5738338E-2,8.5011333E-1,2.20727E2,6.9224864E-2,-5.7056148E-2,-1.00515224E-1,-3.4595326E-2,4.8542403E-2,-4.718567E-2,-7.736062E-2,3.2509577E-3,1.0944158E-2,8.825515E-2,8.66326E-2,1.04561895E-2,-8.7106965E-2,2.4794597E-2],"split_indices":[0,5,1,1,11,9,11,11,5,0,0,1,11,11,0,13,11,8,0,0,2,8,0,9,11,0,0,0,0,0,0,0,0,0,0,0,0,0,0],"split_type":[0,0,0,0,0,0,0,0,0,0,0,0,0,0,0,0,0,0,0,0,0,0,0,0,0,0,0,0,0,0,0,0,0,0,0,0,0,0,0],"sum_hessian":[9.269026E1,4.6824932E1,4.5865334E1,4.1938377E1,4.8865557E0,2.7405008E1,1.8460325E1,2.6842022E1,1.50963545E1,2.926511E0,1.9600446E0,1.2986053E1,1.4418956E1,1.3652262E1,4.808063E0,2.6122882E0,2.4229733E1,1.292903E1,2.1673236E0,1.9032923E0,1.1082761E1,1.2529872E1,1.8890839E0,1.0829425E1,2.8228366E0,1.5417345E0,1.0705538E0,1.405184E1,1.0177894E1,7.850971E0,5.0780597E0,4.594003E0,6.4887576E0,3.762644E0,8.767228E0,6.9866486E0,3.842776E0,1.5993923E0,1.2234445E0],"tree_param":{"num_deleted":"0","num_feature":"14","num_nodes":"39","size_leaf_vector":"0"}},{"base_weights":[5.3066663E-3,-1.3010417E-1,5.474161E-1,-3.5081372E-1,1.0251889E-1,2.4716954E-1,8.9614046E-1,-4.509807E-1,6.127773E-1,1.9515036E-1,-1.0665537E0,-4.8868206E-1,3.8229033E-1,-6.3124096E-1,1.655242E-1,9.407727E-1,-5.6424756E-2,-6.964813E-2,4.1071087E-1,-1.9192697E-1,5.820428E-1,2.1518141E-1,-7.8686035E-1,-3.4808996E-1,5.4789644E-1,-5.9081733E-1,2.5797898E-1,5.5201215E-1,-3.01177E-1,2.3567003E-1,-5.957098E-1,1.0092806E0,3.4011513E-2],"categories":[],"categories_nodes":[],"categories_segments":[],"categories_sizes":[],"default_left":[1,1,1,1,1,1,0,1,1,1,0,0,1,1,1,0,0,1,1,1,1,0,0,0,0,0,0,0,0,1,1,0,0],"id":19,"left_children":[1,3,5,7,9,11,-1,13,15,17,-1,-1,19,21,23,-1,-1,25,27,-1,31,-1,-1,-1,-1,-1,-1,-1,-1,-1,-1,-1,-1],"loss_changes":[7.1890726E0,4.0546827E0,1.716918E0,4.15608E0,4.282257E0,1.3762754E0,0E0,4.2888093E0,1.0481927E0,2.1478133E0,0E0,0E0,1.3979021E0,4.0651484E0,1.9959674E0,0E0,0E0,3.0951571E0,2.252444E0,7.684485E-1,1.8384666E0,0E0,0E0,0E0,0E0,0E0,0E0,0E0,0E0,0E0,0E0,0E0,0E0],"parents":[2147483647,0,0,1,1,2,2,3,3,4,4,5,5,7,7,8,8,9,9,12,12,13,13,14,14,17,17,18,18,19,19,20,20],"right_children":[2,4,6,8,10,12,-1,14,16,18,-1,-1,20,22,24,-1,-1,26,28,-1,32,-1,-1,-1,-1,-1,-1,-1,-1,-1,-1,-1,-1],"split_conditions":[2.6006817E1,5E-1,1.5E0,8.55E0,9.35E0,5.3902733E-1,8.961405E-2,7.35E1,2.445E2,2.2248848E1,-1.06655374E-1,-4.8868205E-2,6.25E1,7E-1,2.0444E2,9.4077274E-2,-5.6424756E-3,7.5169706E-1,9.9E-1,-1.9192697E-2,2.2679599E2,2.1518141E-2,-7.8686036E-2,-3.4808997E-2,5.4789644E-2,-5.9081733E-2,2.5797898E-2,5.5201214E-2,-3.01177E-2,2.3567004E-2,-5.957098E-2,1.0092806E-1,3.4011514E-3],"split_indices":[5,2,1,7,7,9,0,6,11,5,0,0,6,8,11,0,0,9,8,9,11,0,0,0,0,0,0,0,0,2147483647,2147483647,0,0],"split_type":[0,0,0,0,0,0,0,0,0,0,0,0,0,0,0,0,0,0,0,0,0,0,0,0,0,0,0,0,0,0,0,0,0],"sum_hessian":[9.539507E1,7.678969E1,1.8605377E1,3.936373E1,3.742596E1,1.1069899E1,7.535479E0,3.6233E1,3.1307278E0,3.55294E1,1.8965614E0,1.1966076E0,9.873291E0,2.8142656E1,8.090346E0,1.9289246E0,1.2018031E0,1.6039354E1,1.9490046E1,2.4290872E0,7.444204E0,4.2113833E0,2.3931274E1,3.379299E0,4.711047E0,5.998774E0,1.0040581E1,1.6566786E1,2.9232583E0,1.2616816E0,1.1674057E0,3.607628E0,3.836576E0],"tree_param":{"num_deleted":"2","num_feature":"14","num_nodes":"33","size_leaf_vector":"0"}},{"base_weights":[3.0412799E-2,-2.5074768E-1,3.5635364E-1,-3.684805E-1,6.233241E-1,7.427295E-1,2.2491786E-1,-6.194543E-2,-5.733659E-1,1.9759464E-1,8.4995085E-1,9.143449E-1,5.6953937E-2,3.8489112E-1,-1.5885064E-1,-3.1772327E-1,2.975747E-1,-6.622962E-1,1.6630591E-1,-1.8428007E-1,5.784772E-1,9.92691E-1,1.4039892E-1,2.4568117E-1,-1.1163063E-1,6.7424303E-1,2.1925583E-1,-5.9582675E-1,3.904582E-1,-7.901618E-1,1.07835844E-1,-2.4632744E-1,7.072302E-1,-4.2844796E-1,-9.8185354E-1,-6.6488475E-1,9.657296E-1,9.251415E-1,2.9710823E-1,-6.790937E-2,4.290759E-1,2.612269E-1,-8.4800583E-1,-2.3019436E-1,7.0157975E-1],"categories":[],"categories_nodes":[],"categories_segments":[],"categories_sizes":[],"default_left":[1,1,1,1,1,1,1,1,1,1,1,1,1,1,1,1,1,1,1,1,1,1,1,1,1,1,1,1,1,0,0,0,0,0,0,0,0,1,1,0,0,0,0,0,0],"id":20,"left_children":[1,3,5,7,-1,11,13,15,17,-1,-1,-1,-1,25,27,29,31,33,35,-1,-1,-1,-1,-1,-1,-1,39,41,43,-1,-1,-1,-1,-1,-1,-1,-1,-1,-1,-1,-1,-1,-1,-1,-1],"loss_changes":[8.535129E0,5.3330545E0,1.9303303E0,2.70535E0,3.242278E-1,1.0676384E0,2.1628952E0,1.8626437E0,1.8994255E0,6.704418E-1,0E0,2.3766899E-1,1.4431697E-1,9.3121386E-1,2.7706008E0,2.5394983E0,2.0780032E0,1.226553E0,3.0091925E0,0E0,0E0,0E0,0E0,0E0,0E0,3.7628007E-1,1.1019361E0,1.6501219E0,1.2029665E0,0E0,0E0,0E0,0E0,0E0,0E0,0E0,0E0,0E0,0E0,0E0,0E0,0E0,0E0,0E0,0E0],"parents":[2147483647,0,0,1,1,2,2,3,3,4,4,5,5,6,6,7,7,8,8,9,9,11,11,12,12,13,13,14,14,15,15,16,16,17,17,18,18,25,25,26,26,27,27,28,28],"right_children":[2,4,6,8,-1,12,14,16,18,-1,-1,-1,-1,26,28,30,32,34,36,-1,-1,-1,-1,-1,-1,-1,40,42,44,-1,-1,-1,-1,-1,-1,-1,-1,-1,-1,-1,-1,-1,-1,-1,-1],"split_conditions":[5E-1,2.6072206E1,5E-1,1.5E0,6.233241E-2,2.7982069E1,5E-1,5E-1,1.5E0,1.9759465E-2,8.499508E-2,9.143449E-2,5.695394E-3,6.35E1,1.5E0,1.935E2,6.45E1,2.1198401E2,2.0002701E2,-1.8428007E-2,5.784772E-2,9.92691E-2,1.4039892E-2,2.4568116E-2,-1.1163063E-2,6.7424305E-2,2.04489E2,2.1013357E1,1.47E2,-7.901618E-2,1.0783585E-2,-2.4632744E-2,7.072302E-2,-4.28448E-2,-9.818535E-2,-6.6488475E-2,9.657296E-2,9.251415E-2,2.9710824E-2,-6.790937E-3,4.2907592E-2,2.612269E-2,-8.4800586E-2,-2.3019437E-2,7.0157975E-2],"split_indices":[0,5,13,10,5,5,12,2,12,2147483647,2147483647,8,11,6,1,11,6,11,11,2147483647,2147483647,2147483647,2147483647,2147483647,2147483647,10,11,5,11,0,0,0,0,0,0,0,0,2147483647,2147483647,0,0,0,0,0,0],"split_type":[0,0,0,0,0,0,0,0,0,0,0,0,0,0,0,0,0,0,0,0,0,0,0,0,0,0,0,0,0,0,0,0,0,0,0,0,0,0,0,0,0,0,0,0,0],"sum_hessian":[9.1045586E1,4.8839737E1,4.220585E1,4.365278E1,5.1869593E0,9.33943E0,3.286642E1,1.8205465E1,2.5447313E1,2.605517E0,2.5814426E0,7.086829E0,2.252601E0,2.3378698E1,9.487722E0,1.086795E1,7.3375144E0,2.2930231E1,2.5170836E0,1.427713E0,1.1778039E0,6.0613937E0,1.0254353E0,1.1269069E0,1.1256939E0,7.173233E0,1.6205465E1,5.338388E0,4.149334E0,4.8556395E0,6.0123115E0,3.2186637E0,4.1188507E0,1.4773124E1,8.157106E0,1.2552049E0,1.2618787E0,3.2757332E0,3.8975E0,6.926045E0,9.27942E0,1.1153493E0,4.2230387E0,1.3650031E0,2.7843308E0],"tree_param":{"num_deleted":"10","num_feature":"14","num_nodes":"45","size_leaf_vector":"0"}},{"base_weights":[2.5644306E-2,-1.1252003E-1,6.349475E-1,-3.744759E-1,2.0020486E-1,-2.6582351E-2,7.074631E-1,3.191536E-1,-4.7929657E-1,7.033895E-1,-6.523664E-2,2.5937623E-1,8.5930544E-1,8.592978E-1,-2.4077886E-1,-6.496056E-1,2.4084055E-1,-2.3716962E-1,9.810641E-1,-2.5352198E-1,4.7878352E-1,7.5763106E-1,-2.2151577E-1,1.0299894E0,3.718407E-1,-8.0427504E-1,4.2589903E-1,-8.389104E-1,-3.5590658E-1,-3.2254478E-1,6.914287E-1,-7.0997196E-1,3.3350697E-1,2.561706E-1,1.0467243E0,-6.697839E-1,1.1571709E-1,1.032076E0,-3.7088567E-1,1.4268294E-1,-5.119895E-1,-3.0077988E-1,8.1888294E-1],"categories":[],"categories_nodes":[],"categories_segments":[],"categories_sizes":[],"default_left":[1,1,1,1,1,0,1,1,1,1,1,1,1,0,1,1,1,1,1,1,1,0,1,0,1,0,0,0,0,0,0,0,0,1,1,0,0,0,0,1,1,0,0],"id":21,"left_children":[1,3,5,7,9,-1,11,13,15,17,19,21,23,-1,25,27,29,31,-1,35,37,-1,-1,-1,41,-1,-1,-1,-1,-1,-1,-1,-1,-1,-1,-1,-1,-1,-1,-1,-1,-1,-1],"loss_changes":[7.664788E0,6.1328993E0,8.9484406E-1,3.1243405E0,4.662809E0,0E0,7.0970535E-1,2.026339E0,4.592513E0,3.4378061E0,2.465157E0,1.5355301E0,3.8095188E-1,0E0,1.7116005E0,1.2145987E0,2.1565518E0,1.2067915E0,5.5253983E-2,2.8921518E0,3.339791E0,0E0,4.762755E-1,0E0,1.6617601E0,0E0,0E0,0E0,0E0,0E0,0E0,0E0,0E0,0E0,0E0,0E0,0E0,0E0,0E0,0E0,0E0,0E0,0E0],"parents":[2147483647,0,0,1,1,2,2,3,3,4,4,6,6,7,7,8,8,9,9,10,10,11,11,12,12,14,14,15,15,16,16,17,17,18,18,19,19,20,20,22,22,24,24],"right_children":[2,4,6,8,10,-1,12,14,16,18,20,22,24,-1,26,28,30,32,-1,36,38,-1,-1,-1,42,-1,-1,-1,-1,-1,-1,-1,-1,-1,-1,-1,-1,-1,-1,-1,-1,-1,-1],"split_conditions":[2.615392E1,5E-1,5.4864264E-1,6.182128E-1,2.1605244E1,-2.6582351E-3,6.25E1,1.5E0,7.35E1,6.9641423E-1,1.5E0,7.337615E-1,6.71315E0,8.592978E-2,6.75E1,5E-1,2.104047E1,1.5E0,9.810641E-2,1.5E0,6.8576E0,7.576311E-2,-2.2151578E-2,1.02998935E-1,7.1910496E0,-8.0427505E-2,4.2589903E-2,-8.389104E-2,-3.559066E-2,-3.225448E-2,6.914287E-2,-7.09972E-2,3.33507E-2,2.5617061E-2,1.0467243E-1,-6.697839E-2,1.1571709E-2,1.032076E-1,-3.708857E-2,1.4268294E-2,-5.119895E-2,-3.0077988E-2,8.1888296E-2],"split_indices":[5,0,9,9,5,0,6,10,6,9,2,9,7,0,6,2,5,10,6,1,7,0,2,0,7,0,0,0,0,0,0,0,0,2147483647,2147483647,0,0,0,0,2147483647,2147483647,0,0],"split_type":[0,0,0,0,0,0,0,0,0,0,0,0,0,0,0,0,0,0,0,0,0,0,0,0,0,0,0,0,0,0,0,0,0,0,0,0,0,0,0,0,0,0,0],"sum_hessian":[8.857883E1,7.2736465E1,1.5842362E1,3.9647667E1,3.3088795E1,1.4913955E0,1.4350967E1,4.8112736E0,3.4836395E1,1.0987385E1,2.2101412E1,4.484367E0,9.8666E0,2.2676811E0,2.5435927E0,2.836501E1,6.471385E0,2.4555404E0,8.531844E0,1.6952093E1,5.1493173E0,2.0219207E0,2.4624465E0,6.331541E0,3.5350592E0,1.3479068E0,1.195686E0,1.5912012E1,1.2452997E1,2.9034023E0,3.5679827E0,1.3052722E0,1.1502682E0,1.2422094E0,7.289635E0,7.7133327E0,9.238761E0,3.0598197E0,2.0894978E0,1.1655703E0,1.2968762E0,1.4527438E0,2.0823152E0],"tree_param":{"num_deleted":"4","num_feature":"14","num_nodes":"43","size_leaf_vector":"0"}},{"base_weights":[-4.8317727E-2,-3.0705857E-1,2.1728177E-1,-3.7784386E-1,7.62413E-1,1.0272568E0,1.4218298E-1,1.0746257E-1,-4.74692E-1,5.744216E-1,1.0962854E-2,4.9035636E-1,-5.8187985E-1,-8.176426E-1,-2.4126053E-1,8.567944E-1,-2.666956E-1,-9.956234E-2,6.270212E-1,-3.5689905E-1,8.3141756E-1,2.8751847E-1,-9.60363E-1,2.7319834E-1,-5.3707385E-1,1.0400758E0,-0E0,-3.3915836E-1,1.4950489E-1,4.706499E-3,8.39671E-1],"categories":[],"categories_nodes":[],"categories_segments":[],"categories_sizes":[],"default_left":[1,1,1,1,0,0,1,1,1,1,1,1,0,1,1,1,0,1,1,0,0,0,0,0,0,0,0,0,0,1,1],"id":22,"left_children":[1,3,5,7,-1,-1,9,11,13,15,17,19,-1,21,23,25,-1,27,-1,-1,-1,-1,-1,-1,-1,-1,-1,-1,-1,-1,-1],"loss_changes":[6.0750804E0,3.6430783E0,2.3814373E0,2.0993633E0,0E0,0E0,2.2639537E0,2.325406E0,2.5817108E0,2.5117757E0,2.3412948E0,1.9702923E0,0E0,2.5519657E0,3.6784554E0,1.1608658E0,0E0,1.767195E0,6.0609484E-1,0E0,0E0,0E0,0E0,0E0,0E0,0E0,0E0,0E0,0E0,0E0,0E0],"parents":[2147483647,0,0,1,1,2,2,3,3,6,6,7,7,8,8,9,9,10,10,11,11,13,13,14,14,15,15,17,17,18,18],"right_children":[2,4,6,8,-1,-1,10,12,14,16,18,20,-1,22,24,26,-1,28,-1,-1,-1,-1,-1,-1,-1,-1,-1,-1,-1,-1,-1],"split_conditions":[5E-1,2.7696821E1,1.185E2,1.415E2,7.624131E-2,1.02725685E-1,5E-1,5E-1,2.0093701E2,2.7982069E1,2.7096737E1,6.968328E-1,-5.8187988E-2,6.2160647E-1,2.1860199E2,7.235E0,-2.666956E-2,6.75E1,6.270212E-2,-3.5689905E-2,8.314176E-2,2.8751848E-2,-9.60363E-2,2.7319834E-2,-5.3707387E-2,1.0400758E-1,-0E0,-3.3915836E-2,1.4950489E-2,4.7064992E-4,8.3967105E-2],"split_indices":[0,5,11,11,0,0,13,12,11,5,5,9,0,9,11,7,0,6,7,0,0,0,0,0,0,0,0,0,0,2147483647,2147483647],"split_type":[0,0,0,0,0,0,0,0,0,0,0,0,0,0,0,0,0,0,0,0,0,0,0,0,0,0,0,0,0,0,0],"sum_hessian":[8.630003E1,4.3826088E1,4.2473946E1,4.179969E1,2.0263977E0,2.4151475E0,4.00588E1,6.763854E0,3.503584E1,8.364976E0,3.169382E1,4.627336E0,2.1365175E0,1.3002236E1,2.2033602E1,6.337616E0,2.0273604E0,2.74459E1,4.2479215E0,1.2306207E0,3.3967154E0,1.2908964E0,1.171134E1,7.9484987E0,1.4085103E1,5.0525427E0,1.2850732E0,1.4009204E1,1.3436696E1,1.46195E0,2.7859716E0],"tree_param":{"num_deleted":"2","num_feature":"14","num_nodes":"31","size_leaf_vector":"0"}},{"base_weights":[1.0621326E-2,-8.172868E-2,6.4376205E-1,-2.5587583E-1,2.0249012E-1,8.37173E-2,9.871718E-1,6.054634E-1,-3.2726008E-1,4.0752152E-1,-7.60377E-2,-3.6293897E-1,6.8444717E-1,-2.5501254E-1,1.049831E0,2.7866438E-1,-4.292267E-1,-3.070638E-1,4.8850965E-1,-6.519864E-1,4.131766E-1,-0E0,-4.924394E-1,6.819505E-1,-2.3593321E-1,-2.5353549E-2,-6.324945E-1,2.911475E-1,1.0555736E0,-1.0584433E0,3.461065E-1,-6.1688143E-1,7.534745E-1],"categories":[],"categories_nodes":[],"categories_segments":[],"categories_sizes":[],"default_left":[1,1,1,1,1,1,0,1,1,1,1,1,0,0,0,1,1,0,1,1,1,1,1,0,0,0,0,0,0,0,0,0,0],"id":23,"left_children":[1,3,5,7,9,11,-1,13,15,17,19,-1,-1,-1,-1,23,25,-1,27,29,31,-1,-1,-1,-1,-1,-1,-1,-1,-1,-1,-1,-1],"loss_changes":[5.1841965E0,3.8437092E0,1.9835057E0,3.127606E0,1.7434044E0,1.7559193E0,0E0,1.8478615E0,2.9255848E0,1.1694412E0,3.9855092E0,1.2594357E-1,0E0,0E0,0E0,1.6523552E0,3.1363087E0,0E0,1.3544877E0,3.0746255E0,3.143795E0,0E0,0E0,0E0,0E0,0E0,0E0,0E0,0E0,0E0,0E0,0E0,0E0],"parents":[2147483647,0,0,1,1,2,2,3,3,4,4,5,5,7,7,8,8,9,9,10,10,11,11,15,15,16,16,18,18,19,19,20,20],"right_children":[2,4,6,8,10,12,-1,14,16,18,20,-1,-1,-1,-1,24,26,-1,28,30,32,-1,-1,-1,-1,-1,-1,-1,-1,-1,-1,-1,-1],"split_conditions":[2.714603E1,1.5E0,8.7545E-1,3.77E0,2.3668705E1,1.5E0,9.871718E-2,1.065E2,5E-1,1.7914915E1,2.4875366E1,-3.6293898E-2,6.844472E-2,-2.5501255E-2,1.04983106E-1,8.618E-1,5E-1,-3.070638E-2,7.21E0,5E-1,6.15E1,-0E0,-4.924394E-2,6.819505E-2,-2.3593321E-2,-2.535355E-3,-6.3249454E-2,2.9114751E-2,1.0555736E-1,-1.05844334E-1,3.461065E-2,-6.1688144E-2,7.5347446E-2],"split_indices":[5,1,8,7,5,1,0,11,1,5,5,5,0,0,0,8,13,0,7,2,6,2147483647,2147483647,0,0,0,0,0,0,0,0,0,0],"split_type":[0,0,0,0,0,0,0,0,0,0,0,0,0,0,0,0,0,0,0,0,0,0,0,0,0,0,0,0,0,0,0,0,0],"sum_hessian":[8.580231E1,7.550248E1,1.0299831E1,4.7096794E1,2.8405685E1,4.4984994E0,5.8013315E0,2.924651E0,4.4172146E1,1.630158E1,1.2104104E1,2.7116778E0,1.7868215E0,1.0644765E0,1.8601744E0,5.9718027E0,3.820034E1,1.2496134E0,1.5051968E1,5.500312E0,6.603792E0,1.1761231E0,1.5355545E0,3.2746222E0,2.6971805E0,1.3330548E1,2.4869793E1,1.2419303E1,2.632665E0,3.9368286E0,1.5634831E0,1.3651003E0,5.2386923E0],"tree_param":{"num_deleted":"2","num_feature":"14","num_nodes":"33","size_leaf_vector":"0"}},{"base_weights":[4.9614795E-2,-6.708629E-2,5.720675E-1,-2.3990303E-1,1.5025963E-1,3.0670258E-1,9.217494E-1,-4.2811424E-1,9.265584E-2,8.2577354E-1,1.4006461E-2,-2.3455715E-1,4.0566283E-1,-9.388085E-2,-6.870061E-1,-2.8838197E-2,6.113123E-1,9.269749E-1,1.8024936E-1,-7.649895E-2,9.2677176E-1,-0E0,5.914616E-1,2.8290528E-1,-4.4925824E-1,-8.875732E-1,-1.2063627E-1,-2.7897546E-1,3.8543347E-1,1.561677E-1,-1.0833838E0,-3.6617136E-1,5.920579E-1,8.105653E-1,-8.757615E-2],"categories":[],"categories_nodes":[],"categories_segments":[],"categories_sizes":[],"default_left":[1,1,1,1,1,1,0,1,1,1,1,0,1,1,1,1,0,1,1,1,0,1,1,0,0,0,0,0,0,0,0,0,0,0,0],"id":24,"left_children":[1,3,5,7,9,11,-1,13,15,-1,19,-1,21,23,25,27,-1,-1,-1,29,-1,31,33,-1,-1,-1,-1,-1,-1,-1,-1,-1,-1,-1,-1],"loss_changes":[5.2777743E0,2.685711E0,1.0606241E0,2.5646882E0,2.8036337E0,6.8241537E-1,0E0,2.088973E0,1.0220975E0,5.8404684E-2,2.4154983E0,0E0,6.801567E-1,1.8286934E0,1.405808E0,1.4403708E0,0E0,0E0,0E0,6.284688E0,0E0,1.1196176E0,1.0989549E0,0E0,0E0,0E0,0E0,0E0,0E0,0E0,0E0,0E0,0E0,0E0,0E0],"parents":[2147483647,0,0,1,1,2,2,3,3,4,4,5,5,7,7,8,8,9,9,10,10,12,12,13,13,14,14,15,15,19,19,21,21,22,22],"right_children":[2,4,6,8,10,12,-1,14,16,-1,20,-1,22,24,26,28,-1,-1,-1,30,-1,32,34,-1,-1,-1,-1,-1,-1,-1,-1,-1,-1,-1,-1],"split_conditions":[2.5851875E1,5E-1,1.5E0,1.5E0,5E-1,5.5769247E-1,9.217494E-2,8.3889997E-1,5E-1,8.2577355E-2,1.13265E0,-2.3455715E-2,5E-1,1.5E0,9.332582E-1,8.35973E-1,6.1131235E-2,9.2697494E-2,1.8024936E-2,9.95E-1,9.2677176E-2,2.768723E1,2.9789959E1,2.8290529E-2,-4.4925824E-2,-8.875732E-2,-1.2063627E-2,-2.7897546E-2,3.8543347E-2,1.561677E-2,-1.0833838E-1,-3.6617137E-2,5.920579E-2,8.105653E-2,-8.757615E-3],"split_indices":[5,0,1,1,13,9,0,8,3,9,8,0,0,10,9,9,0,2147483647,2147483647,8,0,5,5,0,0,0,0,0,0,0,0,0,0,0,0],"split_type":[0,0,0,0,0,0,0,0,0,0,0,0,0,0,0,0,0,0,0,0,0,0,0,0,0,0,0,0,0,0,0,0,0,0,0],"sum_hessian":[8.410466E1,6.930425E1,1.4800411E1,3.880545E1,3.0498796E1,9.644503E0,5.155908E0,2.4789331E1,1.401612E1,4.1465554E0,2.6352242E1,1.1227787E0,8.521724E0,1.1583606E1,1.3205727E1,1.19649515E1,2.0511687E0,3.0737548E0,1.0728006E0,2.4708862E1,1.643379E0,3.0983343E0,5.42339E0,5.5848503E0,5.9987555E0,9.203001E0,4.002725E0,7.8145194E0,4.150432E0,2.067659E1,4.032274E0,2.0839047E0,1.0144295E0,4.065238E0,1.3581516E0],"tree_param":{"num_deleted":"2","num_feature":"14","num_nodes":"35","size_leaf_vector":"0"}},{"base_weights":[4.602708E-3,-1.04904324E-1,4.751288E-1,-1.892031E-1,2.8176033E-1,9.422347E-2,8.2469225E-1,-2.780563E-1,2.3370229E-1,5.9377015E-1,-2.5528005E-1,7.358648E-1,-3.674902E-1,9.621991E-1,1.7352143E-1,1.2063108E-1,-4.2879182E-1,4.0597105E-1,-5.515203E-1,8.8245875E-1,1.2401192E-1,-6.7921627E-1,2.0739555E-1,-6.566789E-1,8.4434465E-2,3.9613003E-1,-5.562718E-1,-6.380591E-1,-1.8313365E-1,-1.9778238E-1,6.275874E-1,1.1487505E0,-0E0,-4.925234E-1,4.696188E-1,-2.3545785E-1,5.870893E-1,-1.3174891E-1,-8.0752796E-1],"categories":[],"categories_nodes":[],"categories_segments":[],"categories_sizes":[],"default_left":[1,1,1,1,1,1,1,1,1,1,1,0,1,1,1,1,1,1,0,1,1,0,1,1,1,0,0,0,0,0,0,0,0,0,0,1,1,1,1],"id":25,"left_children":[1,3,5,7,9,11,-1,15,17,19,21,-1,-1,-1,-1,25,27,29,-1,31,33,-1,-1,-1,-1,-1,-1,-1,-1,-1,-1,-1,-1,-1,-1,-1,-1,-1,-1],"loss_changes":[4.478957E0,2.319023E0,2.020222E0,2.2530715E0,2.3104515E0,3.013889E0,4.635496E-1,3.007711E0,1.6212287E0,9.345081E-1,1.2162329E0,0E0,8.823537E-1,0E0,0E0,2.806278E0,1.6374464E0,1.4034487E0,0E0,1.2381692E0,1.1895484E0,0E0,7.04706E-1,1.03761435E-1,0E0,0E0,0E0,0E0,0E0,0E0,0E0,0E0,0E0,0E0,0E0,0E0,0E0,0E0,0E0],"parents":[2147483647,0,0,1,1,2,2,3,3,4,4,5,5,6,6,7,7,8,8,9,9,10,10,12,12,15,15,16,16,17,17,19,19,20,20,22,22,23,23],"right_children":[2,4,6,8,10,12,-1,16,18,20,22,-1,-1,-1,-1,26,28,30,-1,32,34,-1,-1,-1,-1,-1,-1,-1,-1,-1,-1,-1,-1,-1,-1,-1,-1,-1,-1],"split_conditions":[2.5851875E1,5E-1,8.995E-1,7.3050003E0,5.88E0,5.76E0,8.2469225E-2,7.789E-1,1.0895E1,7.8974E-1,2.210072E2,7.358649E-2,-3.674902E-2,9.621991E-2,1.7352143E-2,5E-1,5E-1,7.55E-1,-5.515203E-2,7.35E1,8.6660653E-1,-6.792163E-2,2.0739555E-2,-6.566789E-2,8.443447E-3,3.9613005E-2,-5.562718E-2,-6.380591E-2,-1.8313365E-2,-1.9778239E-2,6.275874E-2,1.14875056E-1,-0E0,-4.9252342E-2,4.696188E-2,-2.3545785E-2,5.8708932E-2,-1.31748915E-2,-8.07528E-2],"split_indices":[5,3,8,7,7,7,6,8,7,9,11,0,7,2147483647,2147483647,12,2,8,0,6,9,0,9,2147483647,2147483647,0,0,0,0,0,0,0,0,0,0,2147483647,2147483647,2147483647,2147483647],"split_type":[0,0,0,0,0,0,0,0,0,0,0,0,0,0,0,0,0,0,0,0,0,0,0,0,0,0,0,0,0,0,0,0,0,0,0,0,0,0,0],"sum_hessian":[8.424044E1,6.879426E1,1.5446185E1,5.7112225E1,1.1682033E1,8.136157E0,7.310028E0,4.767466E1,9.437565E0,7.440071E0,4.2419615E0,3.2468462E0,4.889311E0,5.514355E0,1.795673E0,1.2952445E1,3.4722218E1,8.240117E0,1.197448E0,3.9321594E0,3.5079114E0,2.0822093E0,2.1597524E0,2.8401136E0,2.0491974E0,9.605525E0,3.3469195E0,1.76675E1,1.7054716E1,2.1202354E0,6.119881E0,2.8488173E0,1.0833422E0,1.0034294E0,2.504482E0,1.0507364E0,1.1090158E0,1.2001356E0,1.639978E0],"tree_param":{"num_deleted":"8","num_feature":"14","num_nodes":"39","size_leaf_vector":"0"}},{"base_weights":[5.2267663E-2,-2.0975497E-1,3.1393394E-1,-2.649052E-1,6.82187E-1,2.2679849E-1,1.015258E0,-5.767664E-1,-1.3533795E-1,3.931436E-2,5.2058285E-1,-7.8382444E-1,4.2197395E-2,7.248429E-1,-3.7325522E-1,-2.019693E-1,5.602795E-1,7.574607E-1,4.100264E-2,-8.371142E-2,-9.2559123E-1,5.9905356E-1,-6.097127E-1,-9.33885E-2,9.1704935E-1,-5.2477074E-1,4.8055023E-1,7.2689575E-1,-3.3068946E-1,3.4621585E-2,9.966344E-1,2.822047E-1,1.001827E0,2.8331983E-1,-5.239865E-1],"categories":[],"categories_nodes":[],"categories_segments":[],"categories_sizes":[],"default_left":[1,1,1,1,0,1,0,1,1,1,1,1,1,1,1,1,1,1,1,1,1,0,0,0,0,0,0,0,0,0,0,1,1,1,1],"id":26,"left_children":[1,3,5,7,-1,9,-1,11,13,15,17,-1,21,23,25,27,29,-1,-1,-1,-1,-1,-1,-1,-1,-1,-1,-1,-1,-1,-1,-1,-1,-1,-1],"loss_changes":[5.778502E0,2.2032516E0,2.2246299E0,1.4810195E0,0E0,2.0691476E0,0E0,1.5566626E0,6.3825874E0,3.3001332E0,1.5801382E0,6.797857E-1,1.6938398E0,1.2306495E0,3.3976421E0,2.3214855E0,1.773381E0,7.232199E-1,9.6203315E-1,0E0,0E0,0E0,0E0,0E0,0E0,0E0,0E0,0E0,0E0,0E0,0E0,0E0,0E0,0E0,0E0],"parents":[2147483647,0,0,1,1,2,2,3,3,5,5,7,7,8,8,9,9,10,10,11,11,12,12,13,13,14,14,15,15,16,16,17,17,18,18],"right_children":[2,4,6,8,-1,10,-1,12,14,16,18,-1,22,24,26,28,30,-1,-1,-1,-1,-1,-1,-1,-1,-1,-1,-1,-1,-1,-1,-1,-1,-1,-1],"split_conditions":[5E-1,2.7632542E1,1.1032E0,2.0769234E1,6.82187E-2,1.5E0,1.015258E-1,2.3569E2,2.2078985E1,6.95E1,7.05E1,-7.838245E-2,2.665E2,6.55E1,5E-1,5E-1,2.02522E2,7.5746074E-2,4.100264E-3,-8.371143E-3,-9.255912E-2,5.9905358E-2,-6.097127E-2,-9.33885E-3,9.1704935E-2,-5.2477073E-2,4.8055023E-2,7.268958E-2,-3.3068947E-2,3.4621586E-3,9.9663444E-2,2.822047E-2,1.00182705E-1,2.8331984E-2,-5.239865E-2],"split_indices":[0,5,8,5,0,1,0,11,5,6,6,8,11,6,3,1,11,10,8,2147483647,2147483647,0,0,0,0,0,0,0,0,0,0,2147483647,2147483647,2147483647,2147483647],"split_type":[0,0,0,0,0,0,0,0,0,0,0,0,0,0,0,0,0,0,0,0,0,0,0,0,0,0,0,0,0,0,0,0,0,0,0],"sum_hessian":[8.216844E1,4.0964436E1,4.1204006E1,3.9346684E1,1.6177536E0,3.795437E1,3.2496364E0,1.0309358E1,2.9037325E1,2.4068684E1,1.3885686E1,7.6465993E0,2.6627584E0,5.7568226E0,2.3280502E1,1.673724E1,7.331444E0,8.7673235E0,5.118362E0,1.6742437E0,5.9723554E0,1.5625317E0,1.1002266E0,1.0938985E0,4.662924E0,2.019858E1,3.0819235E0,1.3769525E0,1.5360287E1,3.9189584E0,3.4124856E0,3.8478653E0,4.9194584E0,4.054828E0,1.0635339E0],"tree_param":{"num_deleted":"6","num_feature":"14","num_nodes":"35","size_leaf_vector":"0"}},{"base_weights":[1.4560034E-2,-1.6705213E-1,2.9775423E-1,-6.4505863E-1,-2.854013E-2,1.7950387E-1,9.7044736E-1,3.362091E-1,-8.5599E-1,3.7256116E-1,-2.706431E-1,2.936341E-2,7.5106835E-1,-1.0507028E0,-4.146969E-1,7.687483E-1,-1.0048237E-1,-5.652511E-1,1.9057381E-1,2.824894E-1,-3.3811074E-1,8.69703E-1,1.3347381E-1,7.66042E-2,-7.3113096E-1,1.0758533E-2,1.0212468E0,2.985345E-1,-5.556725E-1,2.9333073E-1,-7.438906E-1,-1.5650973E-1,4.148803E-1,-3.775257E-2,1.0342191E0,-8.2557946E-1,-6.9838494E-2],"categories":[],"categories_nodes":[],"categories_segments":[],"categories_sizes":[],"default_left":[1,1,1,1,1,1,0,0,1,1,1,1,1,1,1,1,1,1,1,1,1,1,1,1,1,0,0,0,0,0,0,1,1,0,0,0,0],"id":27,"left_children":[1,3,5,7,9,11,-1,-1,-1,15,17,19,-1,-1,-1,25,27,29,-1,33,35,-1,-1,-1,-1,-1,-1,-1,-1,-1,-1,-1,-1,-1,-1,-1,-1],"loss_changes":[4.1658936E0,3.1606102E0,2.2360616E0,2.5766864E0,3.899639E0,2.3330133E0,0E0,0E0,2.135067E-1,2.9607956E0,3.5686424E0,2.288301E0,2.0263362E-1,0E0,8.435248E-1,1.4953747E0,1.5755439E0,2.6803017E0,9.032564E-1,3.6775398E0,1.1518657E0,0E0,0E0,0E0,0E0,0E0,0E0,0E0,0E0,0E0,0E0,0E0,0E0,0E0,0E0,0E0,0E0],"parents":[2147483647,0,0,1,1,2,2,3,3,4,4,5,5,8,8,9,9,10,10,11,11,12,12,14,14,15,15,16,16,17,17,18,18,19,19,20,20],"right_children":[2,4,6,8,10,12,-1,-1,-1,16,18,20,-1,-1,-1,26,28,30,-1,34,36,-1,-1,-1,-1,-1,-1,-1,-1,-1,-1,-1,-1,-1,-1,-1,-1],"split_conditions":[1.5E0,6.25E1,7.8050003E0,5E-1,5E-1,2.5667494E1,9.7044736E-2,3.362091E-2,-8.5599E-2,7.661936E-1,8.239368E-1,2.3668705E1,7.510684E-2,-1.05070285E-1,-4.146969E-2,6.45E1,5.585E0,5E-1,1.9057382E-2,2.239899E1,5.51E0,8.69703E-2,1.3347382E-2,7.66042E-3,-7.31131E-2,1.0758534E-3,1.0212468E-1,2.9853452E-2,-5.5567253E-2,2.9333074E-2,-7.438906E-2,-1.5650973E-2,4.1488033E-2,-3.775257E-3,1.0342192E-1,-8.255795E-2,-6.9838497E-3],"split_indices":[1,6,7,1,13,5,0,0,11,9,9,5,7,2147483647,2147483647,6,7,1,6,5,7,2147483647,2147483647,2147483647,2147483647,0,0,0,0,0,0,2147483647,2147483647,0,0,0,0],"split_type":[0,0,0,0,0,0,0,0,0,0,0,0,0,0,0,0,0,0,0,0,0,0,0,0,0,0,0,0,0,0,0,0,0,0,0,0,0],"sum_hessian":[7.87776E1,4.8031837E1,3.074577E1,9.807393E0,3.8224445E1,2.7352983E1,3.3927855E0,1.5462261E0,8.261167E0,1.4029436E1,2.4195007E1,2.2633795E1,4.719188E0,4.616602E0,3.6445649E0,7.4098043E0,6.619632E0,1.4758857E1,9.436151E0,1.3700158E1,8.933638E0,3.4804876E0,1.2387006E0,1.600889E0,2.043676E0,2.2110314E0,5.198773E0,3.593797E0,3.0258346E0,2.3349144E0,1.2423943E1,3.6479228E0,5.788228E0,1.0180114E1,3.5200443E0,2.3015025E0,6.6321354E0],"tree_param":{"num_deleted":"8","num_feature":"14","num_nodes":"37","size_leaf_vector":"0"}},{"base_weights":[-2.7679024E-2,-2.1529841E-1,2.7534634E-1,6.0099434E-2,-3.7832668E-1,1.2935841E-1,8.304916E-1,-3.6410525E-1,3.170634E-1,-8.013923E-1,-8.3262525E-2,5.5824256E-1,-4.0928975E-2,-6.717677E-1,-4.4935206E-3,9.260692E-1,-9.00905E-2,3.2399464E-1,-9.662434E-1,-5.4847914E-1,2.9902622E-1,7.360629E-1,1.4386109E-1,-2.1199241E-1,4.6676704E-1,3.6027277E-1,-6.3863224E-1,-9.236225E-3,1.4555767E0,-5.777503E-1,3.8837805E-1,-1.0106453E0,3.1779304E-1,5.207437E-1,-4.1068274E-1,1.0042444E0,-3.3587455E-3,-2.5425217E-1,6.281463E-1,-3.3536234E-1,4.0164998E-1,8.468346E-1,-1.6222086E-2],"categories":[],"categories_nodes":[],"categories_segments":[],"categories_sizes":[],"default_left":[1,1,1,1,1,1,0,1,1,1,1,1,1,0,1,1,1,0,0,1,1,1,1,1,1,0,0,0,0,0,0,0,0,0,0,0,0,1,1,0,0,0,0],"id":28,"left_children":[1,3,5,7,9,11,-1,13,15,17,19,21,23,-1,25,27,29,-1,-1,31,33,35,-1,39,41,-1,-1,-1,-1,-1,-1,-1,-1,-1,-1,-1,-1,-1,-1,-1,-1,-1,-1],"loss_changes":[4.568242E0,2.290986E0,2.2767434E0,2.198982E0,3.796279E0,1.9411429E0,0E0,7.641865E-1,3.2942147E0,2.7428513E0,3.7287333E0,3.5866952E-1,1.7286977E0,0E0,1.3302003E0,2.7533493E0,2.196619E0,0E0,0E0,4.173398E0,2.0273194E0,1.0623076E0,9.0341157E-1,1.2704995E0,1.0088158E0,0E0,0E0,0E0,0E0,0E0,0E0,0E0,0E0,0E0,0E0,0E0,0E0,0E0,0E0,0E0,0E0,0E0,0E0],"parents":[2147483647,0,0,1,1,2,2,3,3,4,4,5,5,7,7,8,8,9,9,10,10,11,11,12,12,14,14,15,15,16,16,19,19,20,20,21,21,22,22,23,23,24,24],"right_children":[2,4,6,8,10,12,-1,14,16,18,20,22,24,-1,26,28,30,-1,-1,32,34,36,-1,40,42,-1,-1,-1,-1,-1,-1,-1,-1,-1,-1,-1,-1,-1,-1,-1,-1,-1,-1],"split_conditions":[1.5E0,5E-1,2.5522331E1,6.45E1,5E-1,6.826925E-1,8.304916E-2,8.337E-1,6.75E1,6.5999997E-1,2.3137604E1,2.41E2,5E-1,-6.7176774E-2,7.664029E-1,2.0217E2,7.3E1,3.2399464E-2,-9.662434E-2,7.05E1,2.38E2,7.05E1,1.4386109E-2,1.0639143E0,1.99449E2,3.602728E-2,-6.3863225E-2,-9.236225E-4,1.4555767E-1,-5.777503E-2,3.8837805E-2,-1.01064526E-1,3.1779304E-2,5.2074373E-2,-4.1068275E-2,1.00424446E-1,-3.3587456E-4,-2.5425216E-2,6.281463E-2,-3.3536237E-2,4.0165E-2,8.468346E-2,-1.6222086E-3],"split_indices":[1,13,5,6,0,9,0,8,6,8,5,11,3,0,9,11,6,0,0,6,11,6,6,9,11,0,0,0,0,0,0,0,0,0,0,0,0,2147483647,2147483647,0,0,0,0],"split_type":[0,0,0,0,0,0,0,0,0,0,0,0,0,0,0,0,0,0,0,0,0,0,0,0,0,0,0,0,0,0,0,0,0,0,0,0,0,0,0,0,0,0,0],"sum_hessian":[7.8414116E1,4.8811676E1,2.9602438E1,1.8157246E1,3.0654428E1,2.4557611E1,5.044826E0,6.54554E0,1.1611707E1,1.1750932E1,1.8903496E1,6.498801E0,1.8058811E1,2.9098935E0,3.635646E0,4.240314E0,7.3713927E0,1.3005431E0,1.0450389E1,8.4488E0,1.0454696E1,3.8353503E0,2.663451E0,1.4090545E1,3.9682667E0,2.4820879E0,1.1535583E0,1.8197196E0,2.4205942E0,3.651376E0,3.720017E0,5.4760447E0,2.9727554E0,8.276291E0,2.178405E0,2.6509624E0,1.1843878E0,1.6091404E0,1.0543106E0,1.2245162E1,1.8453823E0,1.9150356E0,2.0532312E0],"tree_param":{"num_deleted":"2","num_feature":"14","num_nodes":"43","size_leaf_vector":"0"}},{"base_weights":[-7.791696E-3,-6.163448E-2,4.9026152E-1,-1.3572486E-1,2.543819E-1,7.1024287E-1,-9.936479E-2,-3.6811933E-2,-9.0572786E-1,6.7671806E-1,-4.6299946E-2,-2.3955096E-2,8.8663876E-1,3.9877704E-1,-1.6254272E-1,-1.0473533E0,-6.345262E-3,1.228251E0,1.530377E-1,-6.6498667E-1,3.4820136E-1,-0E0,6.443782E-1,-5.042594E-1,1.5941564E-2,-7.700747E-1,7.963436E-1,-0E0,-8.9456326E-1,-5.1050514E-1,7.289288E-1],"categories":[],"categories_nodes":[],"categories_segments":[],"categories_sizes":[],"default_left":[1,1,1,1,1,1,0,1,1,1,1,1,1,1,1,1,1,0,1,1,1,0,0,0,0,0,0,1,1,0,0],"id":29,"left_children":[1,3,5,7,9,-1,-1,13,-1,17,19,-1,-1,21,23,-1,-1,-1,25,-1,29,-1,-1,-1,-1,-1,-1,-1,-1,-1,-1],"loss_changes":[2.1271935E0,1.733741E0,1.1323873E0,4.4504957E0,1.8685596E0,8.671067E-1,0E0,3.0218241E0,7.3949337E-1,1.4104903E0,2.4497876E0,0E0,0E0,1.150054E0,2.6869252E0,0E0,0E0,0E0,3.1809726E0,5.8105993E-1,2.3647437E0,0E0,0E0,0E0,0E0,0E0,0E0,0E0,0E0,0E0,0E0],"parents":[2147483647,0,0,1,1,2,2,3,3,4,4,5,5,7,7,8,8,9,9,10,10,13,13,14,14,18,18,19,19,20,20],"right_children":[2,4,6,8,10,-1,-1,14,-1,18,20,-1,-1,22,24,-1,-1,-1,26,-1,30,-1,-1,-1,-1,-1,-1,-1,-1,-1,-1],"split_conditions":[2.7595676E1,9.2081475E-1,1.5E0,8.5635203E-1,9.927661E-1,7.102429E-2,-9.936479E-3,1.685E2,-9.057279E-2,4.79E0,1.1114256E0,-2.3955095E-3,8.8663876E-2,6.9513595E-1,2.048625E2,-1.0473533E-1,-6.345262E-4,1.228251E-1,2.1297101E2,-6.649867E-2,4.8E0,-0E0,6.443782E-2,-5.0425943E-2,1.5941564E-3,-7.700747E-2,7.963436E-2,-0E0,-8.945633E-2,-5.1050514E-2,7.289288E-2],"split_indices":[5,9,2,9,9,9,0,11,3,7,9,2147483647,2147483647,9,11,2147483647,2147483647,0,11,11,7,0,0,0,0,0,0,2147483647,2147483647,0,0],"split_type":[0,0,0,0,0,0,0,0,0,0,0,0,0,0,0,0,0,0,0,0,0,0,0,0,0,0,0,0,0,0,0],"sum_hessian":[7.87954E1,7.208011E1,6.7152967E0,5.9108913E1,1.2971196E1,4.865195E0,1.850102E0,5.3423874E1,5.685038E0,5.0125537E0,7.958642E0,1.0000517E0,3.865143E0,1.13019E1,4.2121975E1,4.673407E0,1.0116313E0,1.6930645E0,3.3194892E0,2.930561E0,5.028081E0,4.820766E0,6.481134E0,1.4018304E1,2.8103672E1,1.2184986E0,2.1009908E0,1.0324647E0,1.8980963E0,1.3591292E0,3.6689517E0],"tree_param":{"num_deleted":"6","num_feature":"14","num_nodes":"31","size_leaf_vector":"0"}},{"base_weights":[5.3911016E-4,-5.191778E-2,5.56607E-1,1.974908E-1,-1.4727381E-1,1.1623091E-2,8.57483E-1,-2.3043066E-1,4.5183954E-1,5.672104E-1,-2.1284032E-1,3.497143E-1,-2.7202162E-1,-4.737185E-1,4.3750358E-1,9.53963E-1,3.1879205E-2,7.883812E-2,8.464099E-1,-4.7349742E-1,3.8196817E-2,-8.946389E-1,-0E0,1.1315402E0,1.17990635E-1,-3.1225216E-1,4.8111403E-1,-2.3151174E-1,-8.7478274E-1,-7.43671E-2,8.5736054E-1],"categories":[],"categories_nodes":[],"categories_segments":[],"categories_sizes":[],"default_left":[1,1,1,1,1,1,0,1,1,1,1,1,1,1,0,1,1,1,1,1,1,0,0,1,1,0,0,0,0,0,0],"id":30,"left_children":[1,3,5,7,9,-1,-1,13,15,-1,19,-1,-1,21,-1,-1,25,-1,-1,27,29,-1,-1,-1,-1,-1,-1,-1,-1,-1,-1],"loss_changes":[2.479323E0,1.8299688E0,1.1070282E0,2.4270685E0,2.69906E0,4.6190074E-1,0E0,1.5752772E0,2.7689793E0,4.9993718E-1,3.4616158E0,0E0,0E0,1.2926842E0,0E0,6.494694E-1,1.5007693E0,0E0,0E0,2.1884542E0,2.649985E0,0E0,0E0,0E0,0E0,0E0,0E0,0E0,0E0,0E0,0E0],"parents":[2147483647,0,0,1,1,2,2,3,3,4,4,5,5,7,7,8,8,9,9,10,10,13,13,15,15,16,16,19,19,20,20],"right_children":[2,4,6,8,10,-1,-1,14,16,-1,20,-1,-1,22,-1,-1,26,-1,-1,28,30,-1,-1,-1,-1,-1,-1,-1,-1,-1,-1],"split_conditions":[2.7632542E1,5E-1,8.35E-1,1.9383E2,5E-1,1.1623091E-3,8.574831E-2,5E-1,8.4075E-1,5.672104E-2,1.5E0,3.497143E-2,-2.7202163E-2,5E-1,4.3750357E-2,9.53963E-2,5E-1,7.883812E-3,8.4640995E-2,6.3885E0,7.8100004E0,-8.946389E-2,-0E0,1.1315402E-1,1.17990635E-2,-3.1225218E-2,4.8111405E-2,-2.3151174E-2,-8.747827E-2,-7.43671E-3,8.573606E-2],"split_indices":[5,13,8,11,1,8,0,0,8,0,1,2147483647,2147483647,2,0,7,12,2147483647,2147483647,7,7,0,0,2147483647,2147483647,0,0,0,0,0,0],"split_type":[0,0,0,0,0,0,0,0,0,0,0,0,0,0,0,0,0,0,0,0,0,0,0,0,0,0,0,0,0,0,0],"sum_hessian":[8.1275955E1,7.493384E1,6.3421144E0,2.0139128E1,5.479471E1,2.7435858E0,3.5985284E0,7.3963065E0,1.2742822E1,3.8344345E0,5.0960274E1,1.3062363E0,1.4373496E0,5.744442E0,1.6518648E0,5.116104E0,7.626717E0,1.991488E0,1.8429466E0,2.4761782E1,2.6198494E1,2.5060887E0,3.238353E0,3.829466E0,1.286638E0,4.365159E0,3.2615583E0,1.6586067E1,8.175714E0,2.3725445E1,2.4730492E0],"tree_param":{"num_deleted":"6","num_feature":"14","num_nodes":"31","size_leaf_vector":"0"}},{"base_weights":[3.33953E-2,-1.97072E-1,2.4120544E-1,-2.9479802E-1,3.5501084E-1,2.919212E-1,-6.4973164E-1,1.9235872E-1,-3.9181325E-1,8.726428E-1,-2.1423586E-1,8.4372133E-1,2.0724587E-1,-5.0413954E-1,5.4315376E-1,-4.9054533E-1,3.955399E-1,-4.9998116E-1,9.5569395E-2,1.0717973E0,1.7635464E-3,-5.1402155E-2,3.5849836E-1,1.0790863E0,-3.306968E-2,-1.5492631E-1,-6.776874E-1,-2.297375E-1,9.573973E-1,4.73456E-1,-2.9342422E-1,-2.3978345E-1,5.875556E-1],"categories":[],"categories_nodes":[],"categories_segments":[],"categories_sizes":[],"default_left":[1,1,1,1,1,1,0,1,1,0,1,1,1,0,1,1,1,1,1,1,1,1,1,0,0,0,0,0,0,0,0,0,0],"id":31,"left_children":[1,3,5,7,9,11,-1,13,15,-1,-1,-1,21,-1,23,25,27,-1,-1,-1,-1,29,31,-1,-1,-1,-1,-1,-1,-1,-1,-1,-1],"loss_changes":[3.8544679E0,2.1471E0,2.0709672E0,1.6529562E0,2.0236444E0,1.6328654E0,0E0,1.7370858E0,2.3789954E0,0E0,4.045331E-1,8.439312E-1,1.4956481E0,0E0,1.5451387E0,1.408711E0,1.5430435E0,0E0,0E0,0E0,0E0,1.9341578E0,3.4236336E0,0E0,0E0,0E0,0E0,0E0,0E0,0E0,0E0,0E0,0E0],"parents":[2147483647,0,0,1,1,2,2,3,3,4,4,5,5,7,7,8,8,10,10,11,11,12,12,14,14,15,15,16,16,21,21,22,22],"right_children":[2,4,6,8,10,12,-1,14,16,-1,-1,-1,22,-1,24,26,28,-1,-1,-1,-1,30,32,-1,-1,-1,-1,-1,-1,-1,-1,-1,-1],"split_conditions":[5E-1,7.82E0,9.35E0,4.3561497E0,5E-1,1.145E2,-6.497317E-2,6.9513595E-1,1.5E0,8.7264284E-2,-2.1423586E-2,8.437213E-2,5.5135E0,-5.0413955E-2,8.3E-1,7.400454E-1,2.052315E2,-4.9998116E-2,9.55694E-3,1.0717972E-1,1.7635465E-4,6.35E1,6.25E1,1.0790863E-1,-3.3069681E-3,-1.5492632E-2,-6.7768745E-2,-2.2973752E-2,9.573973E-2,4.73456E-2,-2.9342422E-2,-2.3978345E-2,5.8755558E-2],"split_indices":[2,7,7,7,12,11,0,9,12,0,8,8,7,0,8,9,11,2147483647,2147483647,2147483647,2147483647,6,6,0,0,0,0,0,0,0,0,0,0],"split_type":[0,0,0,0,0,0,0,0,0,0,0,0,0,0,0,0,0,0,0,0,0,0,0,0,0,0,0,0,0,0,0,0,0],"sum_hessian":[7.839542E1,3.6967678E1,4.142774E1,3.1957869E1,5.009811E0,3.9938843E1,1.4888958E0,4.972947E0,2.6984922E1,2.436723E0,2.573088E0,3.963684E0,3.597516E1,1.4238045E0,3.5491428E0,2.4425947E1,2.5589747E0,1.1871036E0,1.3859842E0,2.81058E0,1.1531042E0,1.3274398E1,2.270076E1,1.4766243E0,2.0725186E0,9.589831E0,1.4836116E1,1.4066631E0,1.1523117E0,3.757123E0,9.517275E0,6.1511016E0,1.6549658E1],"tree_param":{"num_deleted":"4","num_feature":"14","num_nodes":"33","size_leaf_vector":"0"}},{"base_weights":[1.2412756E-2,3.1272283E-1,-1.0909565E-1,6.479838E-1,-2.1913286E-2,-1.6889791E-1,6.3116825E-1,8.411036E-1,-4.896266E-3,-2.4750732E-1,4.7541976E-1,-3.9915806E-1,1.2380074E-2,1.133295E-1,8.4436166E-1,1.8612328E-1,1.0616199E0,2.783841E-1,-2.9168564E-1,-5.394381E-1,4.7912028E-1,9.892857E-1,-2.36931E-1,-7.2689164E-1,-7.642572E-2,4.5004624E-1,-8.428547E-2,6.5631825E-1,-4.2857897E-1,1.4592375E0,5.015227E-1,-6.866071E-1,4.495218E-2,3.0489793E-2,-8.13298E-1,1.1718819E-1,-4.320543E-1,6.6504043E-1,-1.3739245E-1,2.3755917E-1,-2.095789E-1],"categories":[],"categories_nodes":[],"categories_segments":[],"categories_sizes":[],"default_left":[1,1,1,1,1,1,1,1,1,1,1,1,1,1,1,1,1,1,1,1,0,0,0,1,1,1,1,0,0,1,1,1,1,1,1,1,1,1,1,0,0],"id":32,"left_children":[1,3,5,7,9,11,-1,15,-1,19,21,23,25,-1,-1,27,-1,-1,-1,-1,-1,-1,-1,-1,-1,-1,39,-1,-1,-1,-1,-1,-1,-1,-1,-1,-1,-1,-1,-1,-1],"loss_changes":[2.909725E0,2.661157E0,2.54883E0,1.5615277E0,1.4800934E0,2.252716E0,2.8190517E-1,9.984298E-1,3.704753E-1,2.2350476E0,1.7946422E0,2.35875E0,1.3580412E0,0E0,0E0,1.3532733E0,5.228977E-1,0E0,0E0,7.138877E-1,0E0,0E0,0E0,8.5113907E-1,9.878741E-1,8.8086843E-1,1.0754786E0,0E0,0E0,0E0,0E0,0E0,0E0,0E0,0E0,0E0,0E0,0E0,0E0,0E0,0E0],"parents":[2147483647,0,0,1,1,2,2,3,3,4,4,5,5,6,6,7,7,8,8,9,9,10,10,11,11,12,12,15,15,16,16,19,19,23,23,24,24,25,25,26,26],"right_children":[2,4,6,8,10,12,-1,16,-1,20,22,24,26,-1,-1,28,-1,-1,-1,-1,-1,-1,-1,-1,-1,-1,40,-1,-1,-1,-1,-1,-1,-1,-1,-1,-1,-1,-1,-1,-1],"split_conditions":[5E-1,8.5155E-1,1.266403E0,7.601812E-1,9.162502E-1,5E-1,6.3116826E-2,7.25E-1,-4.896266E-4,5E-1,1.016403E0,1.5E0,4.6871996E0,1.1332951E-2,8.443617E-2,6.65E-1,1.0616199E-1,2.7838409E-2,-2.9168565E-2,-5.3943813E-2,4.7912028E-2,9.892857E-2,-2.36931E-2,-7.268917E-2,-7.642572E-3,4.5004625E-2,6.792988E-1,6.563183E-2,-4.2857897E-2,1.4592375E-1,5.0152272E-2,-6.8660714E-2,4.495218E-3,3.0489794E-3,-8.13298E-2,1.171882E-2,-4.3205433E-2,6.650405E-2,-1.3739245E-2,2.3755917E-2,-2.095789E-2],"split_indices":[13,8,9,9,9,0,7,8,12,0,9,1,7,2147483647,2147483647,8,7,2147483647,2147483647,7,0,0,0,8,12,8,9,0,0,2147483647,2147483647,2147483647,2147483647,2147483647,2147483647,2147483647,2147483647,2147483647,2147483647,0,0],"split_type":[0,0,0,0,0,0,0,0,0,0,0,0,0,0,0,0,0,0,0,0,0,0,0,0,0,0,0,0,0,0,0,0,0,0,0,0,0,0,0,0,0],"sum_hessian":[7.724692E1,2.203539E1,5.5211525E1,1.068894E1,1.1346451E1,5.1923786E1,3.2877383E0,8.1446495E0,2.5442905E0,8.289619E0,3.056831E0,2.2585415E1,2.9338371E1,1.5422673E0,1.7454711E0,2.6301267E0,5.514523E0,1.119303E0,1.4249876E0,6.1956744E0,2.0939455E0,1.6315231E0,1.4253078E0,1.0430807E1,1.2154608E1,4.833381E0,2.450499E1,1.5440438E0,1.0860829E0,2.181785E0,3.3327377E0,4.94625E0,1.2494243E0,1.0159001E0,9.4149065E0,8.122034E0,4.0325737E0,3.5662963E0,1.2670851E0,6.3918705E0,1.811312E1],"tree_param":{"num_deleted":"14","num_feature":"14","num_nodes":"41","size_leaf_vector":"0"}},{"base_weights":[2.5766704E-3,-1.3285844E-1,2.277525E-1,-3.4964433E-1,8.679458E-2,1.136154E-1,7.239128E-1,-9.807398E-2,-6.180671E-1,-9.125796E-2,4.8371086E-1,3.1621036E-1,-2.5268826E-1,5.7925384E-2,8.6306643E-1,3.53798E-2,-7.399716E-1,-7.428099E-1,1.2515599E-1,7.7825886E-1,-1.9531557E-1,-0E0,8.927203E-1,3.6652695E-2,9.3262005E-1,-5.9986466E-1,1.2767012E-1,-5.4971397E-1,2.3422568E-1,-8.538284E-1,-2.0481849E-1,-0E0,-5.247047E-1,4.737098E-1,-4.2440122E-1,1.5091437E-1,1.0762455E0,-1.9320728E-1,3.8625765E-1,-8.6437017E-1,1.3066216E-1,-5.757999E-1,4.941959E-1],"categories":[],"categories_nodes":[],"categories_segments":[],"categories_sizes":[],"default_left":[1,1,1,1,1,1,1,1,1,1,1,1,1,1,1,1,0,1,0,0,1,1,1,1,0,1,1,0,0,1,1,0,0,0,0,1,1,0,0,0,0,0,0],"id":33,"left_children":[1,3,5,7,9,11,-1,15,17,19,21,23,25,-1,-1,27,-1,-1,-1,-1,31,33,-1,37,-1,39,41,-1,-1,-1,-1,-1,-1,-1,-1,-1,-1,-1,-1,-1,-1,-1,-1],"loss_changes":[2.410558E0,2.3850055E0,1.523994E0,1.5584648E0,1.8402935E0,1.986915E0,3.4269834E-1,1.3220794E0,1.242425E0,1.7068672E0,1.5387702E0,2.8174438E0,1.3783926E0,0E0,0E0,1.5710964E0,0E0,3.347597E-1,0E0,0E0,1.0477185E0,1.1572471E0,2.9872465E-1,1.1325395E0,0E0,1.2065514E0,1.6225241E0,0E0,0E0,0E0,0E0,0E0,0E0,0E0,0E0,0E0,0E0,0E0,0E0,0E0,0E0,0E0,0E0],"parents":[2147483647,0,0,1,1,2,2,3,3,4,4,5,5,6,6,7,7,8,8,9,9,10,10,11,11,12,12,15,15,17,17,20,20,21,21,22,22,23,23,25,25,26,26],"right_children":[2,4,6,8,10,12,-1,16,18,20,22,24,26,-1,-1,28,-1,-1,-1,-1,32,34,-1,38,-1,40,42,-1,-1,-1,-1,-1,-1,-1,-1,-1,-1,-1,-1,-1,-1,-1,-1],"split_conditions":[1.5E0,5E-1,2.5597977E1,5E-1,7.05E1,2.3668705E1,7.239128E-2,2.515E2,2.6784393E1,9.95E1,2.02522E2,2.266175E1,2.4668215E1,5.7925386E-3,8.630665E-2,7.55E-1,-7.399716E-2,-7.428099E-2,1.2515599E-2,7.782589E-2,9.1499996E-1,7.45E1,8.927203E-2,5E-1,9.326201E-2,5E-1,6.35E1,-5.4971397E-2,2.3422567E-2,-8.538284E-2,-2.048185E-2,-0E0,-5.247047E-2,4.737098E-2,-4.2440124E-2,1.5091437E-2,1.0762455E-1,-1.9320728E-2,3.8625766E-2,-8.643702E-2,1.3066216E-2,-5.757999E-2,4.9419593E-2],"split_indices":[1,0,5,13,6,5,6,11,5,11,11,5,5,2147483647,2147483647,8,0,11,0,0,8,6,13,0,0,2,6,0,0,2147483647,2147483647,0,0,0,0,2147483647,2147483647,0,0,0,0,0,0],"split_type":[0,0,0,0,0,0,0,0,0,0,0,0,0,0,0,0,0,0,0,0,0,0,0,0,0,0,0,0,0,0,0,0,0,0,0,0,0,0,0,0,0,0,0],"sum_hessian":[7.673984E1,4.7897255E1,2.8842583E1,2.4037237E1,2.3860016E1,2.4611475E1,4.231107E0,1.330525E1,1.0731986E1,1.682889E1,7.031126E0,1.611072E1,8.500754E0,1.1002461E0,3.130861E0,1.1668421E1,1.6368299E0,9.305289E0,1.4266975E0,1.0034907E0,1.58254E1,3.7424448E0,3.288681E0,1.1924393E1,4.186328E0,4.27997E0,4.2207847E0,2.3845577E0,9.283863E0,7.072818E0,2.2324712E0,1.0688515E1,5.136885E0,1.7761052E0,1.9663395E0,1.121756E0,2.1669252E0,7.2915964E0,4.6327963E0,3.10823E0,1.1717399E0,1.1567825E0,3.0640023E0],"tree_param":{"num_deleted":"6","num_feature":"14","num_nodes":"43","size_leaf_vector":"0"}},{"base_weights":[6.250541E-3,-6.490324E-2,5.2815473E-1,-2.3076044E-1,1.1322544E-1,-0E0,8.2493335E-1,-3.5882378E-1,3.0153638E-1,-9.6649714E-2,3.6223316E-1,-3.7349337E-1,2.5469393E-1,-9.187602E-2,-7.121862E-1,-2.2054645E-1,7.049453E-1,6.649585E-1,-2.876277E-1,5.445214E-1,-0E0,5.589412E-1,-1.0349152E-1,9.2886806E-2,-4.7427756E-1,1.6990488E-2,-7.982139E-1,-6.32038E-1,3.953628E-1,-1.8051817E-1,1.0777401E0,6.942984E-1,-4.2581844E-1,1.0260881E-1,7.2653735E-1,-6.8644744E-1,4.8077852E-1],"categories":[],"categories_nodes":[],"categories_segments":[],"categories_sizes":[],"default_left":[1,1,1,1,1,1,0,1,1,1,1,1,1,1,1,1,1,0,1,1,1,1,1,0,0,1,1,0,0,0,0,0,0,1,1,0,0],"id":34,"left_children":[1,3,5,7,9,-1,-1,13,15,17,19,-1,-1,23,-1,27,29,-1,31,-1,35,-1,-1,-1,-1,-1,-1,-1,-1,-1,-1,-1,-1,-1,-1,-1,-1],"loss_changes":[2.8498085E0,1.9979889E0,1.422241E0,2.498164E0,1.7532146E0,5.058526E-1,0E0,2.57096E0,1.7150252E0,2.791474E0,1.0250998E0,0E0,4.5525062E-1,1.3338964E0,8.497782E-1,1.2318283E0,1.7346425E0,0E0,2.3453612E0,6.6284966E-1,2.3289034E0,0E0,0E0,0E0,0E0,0E0,0E0,0E0,0E0,0E0,0E0,0E0,0E0,0E0,0E0,0E0,0E0],"parents":[2147483647,0,0,1,1,2,2,3,3,4,4,5,5,7,7,8,8,9,9,10,10,12,12,13,13,14,14,15,15,16,16,18,18,19,19,20,20],"right_children":[2,4,6,8,10,-1,-1,14,16,18,20,-1,-1,24,-1,28,30,-1,32,-1,36,-1,-1,-1,-1,-1,-1,-1,-1,-1,-1,-1,-1,-1,-1,-1,-1],"split_conditions":[2.7096737E1,5E-1,8.7545E-1,7.35E1,8.0447984E-1,-0E0,8.2493335E-2,8.5095E-1,8.2260764E-1,5E-1,1.02115E0,-3.734934E-2,2.5469393E-2,7.618102E-1,-7.1218625E-2,1.5E0,1.9637007E1,6.649585E-2,5E-1,5.445214E-2,1.085E0,5.5894118E-2,-1.0349153E-2,9.288681E-3,-4.7427755E-2,1.6990489E-3,-7.982139E-2,-6.3203804E-2,3.953628E-2,-1.8051816E-2,1.0777401E-1,6.942984E-2,-4.2581845E-2,1.0260881E-2,7.265373E-2,-6.864475E-2,4.807785E-2],"split_indices":[5,0,8,6,9,9,0,8,9,13,8,2147483647,2147483647,9,9,1,5,0,1,6,8,2147483647,2147483647,0,0,2147483647,2147483647,0,0,0,0,0,0,2147483647,2147483647,0,0],"split_type":[0,0,0,0,0,0,0,0,0,0,0,0,0,0,0,0,0,0,0,0,0,0,0,0,0,0,0,0,0,0,0,0,0,0,0,0,0],"sum_hessian":[7.357037E1,6.534553E1,8.224844E0,3.3976048E1,3.1369484E1,3.3535743E0,4.871269E0,2.7801216E1,6.1748323E0,1.7136402E1,1.4233081E1,1.1248183E0,2.228756E0,1.6716063E1,1.1085154E1,2.7810564E0,3.3937757E0,2.8330193E0,1.4303384E1,9.198448E0,5.0346317E0,1.053016E0,1.17574E0,1.1604683E1,5.1113796E0,1.131823E0,9.953331E0,1.7488303E0,1.0322262E0,1.0788392E0,2.3149364E0,1.178884E0,1.3124499E1,3.29988E0,5.8985686E0,1.927836E0,3.106796E0],"tree_param":{"num_deleted":"8","num_feature":"14","num_nodes":"37","size_leaf_vector":"0"}},{"base_weights":[1.0731561E-1,-7.063129E-2,2.8748542E-1,-1.1936387E-1,6.0215306E-1,3.3043593E-1,-3.7267548E-1,-5.3384434E-2,-7.496742E-1,6.865262E-2,4.9703038E-1,-1.3681598E-1,4.8038232E-1,3.0568808E-1,-2.4243551E-1,3.7430424E-2,6.800822E-1,6.0741358E-2,-3.2531947E-1,8.706367E-1,-2.0350607E-1,-5.482848E-1,5.208543E-1,3.2356477E-1,-1.0690377E0,3.3632308E-1,-5.2488804E-1,7.315257E-1,8.158267E-2],"categories":[],"categories_nodes":[],"categories_segments":[],"categories_sizes":[],"default_left":[1,1,1,1,0,1,0,1,0,1,1,1,1,1,1,1,1,0,0,0,0,0,0,0,0,0,0,1,1],"id":35,"left_children":[1,3,5,7,-1,9,-1,11,-1,13,15,17,19,21,23,25,-1,-1,-1,-1,-1,-1,-1,-1,-1,-1,-1,-1,-1],"loss_changes":[2.4176254E0,1.2630105E0,1.1764083E0,1.3860756E0,0E0,1.4657898E0,0E0,1.5459504E0,0E0,1.2066667E0,1.7045622E0,1.1765814E0,1.486828E0,1.9904008E0,3.686164E0,1.386967E0,3.2399225E-1,0E0,0E0,0E0,0E0,0E0,0E0,0E0,0E0,0E0,0E0,0E0,0E0],"parents":[2147483647,0,0,1,1,2,2,3,3,5,5,7,7,9,9,10,10,11,11,12,12,13,13,14,14,15,15,16,16],"right_children":[2,4,6,8,-1,10,-1,12,-1,14,16,18,20,22,24,26,-1,-1,-1,-1,-1,-1,-1,-1,-1,-1,-1,-1,-1],"split_conditions":[5E-1,1.3082583E0,9.35E0,9.927661E-1,6.0215306E-2,6.55E1,-3.7267547E-2,7.65E1,-7.496742E-2,2.0970401E2,1.77927E2,6.55E1,8.05E1,6.221721E-1,7.3835427E-1,7.45E1,6.800822E-2,6.0741357E-3,-3.2531947E-2,8.706367E-2,-2.0350607E-2,-5.4828484E-2,5.208543E-2,3.235648E-2,-1.0690377E-1,3.363231E-2,-5.2488804E-2,7.315257E-2,8.1582675E-3],"split_indices":[0,9,7,9,0,6,0,6,0,11,11,6,6,9,9,6,6,0,0,0,0,0,0,0,0,0,0,2147483647,2147483647],"split_type":[0,0,0,0,0,0,0,0,0,0,0,0,0,0,0,0,0,0,0,0,0,0,0,0,0,0,0,0,0],"sum_hessian":[7.309811E1,3.680256E1,3.6295547E1,3.522247E1,1.5800921E0,3.4689564E1,1.6059866E0,3.3010365E1,2.2121015E0,1.4273232E1,2.041633E1,2.9353268E1,3.6570983E0,8.293081E0,5.980152E0,6.314039E0,1.410229E1,1.440435E1,1.4948917E1,2.2476516E0,1.4094466E0,1.2638878E0,7.029193E0,3.8390312E0,2.141121E0,4.501215E0,1.8128244E0,1.262755E1,1.4747406E0],"tree_param":{"num_deleted":"2","num_feature":"14","num_nodes":"29","size_leaf_vector":"0"}},{"base_weights":[4.4009827E-2,-1.15144566E-1,3.065184E-1,-3.4328425E-1,1.095962E-1,6.913314E-1,-4.660555E-3,3.0897692E-1,-4.7727683E-1,-6.07746E-1,2.368068E-1,1.1028146E0,5.7089817E-2,-1.7351447E-1,7.569023E-1,6.42656E-1,-2.5815123E-1,1.0140031E-1,-6.505396E-1,-8.39782E-1,-0E0,1.0136199E0,9.590265E-2,-2.7604777E-1,5.096244E-1,-3.2813305E-1,4.8056632E-1,-1.4455916E-1,4.4713953E-1,-8.258871E-1,-2.4721065E-1,-2.8076538E-1,3.6024418E-1,-5.40596E-1,4.8912946E-2,-4.3751472E-1,2.2617215E-1],"categories":[],"categories_nodes":[],"categories_segments":[],"categories_sizes":[],"default_left":[1,1,1,1,1,1,1,1,1,1,1,0,1,1,0,0,0,1,1,1,1,0,1,1,0,1,0,1,1,1,1,0,0,1,1,1,1],"id":36,"left_children":[1,3,5,7,9,11,13,15,17,-1,21,-1,23,25,-1,-1,-1,-1,-1,-1,-1,-1,31,-1,-1,-1,-1,-1,-1,-1,-1,-1,-1,-1,-1,-1,-1],"loss_changes":[3.2044325E0,2.492733E0,3.5406892E0,2.2617505E0,2.3360722E0,3.2404156E0,2.2418447E0,1.0691171E0,2.169169E0,4.9874306E-1,2.154729E0,0E0,1.11467E0,1.6317445E0,0E0,0E0,0E0,5.574561E-1,8.19355E-1,0E0,0E0,0E0,2.0493443E0,4.326674E-1,0E0,8.8576317E-1,0E0,0E0,0E0,0E0,0E0,0E0,0E0,0E0,0E0,0E0,0E0],"parents":[2147483647,0,0,1,1,2,2,3,3,4,4,5,5,6,6,7,7,8,8,9,9,10,10,12,12,13,13,17,17,18,18,22,22,23,23,25,25],"right_children":[2,4,6,8,10,12,14,16,18,-1,22,-1,24,26,-1,-1,-1,-1,-1,-1,-1,-1,32,-1,-1,-1,-1,-1,-1,-1,-1,-1,-1,-1,-1,-1,-1],"split_conditions":[1.5E0,5E-1,7.4565065E-1,1.415E2,5.93326E-1,2.155E2,2.5606613E1,8.6E-1,7.008939E-1,-6.0774602E-2,2.0514252E1,1.1028146E-1,5E-1,5E-1,7.569023E-2,6.42656E-2,-2.5815124E-2,1.0140031E-2,-6.505396E-2,-8.39782E-2,-0E0,1.0136199E-1,2.3137604E1,-2.7604777E-2,5.0962444E-2,-3.2813307E-2,4.8056632E-2,-1.4455916E-2,4.4713955E-2,-8.258871E-2,-2.4721066E-2,-2.8076539E-2,3.6024418E-2,-5.4059602E-2,4.8912945E-3,-4.3751474E-2,2.2617215E-2],"split_indices":[1,0,9,11,9,11,5,8,9,11,5,0,0,3,0,0,0,5,12,2147483647,2147483647,0,5,11,0,8,0,2147483647,2147483647,2147483647,2147483647,0,0,2147483647,2147483647,2147483647,2147483647],"split_type":[0,0,0,0,0,0,0,0,0,0,0,0,0,0,0,0,0,0,0,0,0,0,0,0,0,0,0,0,0,0,0,0,0,0,0,0,0],"sum_hessian":[7.439605E1,4.6427994E1,2.7968056E1,2.2998827E1,2.3429165E1,1.2102035E1,1.5866021E1,3.5696971E0,1.942913E1,2.8416252E0,2.058754E1,6.796282E0,5.3057523E0,1.3726129E1,2.139892E0,2.2745686E0,1.2951286E0,4.4394603E0,1.498967E1,1.719194E0,1.1224312E0,2.1010327E0,1.8486507E1,3.1533806E0,2.1523716E0,1.1628481E1,2.0976481E0,2.7650485E0,1.6744117E0,9.544556E0,5.445114E0,7.4418983E0,1.1044609E1,1.542113E0,1.6112676E0,1.0038647E1,1.5898345E0],"tree_param":{"num_deleted":"10","num_feature":"14","num_nodes":"37","size_leaf_vector":"0"}},{"base_weights":[2.3369092E-2,-5.9445783E-2,4.0575096E-1,-2.624632E-1,1.1737649E-1,7.7124935E-1,-7.628104E-2,-4.1001868E-1,4.2184404E-1,3.62477E-1,-3.1476426E-1,9.2644805E-1,1.4046185E-1,-4.2170125E-1,6.638182E-1,-6.3616556E-1,-1.4049955E-1,8.234052E-1,-8.59979E-2,9.091987E-2,9.2948866E-1,2.1711682E-1,-5.741575E-1,1.0425146E0,2.0764919E-1,-6.476925E-1,5.731247E-2,-8.427403E-1,4.087083E-3,5.8764154E-1,-4.6236405E-1,-2.3060694E-1,5.1125962E-2,-5.519111E-1,3.936062E-1,1.1788344E0,2.7050298E-1,-1.2337663E-1,4.2853987E-1,-8.171474E-1,-0E0,-8.10648E-1,-7.871302E-2],"categories":[],"categories_nodes":[],"categories_segments":[],"categories_sizes":[],"default_left":[1,1,1,1,1,1,1,1,1,1,1,1,1,1,0,1,1,0,1,1,1,1,1,1,1,1,1,0,0,0,0,1,1,0,0,1,1,1,1,0,0,1,1],"id":37,"left_children":[1,3,5,7,9,-1,13,15,17,19,21,-1,-1,-1,-1,27,29,-1,-1,33,-1,-1,39,-1,-1,-1,-1,-1,-1,-1,-1,-1,-1,-1,-1,-1,-1,-1,-1,-1,-1,-1,-1],"loss_changes":[2.2324734E0,2.094396E0,2.341652E0,2.9126358E0,3.3955717E0,4.8302078E-1,1.8431994E0,1.2321913E0,1.2024438E0,2.9472566E0,1.7585269E0,1.2530327E-1,0E0,6.306432E-1,0E0,1.6741118E0,3.0619721E0,0E0,9.0933636E-2,3.1179805E0,5.817547E-1,3.9988935E-1,1.2059226E0,0E0,0E0,1.789844E-1,0E0,0E0,0E0,0E0,0E0,0E0,0E0,0E0,0E0,0E0,0E0,0E0,0E0,0E0,0E0,0E0,0E0],"parents":[2147483647,0,0,1,1,2,2,3,3,4,4,5,5,6,6,7,7,8,8,9,9,10,10,11,11,13,13,15,15,16,16,18,18,19,19,20,20,21,21,22,22,25,25],"right_children":[2,4,6,8,10,-1,14,16,18,20,22,-1,-1,-1,-1,28,30,-1,-1,34,-1,-1,40,-1,-1,-1,-1,-1,-1,-1,-1,-1,-1,-1,-1,-1,-1,-1,-1,-1,-1,-1,-1],"split_conditions":[5E-1,5E-1,6.0015E0,7.82E0,2.1787021E2,7.712494E-2,1.025E0,2.075E2,5E-1,2.04427E2,2.1255814E1,9.26448E-2,1.4046185E-2,-4.2170126E-2,6.638182E-2,